{"learner":{"attributes":{},"feature_names":["T50","Ps30","Nc","fc"],"feature_types":[],"gradient_booster":{"model":{"gbtree_model_param":{"num_parallel_tree":"1","num_trees":"630"},"iteration_indptr":[0,1,2,3,4,5,6,7,8,9,10,11,12,13,14,15,16,17,18,19,20,21,22,23,24,25,26,27,28,29,30,31,32,33,34,35,36,37,38,39,40,41,42,43,44,45,46,47,48,49,50,51,52,53,54,55,56,57,58,59,60,61,62,63,64,65,66,67,68,69,70,71,72,73,74,75,76,77,78,79,80,81,82,83,84,85,86,87,88,89,90,91,92,93,94,95,96,97,98,99,100,101,102,103,104,105,106,107,108,109,110,111,112,113,114,115,116,117,118,119,120,121,122,123,124,125,126,127,128,129,130,131,132,133,134,135,136,137,138,139,140,141,142,143,144,145,146,147,148,149,150,151,152,153,154,155,156,157,158,159,160,161,162,163,164,165,166,167,168,169,170,171,172,173,174,175,176,177,178,179,180,181,182,183,184,185,186,187,188,189,190,191,192,193,194,195,196,197,198,199,200,201,202,203,204,205,206,207,208,209,210,211,212,213,214,215,216,217,218,219,220,221,222,223,224,225,226,227,228,229,230,231,232,233,234,235,236,237,238,239,240,241,242,243,244,245,246,247,248,249,250,251,252,253,254,255,256,257,258,259,260,261,262,263,264,265,266,267,268,269,270,271,272,273,274,275,276,277,278,279,280,281,282,283,284,285,286,287,288,289,290,291,292,293,294,295,296,297,298,299,300,301,302,303,304,305,306,307,308,309,310,311,312,313,314,315,316,317,318,319,320,321,322,323,324,325,326,327,328,329,330,331,332,333,334,335,336,337,338,339,340,341,342,343,344,345,346,347,348,349,350,351,352,353,354,355,356,357,358,359,360,361,362,363,364,365,366,367,368,369,370,371,372,373,374,375,376,377,378,379,380,381,382,383,384,385,386,387,388,389,390,391,392,393,394,395,396,397,398,399,400,401,402,403,404,405,406,407,408,409,410,411,412,413,414,415,416,417,418,419,420,421,422,423,424,425,426,427,428,429,430,431,432,433,434,435,436,437,438,439,440,441,442,443,444,445,446,447,448,449,450,451,452,453,454,455,456,457,458,459,460,461,462,463,464,465,466,467,468,469,470,471,472,473,474,475,476,477,478,479,480,481,482,483,484,485,486,487,488,489,490,491,492,493,494,495,496,497,498,499,500,501,502,503,504,505,506,507,508,509,510,511,512,513,514,515,516,517,518,519,520,521,522,523,524,525,526,527,528,529,530,531,532,533,534,535,536,537,538,539,540,541,542,543,544,545,546,547,548,549,550,551,552,553,554,555,556,557,558,559,560,561,562,563,564,565,566,567,568,569,570,571,572,573,574,575,576,577,578,579,580,581,582,583,584,585,586,587,588,589,590,591,592,593,594,595,596,597,598,599,600,601,602,603,604,605,606,607,608,609,610,611,612,613,614,615,616,617,618,619,620,621,622,623,624,625,626,627,628,629,630],"tree_info":[0,0,0,0,0,0,0,0,0,0,0,0,0,0,0,0,0,0,0,0,0,0,0,0,0,0,0,0,0,0,0,0,0,0,0,0,0,0,0,0,0,0,0,0,0,0,0,0,0,0,0,0,0,0,0,0,0,0,0,0,0,0,0,0,0,0,0,0,0,0,0,0,0,0,0,0,0,0,0,0,0,0,0,0,0,0,0,0,0,0,0,0,0,0,0,0,0,0,0,0,0,0,0,0,0,0,0,0,0,0,0,0,0,0,0,0,0,0,0,0,0,0,0,0,0,0,0,0,0,0,0,0,0,0,0,0,0,0,0,0,0,0,0,0,0,0,0,0,0,0,0,0,0,0,0,0,0,0,0,0,0,0,0,0,0,0,0,0,0,0,0,0,0,0,0,0,0,0,0,0,0,0,0,0,0,0,0,0,0,0,0,0,0,0,0,0,0,0,0,0,0,0,0,0,0,0,0,0,0,0,0,0,0,0,0,0,0,0,0,0,0,0,0,0,0,0,0,0,0,0,0,0,0,0,0,0,0,0,0,0,0,0,0,0,0,0,0,0,0,0,0,0,0,0,0,0,0,0,0,0,0,0,0,0,0,0,0,0,0,0,0,0,0,0,0,0,0,0,0,0,0,0,0,0,0,0,0,0,0,0,0,0,0,0,0,0,0,0,0,0,0,0,0,0,0,0,0,0,0,0,0,0,0,0,0,0,0,0,0,0,0,0,0,0,0,0,0,0,0,0,0,0,0,0,0,0,0,0,0,0,0,0,0,0,0,0,0,0,0,0,0,0,0,0,0,0,0,0,0,0,0,0,0,0,0,0,0,0,0,0,0,0,0,0,0,0,0,0,0,0,0,0,0,0,0,0,0,0,0,0,0,0,0,0,0,0,0,0,0,0,0,0,0,0,0,0,0,0,0,0,0,0,0,0,0,0,0,0,0,0,0,0,0,0,0,0,0,0,0,0,0,0,0,0,0,0,0,0,0,0,0,0,0,0,0,0,0,0,0,0,0,0,0,0,0,0,0,0,0,0,0,0,0,0,0,0,0,0,0,0,0,0,0,0,0,0,0,0,0,0,0,0,0,0,0,0,0,0,0,0,0,0,0,0,0,0,0,0,0,0,0,0,0,0,0,0,0,0,0,0,0,0,0,0,0,0,0,0,0,0,0,0,0,0,0,0,0,0,0,0,0,0,0,0,0,0,0,0,0,0,0,0,0,0,0,0,0,0,0,0,0,0,0,0,0,0,0,0,0,0,0,0,0,0,0,0,0,0,0,0,0,0,0,0,0,0,0,0,0,0,0,0,0,0,0,0,0,0,0,0,0,0,0,0,0,0,0,0,0,0,0,0,0,0,0,0,0,0,0,0,0,0,0,0,0,0,0,0,0,0,0,0,0,0,0,0,0,0,0,0],"trees":[{"base_weights":[1.2383767E-3,-4.5577753E-1,6.5412273E0,1.7699176E0,-1.6903071E0,1.0754424E1,5.2178173E0,-9.88059E-2,8.103481E0,-6.114387E0,-1.4390929E-1,5.8839536E0,1.6653997E1,-5.200575E-1,8.654019E0,1.9253433E0,-2.7001214E0,1.170785E1,4.290424E0,-2.4546204E1,-5.628712E0,3.1081047E0,-2.775848E0,1.0451881E1,-6.9803667E0,1.5563527E1,2.7687332E1,5.3811765E0,-9.353337E0,1.6832727E1,5.6170006E0,3.927378E-2,6.0620743E-1,-9.87431E-1,-8.8090345E-2,7.617199E-1,4.9160108E-1,-4.5566317E-1,5.3473E-1,-8.765594E-1,-1.4614341E0,-2.60075E-1,-1.2724987E0,5.5508178E-2,4.1404158E-1,-5.0163615E-1,-2.0085291E-3,3.5276532E-1,8.407051E-1,-1.3112361E0,-3.7159972E-2,1.2178137E0,7.4558455E-1,1.5442567E0,9.608719E-1,-8.943283E-1,4.5703742E-1,-4.0224963E-1,-1.2689195E0,1.6469513E0,7.4644905E-1,-8.696532E-2,3.4757173E-1],"categories":[],"categories_nodes":[],"categories_segments":[],"categories_sizes":[],"default_left":[0,0,0,0,0,0,0,0,0,0,0,0,0,0,0,0,0,0,0,0,0,0,0,0,0,0,0,0,0,0,0,0,0,0,0,0,0,0,0,0,0,0,0,0,0,0,0,0,0,0,0,0,0,0,0,0,0,0,0,0,0,0,0],"id":0,"left_children":[1,3,5,7,9,11,13,15,17,19,21,23,25,27,29,31,33,35,37,39,41,43,45,47,49,51,53,55,57,59,61,-1,-1,-1,-1,-1,-1,-1,-1,-1,-1,-1,-1,-1,-1,-1,-1,-1,-1,-1,-1,-1,-1,-1,-1,-1,-1,-1,-1,-1,-1,-1,-1],"loss_changes":[1.332152E7,1.144663E7,1.623138E6,1.759142E7,1.8332256E7,1.9993075E6,4.36784E6,6.0430625E6,4.653886E6,6.212812E6,1.6994728E7,2.240012E6,3.78165E5,4.325413E6,3.441484E6,7.503474E6,8.034175E6,1.15139E6,1.4125001E7,5.84768E5,5.726038E6,9.17898E6,2.1786318E7,6.0776375E5,1.198963E6,1.6378E5,7.603E4,4.351694E6,6.9656825E5,1.149897E6,9.91862E5,0E0,0E0,0E0,0E0,0E0,0E0,0E0,0E0,0E0,0E0,0E0,0E0,0E0,0E0,0E0,0E0,0E0,0E0,0E0,0E0,0E0,0E0,0E0,0E0,0E0,0E0,0E0,0E0,0E0,0E0,0E0,0E0],"parents":[2147483647,0,0,1,1,2,2,3,3,4,4,5,5,6,6,7,7,8,8,9,9,10,10,11,11,12,12,13,13,14,14,15,15,16,16,17,17,18,18,19,19,20,20,21,21,22,22,23,23,24,24,25,25,26,26,27,27,28,28,29,29,30,30],"right_children":[2,4,6,8,10,12,14,16,18,20,22,24,26,28,30,32,34,36,38,40,42,44,46,48,50,52,54,56,58,60,62,-1,-1,-1,-1,-1,-1,-1,-1,-1,-1,-1,-1,-1,-1,-1,-1,-1,-1,-1,-1,-1,-1,-1,-1,-1,-1,-1,-1,-1,-1,-1,-1],"split_conditions":[9E0,1.1009691E3,1.1135184E3,8.169017E3,8.24334E3,7.973924E3,8.304791E3,1.0726418E3,1.0917911E3,7.959475E3,1.1634111E3,1.0880676E3,8.143027E3,1.1380458E3,1.1627264E3,8.1105337E3,7.888231E3,1.083777E3,8.205695E3,1.1053915E3,1.1641677E3,8.350291E3,8.431803E3,7.9164204E3,7.9381777E3,1.0814802E3,1.1112465E3,8.0359634E3,1.1725289E3,1.140428E3,8.381706E3,3.927378E-2,6.0620743E-1,-9.87431E-1,-8.8090345E-2,7.617199E-1,4.9160108E-1,-4.5566317E-1,5.3473E-1,-8.765594E-1,-1.4614341E0,-2.60075E-1,-1.2724987E0,5.5508178E-2,4.1404158E-1,-5.0163615E-1,-2.0085291E-3,3.5276532E-1,8.407051E-1,-1.3112361E0,-3.7159972E-2,1.2178137E0,7.4558455E-1,1.5442567E0,9.608719E-1,-8.943283E-1,4.5703742E-1,-4.0224963E-1,-1.2689195E0,1.6469513E0,7.4644905E-1,-8.696532E-2,3.4757173E-1],"split_indices":[3,0,0,2,2,2,2,0,0,2,0,0,2,0,0,2,2,0,2,0,0,2,2,2,2,0,0,2,0,0,2,0,0,0,0,0,0,0,0,0,0,0,0,0,0,0,0,0,0,0,0,0,0,0,0,0,0,0,0,0,0,0,0],"split_type":[0,0,0,0,0,0,0,0,0,0,0,0,0,0,0,0,0,0,0,0,0,0,0,0,0,0,0,0,0,0,0,0,0,0,0,0,0,0,0,0,0,0,0,0,0,0,0,0,0,0,0,0,0,0,0,0,0,0,0,0,0,0,0],"sum_hessian":[4.457027E6,4.165913E6,2.91114E5,1.486303E6,2.67961E6,6.9583E4,2.21531E5,1.14768E6,3.38623E5,6.94038E5,1.985572E6,3.8117E4,3.1466E4,8.2976E4,1.38555E5,6.45444E5,5.02236E5,1.74074E5,1.64549E5,1.7817E4,6.76221E5,8.88162E5,1.09741E6,2.8129E4,9.988E3,2.8638E4,2.828E3,4.9744E4,3.3232E4,3.7517E4,1.01038E5,5.80559E5,6.4885E4,2.6199E4,4.76037E5,6.044E4,1.13634E5,5.3201E4,1.11348E5,7.134E3,1.0683E4,6.61955E5,1.4266E4,6.40697E5,2.47465E5,3.00439E5,7.96971E5,1.834E4,9.789E3,2.444E3,7.544E3,1.974E3,2.6664E4,2.051E3,7.77E2,6.919E3,4.2825E4,3.0725E4,2.507E3,3.964E3,3.3553E4,1.5514E4,8.5524E4],"tree_param":{"num_deleted":"0","num_feature":"4","num_nodes":"63","size_leaf_vector":"1"}},{"base_weights":[6.7412324E-4,-4.3381426E-1,6.2102537E0,1.6184223E0,-1.6537743E0,1.012217E1,4.9508405E0,-1.4697037E0,5.726089E0,-1.4136657E1,-6.284954E-2,7.312994E0,1.994386E1,-1.6168434E1,6.2137127E0,-5.0538296E-1,-1.6069231E1,3.4929578E0,1.003897E1,-2.7211573E1,-1.2363029E1,2.6593425E0,-2.8593948E0,1.119418E1,2.0664337E0,1.6242506E1,2.462934E1,-7.291479E0,-2.8151701E1,1.3851186E1,4.5134573E0,9.8741494E-2,-1.9094002E-1,-1.2798862E0,-3.8215744E-1,6.083235E-2,4.2582607E-1,6.691966E-1,3.44699E-1,-1.5781392E0,-1.1577789E0,-5.3623545E-1,-1.3622464E0,4.6690952E-2,5.863914E-1,-5.0768965E-1,-1.0517343E-2,4.0992323E-1,9.3196404E-1,-8.349288E-1,4.4841996E-1,1.2242992E0,5.332465E-1,1.4604033E0,9.183607E-1,-1.0525844E0,1.4515451E-2,-1.1855196E0,-1.5807425E0,4.268713E-1,1.4117762E0,-1.1033128E0,3.3054215E-1],"categories":[],"categories_nodes":[],"categories_segments":[],"categories_sizes":[],"default_left":[0,0,0,0,0,0,0,0,0,0,0,0,0,0,0,0,0,0,0,0,0,0,0,0,0,0,0,0,0,0,0,0,0,0,0,0,0,0,0,0,0,0,0,0,0,0,0,0,0,0,0,0,0,0,0,0,0,0,0,0,0,0,0],"id":1,"left_children":[1,3,5,7,9,11,13,15,17,19,21,23,25,27,29,31,33,35,37,39,41,43,45,47,49,51,53,55,57,59,61,-1,-1,-1,-1,-1,-1,-1,-1,-1,-1,-1,-1,-1,-1,-1,-1,-1,-1,-1,-1,-1,-1,-1,-1,-1,-1,-1,-1,-1,-1,-1,-1],"loss_changes":[1.2023284E7,1.0427591E7,1.435719E6,1.9697342E7,5.1875636E7,1.958033E6,5.879819E6,1.2479415E7,6.418198E6,6.847268E6,1.7637752E7,1.1237838E6,2.73336E5,1.3229928E6,2.701162E6,6.833168E6,4.409294E6,5.020747E6,2.391466E6,6.21732E5,6.339168E6,1.837131E7,2.208314E7,7.0735575E5,3.0396185E6,4.053165E5,1.991395E5,7.4563125E5,8.06615E4,2.8948085E6,9.485149E6,0E0,0E0,0E0,0E0,0E0,0E0,0E0,0E0,0E0,0E0,0E0,0E0,0E0,0E0,0E0,0E0,0E0,0E0,0E0,0E0,0E0,0E0,0E0,0E0,0E0,0E0,0E0,0E0,0E0,0E0,0E0,0E0],"parents":[2147483647,0,0,1,1,2,2,3,3,4,4,5,5,6,6,7,7,8,8,9,9,10,10,11,11,12,12,13,13,14,14,15,15,16,16,17,17,18,18,19,19,20,20,21,21,22,22,23,23,24,24,25,25,26,26,27,27,28,28,29,29,30,30],"right_children":[2,4,6,8,10,12,14,16,18,20,22,24,26,28,30,32,34,36,38,40,42,44,46,48,50,52,54,56,58,60,62,-1,-1,-1,-1,-1,-1,-1,-1,-1,-1,-1,-1,-1,-1,-1,-1,-1,-1,-1,-1,-1,-1,-1,-1,-1,-1,-1,-1,-1,-1,-1,-1],"split_conditions":[9E0,1.1029789E3,1.1141173E3,1.8995125E2,2.1491695E2,2.2115112E2,2.310658E2,1.0928693E3,7E0,1.9307103E2,1.1620793E3,1.0875327E3,2.2575925E2,1.1212E3,1.1373352E3,1.0641718E3,1.8366194E2,2.07121E2,8E0,1.8721092E2,1.1259811E3,2.6102817E2,2.8077646E2,1.9972171E2,2.0879137E2,1.1058986E3,1.1112465E3,2.2352675E2,1.1259811E3,2.4728229E2,2.5136673E2,9.8741494E-2,-1.9094002E-1,-1.2798862E0,-3.8215744E-1,6.083235E-2,4.2582607E-1,6.691966E-1,3.44699E-1,-1.5781392E0,-1.1577789E0,-5.3623545E-1,-1.3622464E0,4.6690952E-2,5.863914E-1,-5.0768965E-1,-1.0517343E-2,4.0992323E-1,9.3196404E-1,-8.349288E-1,4.4841996E-1,1.2242992E0,5.332465E-1,1.4604033E0,9.183607E-1,-1.0525844E0,1.4515451E-2,-1.1855196E0,-1.5807425E0,4.268713E-1,1.4117762E0,-1.1033128E0,3.3054215E-1],"split_indices":[3,0,0,1,1,1,1,0,3,1,0,0,1,0,0,0,1,1,3,1,0,1,1,1,1,0,0,1,0,1,1,0,0,0,0,0,0,0,0,0,0,0,0,0,0,0,0,0,0,0,0,0,0,0,0,0,0,0,0,0,0,0,0],"split_type":[0,0,0,0,0,0,0,0,0,0,0,0,0,0,0,0,0,0,0,0,0,0,0,0,0,0,0,0,0,0,0,0,0,0,0,0,0,0,0,0,0,0,0,0,0,0,0,0,0,0,0,0,0,0,0,0,0,0,0,0,0,0,0],"sum_hessian":[4.456383E6,4.164959E6,2.91424E5,1.552805E6,2.612154E6,7.0971E4,2.20453E5,8.86408E5,6.66397E5,2.95281E5,2.316873E6,5.5188E4,1.5783E4,1.2438E4,2.08015E5,8.31488E5,5.492E4,4.39061E5,2.27336E5,3.5269E4,2.60012E5,1.174044E6,1.142829E6,3.1721E4,2.3467E4,8.82E3,6.963E3,7.146E3,5.292E3,3.7875E4,1.7014E5,4.75534E5,3.55954E5,2.5773E4,2.9147E4,3.0215E5,1.36911E5,1.10164E5,1.17172E5,1.7012E4,1.8257E4,2.34228E5,2.5784E4,9.86363E5,1.87681E5,3.04462E5,8.38367E5,2.2621E4,9.1E3,6.31E3,1.7157E4,3.558E3,5.262E3,4.02E3,2.943E3,2.538E3,4.608E3,2.322E3,2.97E3,2.7659E4,1.0216E4,1.2443E4,1.57697E5],"tree_param":{"num_deleted":"0","num_feature":"4","num_nodes":"63","size_leaf_vector":"1"}},{"base_weights":[1.701126E-3,-2.0713894E0,1.2398767E0,-5.703485E-1,-6.3780484E0,9.293183E0,1.93099E-1,6.1180085E-1,-3.2590644E0,-8.555333E0,-5.29438E0,1.276868E1,3.8738506E0,-3.9162812E0,2.0107217E0,-2.2616999E-1,1.1363266E1,-2.0638603E1,-2.3692987E0,-5.2252083E0,-2.0335056E1,-2.5491285E-1,-6.738072E0,1.07946005E1,2.6503735E1,-1.7458097E1,9.208287E0,-1.5698857E0,-5.4047303E0,4.1966786E0,2.9891065E-1,3.1994548E-2,-4.1871715E-1,4.7754884E-1,8.4808266E-1,-8.3334965E-1,-1.348521E0,-3.5469878E-1,-5.686889E-2,-5.6911093E-1,-2.2355986E-1,-1.4441422E0,-8.794552E-1,-1.04296744E-1,3.5513112E-1,-7.2109073E-1,-2.7237627E-1,6.0396E-1,-7.6281625E-1,2.0142589E0,1.0631744E0,-4.125782E-1,-1.345092E0,5.0676316E-1,-2.3640957E-1,-1.9751447E-1,1.2607937E-1,-1.1205113E0,-2.345625E-1,-3.623612E-2,3.8499787E-1,-7.3462975E-1,9.749631E-2],"categories":[],"categories_nodes":[],"categories_segments":[],"categories_sizes":[],"default_left":[0,0,0,0,0,0,0,0,0,0,0,0,0,0,0,0,0,0,0,0,0,0,0,0,0,0,0,0,0,0,0,0,0,0,0,0,0,0,0,0,0,0,0,0,0,0,0,0,0,0,0,0,0,0,0,0,0,0,0,0,0,0,0],"id":2,"left_children":[1,3,5,7,9,11,13,15,17,19,21,23,25,27,29,31,33,35,37,39,41,43,45,47,49,51,53,55,57,59,61,-1,-1,-1,-1,-1,-1,-1,-1,-1,-1,-1,-1,-1,-1,-1,-1,-1,-1,-1,-1,-1,-1,-1,-1,-1,-1,-1,-1,-1,-1,-1,-1],"loss_changes":[1.1440721E7,1.0773924E7,2.3523704E7,3.9282148E6,1.0163E6,6.045678E6,1.8445326E7,7.7341345E6,5.836499E6,5.615178E6,2.0924875E6,5.302308E6,1.4272309E7,2.644898E6,6.406853E6,5.6199175E6,6.29593E5,4.61812E5,2.0898401E6,5.1803775E5,7.3998E5,8.6284375E5,2.216834E6,5.72243E6,1.773904E6,2.181206E6,1.296215E6,2.862826E6,5.622002E6,1.2964357E7,2.3766782E7,0E0,0E0,0E0,0E0,0E0,0E0,0E0,0E0,0E0,0E0,0E0,0E0,0E0,0E0,0E0,0E0,0E0,0E0,0E0,0E0,0E0,0E0,0E0,0E0,0E0,0E0,0E0,0E0,0E0,0E0,0E0,0E0],"parents":[2147483647,0,0,1,1,2,2,3,3,4,4,5,5,6,6,7,7,8,8,9,9,10,10,11,11,12,12,13,13,14,14,15,15,16,16,17,17,18,18,19,19,20,20,21,21,22,22,23,23,24,24,25,25,26,26,27,27,28,28,29,29,30,30],"right_children":[2,4,6,8,10,12,14,16,18,20,22,24,26,28,30,32,34,36,38,40,42,44,46,48,50,52,54,56,58,60,62,-1,-1,-1,-1,-1,-1,-1,-1,-1,-1,-1,-1,-1,-1,-1,-1,-1,-1,-1,-1,-1,-1,-1,-1,-1,-1,-1,-1,-1,-1,-1,-1],"split_conditions":[5E0,4E0,6E0,1.1620793E3,2.1219043E2,1.1627264E3,7E0,2.634514E2,2.5716037E2,1.1000215E3,1.1272388E3,2.695002E2,2.8144672E2,1.0917911E3,1.109601E3,1.1452167E3,2.776857E2,1.1689354E3,2.8144672E2,1.6215717E2,2.0190482E2,2.3439497E2,2.413475E2,1.1529916E3,1.1556256E3,1.1725289E3,1.2857855E3,1.8146535E2,1.8567386E2,1.8316742E2,2.1658124E2,3.1994548E-2,-4.1871715E-1,4.7754884E-1,8.4808266E-1,-8.3334965E-1,-1.348521E0,-3.5469878E-1,-5.686889E-2,-5.6911093E-1,-2.2355986E-1,-1.4441422E0,-8.794552E-1,-1.04296744E-1,3.5513112E-1,-7.2109073E-1,-2.7237627E-1,6.0396E-1,-7.6281625E-1,2.0142589E0,1.0631744E0,-4.125782E-1,-1.345092E0,5.0676316E-1,-2.3640957E-1,-1.9751447E-1,1.2607937E-1,-1.1205113E0,-2.345625E-1,-3.623612E-2,3.8499787E-1,-7.3462975E-1,9.749631E-2],"split_indices":[3,3,3,0,1,0,3,1,1,0,0,1,1,0,0,0,1,0,1,1,1,1,1,0,0,0,0,1,1,1,1,0,0,0,0,0,0,0,0,0,0,0,0,0,0,0,0,0,0,0,0,0,0,0,0,0,0,0,0,0,0,0,0],"split_type":[0,0,0,0,0,0,0,0,0,0,0,0,0,0,0,0,0,0,0,0,0,0,0,0,0,0,0,0,0,0,0,0,0,0,0,0,0,0,0,0,0,0,0,0,0,0,0,0,0,0,0,0,0,0,0,0,0,0,0,0,0,0,0],"sum_hessian":[4.457103E6,1.666636E6,2.790467E6,1.235883E6,4.30753E5,3.20985E5,2.469482E6,8.58449E5,3.77434E5,1.43144E5,2.87609E5,1.95565E5,1.2542E5,7.57311E5,1.712171E6,7.9638E5,6.2069E4,1.8381E4,3.59053E5,1.11597E5,3.1547E4,6.4046E4,2.23563E5,1.70991E5,2.4574E4,2.5089E4,1.00331E5,2.93942E5,4.63369E5,7.51946E5,9.60225E5,7.19867E5,7.6513E4,4.6892E4,1.5177E4,1.1298E4,7.083E3,7.4257E4,2.84796E5,1.2174E4,9.9423E4,7.668E3,2.3879E4,5.1284E4,1.2762E4,3.2148E4,1.91415E5,1.62956E5,8.035E3,6.768E3,1.7806E4,1.2705E4,1.2384E4,9.4074E4,6.257E3,1.85828E5,1.08114E5,1.8657E4,4.44712E5,3.12686E5,4.3926E5,9.5258E4,8.64967E5],"tree_param":{"num_deleted":"0","num_feature":"4","num_nodes":"63","size_leaf_vector":"1"}},{"base_weights":[-5.9116036E-3,-1.9756593E0,1.1716799E0,6.800698E-1,-4.2234645E0,8.855268E0,1.7270091E-1,1.9658221E0,-2.2468326E0,-2.5579698E0,-6.045987E0,1.216284E1,3.6942637E0,-3.7290993E0,1.9000971E0,6.4420605E-1,7.2834935E0,-1.0035583E1,6.433764E-1,5.3086007E-1,-3.7795541E0,-4.2115016E0,-6.8046365E0,1.0333459E1,2.287019E1,-1.2458138E1,8.928222E0,-1.5627749E0,-5.1697297E0,3.9864898E0,2.6553735E-1,8.8688724E-2,-2.9587436E-1,7.8032434E-1,2.4337749E-1,-4.526875E-1,-1.3042082E0,5.7347035E-1,-1.917861E-2,-9.139247E-2,6.7126936E-1,-3.3902332E-1,-1.1643156E-1,-3.2955256E-1,-8.6942926E-2,-5.4233044E-1,-2.7005503E-1,5.848923E-1,-4.6853755E-2,1.4788016E0,9.1036797E-1,-3.0494845E-1,-9.2527574E-1,4.930016E-1,-2.1135807E-1,-1.6449556E-1,5.7741356E-1,-4.933067E-1,-1.5583408E-1,1.3961565E-1,7.2091556E-1,-2.9259765E-1,1.2758009E-1],"categories":[],"categories_nodes":[],"categories_segments":[],"categories_sizes":[],"default_left":[0,0,0,0,0,0,0,0,0,0,0,0,0,0,0,0,0,0,0,0,0,0,0,0,0,0,0,0,0,0,0,0,0,0,0,0,0,0,0,0,0,0,0,0,0,0,0,0,0,0,0,0,0,0,0,0,0,0,0,0,0,0,0],"id":3,"left_children":[1,3,5,7,9,11,13,15,17,19,21,23,25,27,29,31,33,35,37,39,41,43,45,47,49,51,53,55,57,59,61,-1,-1,-1,-1,-1,-1,-1,-1,-1,-1,-1,-1,-1,-1,-1,-1,-1,-1,-1,-1,-1,-1,-1,-1,-1,-1,-1,-1,-1,-1,-1,-1],"loss_changes":[1.0338411E7,9.955024E6,2.141095E7,2.876841E6,2.741499E6,5.478526E6,1.6637532E7,3.7327485E6,5.2523E6,1.7806895E6,6.00168E5,3.830946E6,1.059741E7,2.364027E6,5.8350865E6,3.1530692E6,2.1258705E6,9.94772E5,1.8919611E6,4.0678038E6,1.472443E6,7.4235625E5,1.730721E6,2.568818E6,8.91857E5,1.179649E6,1.1605865E6,6.85106E6,4.386533E6,9.363193E6,1.3416994E7,0E0,0E0,0E0,0E0,0E0,0E0,0E0,0E0,0E0,0E0,0E0,0E0,0E0,0E0,0E0,0E0,0E0,0E0,0E0,0E0,0E0,0E0,0E0,0E0,0E0,0E0,0E0,0E0,0E0,0E0,0E0,0E0],"parents":[2147483647,0,0,1,1,2,2,3,3,4,4,5,5,6,6,7,7,8,8,9,9,10,10,11,11,12,12,13,13,14,14,15,15,16,16,17,17,18,18,19,19,20,20,21,21,22,22,23,23,24,24,25,25,26,26,27,27,28,28,29,29,30,30],"right_children":[2,4,6,8,10,12,14,16,18,20,22,24,26,28,30,32,34,36,38,40,42,44,46,48,50,52,54,56,58,60,62,-1,-1,-1,-1,-1,-1,-1,-1,-1,-1,-1,-1,-1,-1,-1,-1,-1,-1,-1,-1,-1,-1,-1,-1,-1,-1,-1,-1,-1,-1,-1,-1],"split_conditions":[5E0,3E0,6E0,1.1634111E3,4E0,1.1627264E3,7E0,8.304791E3,8.431803E3,1.0949056E3,1.1014554E3,8.330987E3,8.384062E3,1.0928693E3,1.109601E3,1.132806E3,1.1418312E3,1.198226E3,1.1829755E3,8.1666113E3,8.245302E3,7.9921396E3,8.24334E3,1.1458771E3,1.1556256E3,1.1735071E3,1.2857855E3,8.194796E3,8.237282E3,8.221362E3,8.270699E3,8.8688724E-2,-2.9587436E-1,7.8032434E-1,2.4337749E-1,-4.526875E-1,-1.3042082E0,5.7347035E-1,-1.917861E-2,-9.139247E-2,6.7126936E-1,-3.3902332E-1,-1.1643156E-1,-3.2955256E-1,-8.6942926E-2,-5.4233044E-1,-2.7005503E-1,5.848923E-1,-4.6853755E-2,1.4788016E0,9.1036797E-1,-3.0494845E-1,-9.2527574E-1,4.930016E-1,-2.1135807E-1,-1.6449556E-1,5.7741356E-1,-4.933067E-1,-1.5583408E-1,1.3961565E-1,7.2091556E-1,-2.9259765E-1,1.2758009E-1],"split_indices":[3,3,3,0,3,0,3,2,2,0,0,2,2,0,0,0,0,0,0,2,2,2,2,0,0,0,0,2,2,2,2,0,0,0,0,0,0,0,0,0,0,0,0,0,0,0,0,0,0,0,0,0,0,0,0,0,0,0,0,0,0,0,0],"split_type":[0,0,0,0,0,0,0,0,0,0,0,0,0,0,0,0,0,0,0,0,0,0,0,0,0,0,0,0,0,0,0,0,0,0,0,0,0,0,0,0,0,0,0,0,0,0,0,0,0,0,0,0,0,0,0,0,0,0,0,0,0,0,0],"sum_hessian":[4.457059E6,1.667629E6,2.78943E6,7.6445E5,9.03179E5,3.20939E5,2.468491E6,5.31131E5,2.33319E5,4.71921E5,4.31258E5,1.95589E5,1.2535E5,7.5749E5,1.711001E6,4.25405E5,1.05726E5,6.3146E4,1.70173E5,1.33744E5,3.38177E5,1.26171E5,3.05087E5,1.6705E5,2.8539E4,3.0677E4,9.4673E4,3.02545E5,4.54945E5,7.51617E5,9.59384E5,3.62929E5,6.2476E4,2.3784E4,8.1942E4,5.9507E4,3.639E3,1.4743E4,1.5543E5,1.13063E5,2.0681E4,1.10216E5,2.27961E5,6.4295E4,6.1876E4,7.8632E4,2.26455E5,1.49011E5,1.8039E4,1.1703E4,1.6836E4,1.4954E4,1.5723E4,8.8411E4,6.262E3,2.6733E5,3.5215E4,1.38384E5,3.16561E5,6.74415E5,7.7202E4,2.60986E5,6.98398E5],"tree_param":{"num_deleted":"0","num_feature":"4","num_nodes":"63","size_leaf_vector":"1"}},{"base_weights":[9.396424E-3,-3.9020565E-1,5.715805E0,1.6980364E0,-1.3751352E0,8.119549E0,3.961008E0,-7.584742E-2,9.261693E0,-4.802426E0,-7.5846664E-3,6.695717E0,2.3369532E1,-8.433097E0,7.24147E0,1.7184023E0,-2.910223E0,6.796024E0,1.4119351E1,-2.2858824E1,-4.3884616E0,2.8733602E0,-2.4299736E0,9.171985E0,2.0302947E0,1.8897284E1,3.0383205E1,-7.149103E0,-2.3829872E1,1.42059355E1,4.6487427E0,3.3548813E-2,5.7318133E-1,-9.5654327E-1,-9.7410016E-2,5.1181066E-1,-1.7958455E-1,1.1382841E0,6.70779E-1,-1.3766354E0,-8.542396E-1,-2.0319283E-1,-1.2040013E0,5.7352412E-2,3.8012213E-1,-4.5039058E-1,3.0911781E-3,2.4021633E-1,7.211904E-1,-1.0216534E0,2.7445242E-1,1.5268439E0,8.629443E-1,1.5863099E0,1.3055218E0,-1.0955993E0,-2.9078838E-1,-1.665329E0,-1.0017852E0,4.030107E-1,1.0207028E0,3.169616E-1,-2.7795164E-2],"categories":[],"categories_nodes":[],"categories_segments":[],"categories_sizes":[],"default_left":[0,0,0,0,0,0,0,0,0,0,0,0,0,0,0,0,0,0,0,0,0,0,0,0,0,0,0,0,0,0,0,0,0,0,0,0,0,0,0,0,0,0,0,0,0,0,0,0,0,0,0,0,0,0,0,0,0,0,0,0,0,0,0],"id":4,"left_children":[1,3,5,7,9,11,13,15,17,19,21,23,25,27,29,31,33,35,37,39,41,43,45,47,49,51,53,55,57,59,61,-1,-1,-1,-1,-1,-1,-1,-1,-1,-1,-1,-1,-1,-1,-1,-1,-1,-1,-1,-1,-1,-1,-1,-1,-1,-1,-1,-1,-1,-1,-1,-1],"loss_changes":[1.0164235E7,8.567923E6,1.230434E6,1.7912864E7,1.3267158E7,2.672635E6,6.855838E6,5.4998175E6,3.037726E6,6.034478E6,1.4120158E7,1.3006455E6,3.291225E5,6.9749E5,2.407468E6,6.759711E6,6.5416865E6,6.012139E6,5.19316E5,4.87836E5,5.044704E6,7.544861E6,1.8015344E7,1.6869645E6,3.033178E6,1.2192325E5,2.2647E4,6.4107475E5,9.699E4,1.379844E6,8.548645E5,0E0,0E0,0E0,0E0,0E0,0E0,0E0,0E0,0E0,0E0,0E0,0E0,0E0,0E0,0E0,0E0,0E0,0E0,0E0,0E0,0E0,0E0,0E0,0E0,0E0,0E0,0E0,0E0,0E0,0E0,0E0,0E0],"parents":[2147483647,0,0,1,1,2,2,3,3,4,4,5,5,6,6,7,7,8,8,9,9,10,10,11,11,12,12,13,13,14,14,15,15,16,16,17,17,18,18,19,19,20,20,21,21,22,22,23,23,24,24,25,25,26,26,27,27,28,28,29,29,30,30],"right_children":[2,4,6,8,10,12,14,16,18,20,22,24,26,28,30,32,34,36,38,40,42,44,46,48,50,52,54,56,58,60,62,-1,-1,-1,-1,-1,-1,-1,-1,-1,-1,-1,-1,-1,-1,-1,-1,-1,-1,-1,-1,-1,-1,-1,-1,-1,-1,-1,-1,-1,-1,-1,-1],"split_conditions":[9E0,1.096473E3,1.1380458E3,8.169017E3,8.23929E3,8.254215E3,8.30875E3,1.0733911E3,8.205695E3,7.946804E3,1.1634111E3,1.1152728E3,8.296357E3,1.1725289E3,1.1641677E3,8.113461E3,7.888231E3,1.0907235E3,3E0,7.9338438E3,1.1641677E3,8.350291E3,8.431803E3,7.977301E3,8.0315996E3,1.1272388E3,1.1366432E3,8.143027E3,8.23929E3,8.352309E3,1.257149E3,3.3548813E-2,5.7318133E-1,-9.5654327E-1,-9.7410016E-2,5.1181066E-1,-1.7958455E-1,1.1382841E0,6.70779E-1,-1.3766354E0,-8.542396E-1,-2.0319283E-1,-1.2040013E0,5.7352412E-2,3.8012213E-1,-4.5039058E-1,3.0911781E-3,2.4021633E-1,7.211904E-1,-1.0216534E0,2.7445242E-1,1.5268439E0,8.629443E-1,1.5863099E0,1.3055218E0,-1.0955993E0,-2.9078838E-1,-1.665329E0,-1.0017852E0,4.030107E-1,1.0207028E0,3.169616E-1,-2.7795164E-2],"split_indices":[3,0,0,2,2,2,2,0,2,2,0,0,2,0,0,2,2,0,3,2,0,2,2,2,2,0,0,2,2,2,0,0,0,0,0,0,0,0,0,0,0,0,0,0,0,0,0,0,0,0,0,0,0,0,0,0,0,0,0,0,0,0,0],"split_type":[0,0,0,0,0,0,0,0,0,0,0,0,0,0,0,0,0,0,0,0,0,0,0,0,0,0,0,0,0,0,0,0,0,0,0,0,0,0,0,0,0,0,0,0,0,0,0,0,0,0,0,0,0,0,0,0,0,0,0,0,0,0,0],"sum_hessian":[4.457424E6,4.165713E6,2.91711E5,1.335081E6,2.830632E6,1.23093E5,1.68618E5,1.081452E6,2.53629E5,8.07332E5,2.0233E6,1.12583E5,1.051E4,3.5289E4,1.33329E5,6.62236E5,4.19216E5,1.68237E5,8.5392E4,1.8093E4,7.89239E5,9.24177E5,1.099123E6,7.3546E4,3.9037E4,6.42E3,4.09E3,3.2574E4,2.715E3,3.6169E4,9.716E4,5.97967E5,6.4269E4,2.347E4,3.95746E5,1.26382E5,4.1855E4,6.425E3,7.8967E4,9.997E3,8.096E3,7.76441E5,1.2798E4,6.77033E5,2.47144E5,3.01973E5,7.9715E5,4.0154E4,3.3392E4,5.208E3,3.3829E4,7.9E2,5.63E3,3.107E3,9.83E2,2.697E3,2.9877E4,7.74E2,1.941E3,1.8177E4,1.7992E4,7.3339E4,2.3821E4],"tree_param":{"num_deleted":"0","num_feature":"4","num_nodes":"63","size_leaf_vector":"1"}},{"base_weights":[2.9433689E-3,-3.7855184E-1,5.464818E0,1.467756E0,-1.4020579E0,7.722029E0,3.8164594E0,-2.626181E0,4.3515773E0,-1.2408345E1,8.502915E-2,5.9408755E0,2.482422E1,-2.1329317E1,5.847831E0,-9.9954087E-1,-1.8551939E1,3.0121586E0,9.472887E0,-2.5174665E1,-1.0745599E1,5.4350495E0,-1.2164857E0,7.4298477E0,-7.944447E0,2.1725384E1,3.106302E1,-1.5586056E1,-2.9416855E1,1.0968687E1,3.5615005E0,-1.8457215E-1,7.6698646E-2,-1.4982673E0,-5.7583904E-1,2.1916412E-1,-2.280344E-1,3.5853863E-1,5.969936E-1,-1.5374937E0,-1.1375761E0,-4.6620947E-1,-1.2840589E0,1.6577058E-1,6.4451844E-1,-4.5175767E-1,4.880942E-3,3.013389E-1,8.545413E-1,-1.4308183E0,-3.1778112E-2,1.5009342E0,9.056317E-1,1.7000788E0,1.2668756E0,-1.2828023E0,-3.5156903E-1,-1.3475653E0,-1.587221E0,2.14293E-1,1.0836824E0,-1.1635497E0,2.527857E-1],"categories":[],"categories_nodes":[],"categories_segments":[],"categories_sizes":[],"default_left":[0,0,0,0,0,0,0,0,0,0,0,0,0,0,0,0,0,0,0,0,0,0,0,0,0,0,0,0,0,0,0,0,0,0,0,0,0,0,0,0,0,0,0,0,0,0,0,0,0,0,0,0,0,0,0,0,0,0,0,0,0,0,0],"id":5,"left_children":[1,3,5,7,9,11,13,15,17,19,21,23,25,27,29,31,33,35,37,39,41,43,45,47,49,51,53,55,57,59,61,-1,-1,-1,-1,-1,-1,-1,-1,-1,-1,-1,-1,-1,-1,-1,-1,-1,-1,-1,-1,-1,-1,-1,-1,-1,-1,-1,-1,-1,-1,-1,-1],"loss_changes":[9.287292E6,7.872838E6,1.08267E6,1.7542168E7,4.386967E7,3.740968E6,8.590879E6,1.5908067E7,5.979905E6,6.772012E6,1.6441944E7,2.2997435E6,2.23279E5,5.8345E5,1.8218495E6,3.7999165E6,4.56917E6,7.1752385E6,1.026337E6,4.95966E5,5.992358E6,7.301318E6,1.9513934E7,1.361621E6,1.62766E6,2.31449E5,6.3779E4,6.332475E5,2.90945E4,3.4360155E6,4.313414E6,0E0,0E0,0E0,0E0,0E0,0E0,0E0,0E0,0E0,0E0,0E0,0E0,0E0,0E0,0E0,0E0,0E0,0E0,0E0,0E0,0E0,0E0,0E0,0E0,0E0,0E0,0E0,0E0,0E0,0E0,0E0,0E0],"parents":[2147483647,0,0,1,1,2,2,3,3,4,4,5,5,6,6,7,7,8,8,9,9,10,10,11,11,12,12,13,13,14,14,15,15,16,16,17,17,18,18,19,19,20,20,21,21,22,22,23,23,24,24,25,25,26,26,27,27,28,28,29,29,30,30],"right_children":[2,4,6,8,10,12,14,16,18,20,22,24,26,28,30,32,34,36,38,40,42,44,46,48,50,52,54,56,58,60,62,-1,-1,-1,-1,-1,-1,-1,-1,-1,-1,-1,-1,-1,-1,-1,-1,-1,-1,-1,-1,-1,-1,-1,-1,-1,-1,-1,-1,-1,-1,-1,-1],"split_conditions":[9E0,1.1009691E3,1.1380458E3,1.8146535E2,2.138005E2,2.4728229E2,2.5212088E2,1.083777E3,2.059166E2,1.9153325E2,1.1286593E3,1.129398E3,2.5136673E2,1.1478375E3,1.1627264E3,1.6695103E2,1.7543417E2,1.094385E3,5E0,1.8366194E2,1.1253337E3,2.3502481E2,2.4259529E2,2.3563959E2,2.3628491E2,1.1334248E3,1.1366432E3,2.4433127E2,1.1549817E3,2.7039145E2,2.7326694E2,-1.8457215E-1,7.6698646E-2,-1.4982673E0,-5.7583904E-1,2.1916412E-1,-2.280344E-1,3.5853863E-1,5.969936E-1,-1.5374937E0,-1.1375761E0,-4.6620947E-1,-1.2840589E0,1.6577058E-1,6.4451844E-1,-4.5175767E-1,4.880942E-3,3.013389E-1,8.545413E-1,-1.4308183E0,-3.1778112E-2,1.5009342E0,9.056317E-1,1.7000788E0,1.2668756E0,-1.2828023E0,-3.5156903E-1,-1.3475653E0,-1.587221E0,2.14293E-1,1.0836824E0,-1.1635497E0,2.527857E-1],"split_indices":[3,0,0,1,1,1,1,0,1,1,0,0,1,0,0,1,1,0,3,1,0,1,1,1,1,0,0,1,0,1,1,0,0,0,0,0,0,0,0,0,0,0,0,0,0,0,0,0,0,0,0,0,0,0,0,0,0,0,0,0,0,0,0],"split_type":[0,0,0,0,0,0,0,0,0,0,0,0,0,0,0,0,0,0,0,0,0,0,0,0,0,0,0,0,0,0,0,0,0,0,0,0,0,0,0,0,0,0,0,0,0,0,0,0,0,0,0,0,0,0,0,0,0,0,0,0,0,0,0],"sum_hessian":[4.457159E6,4.166166E6,2.90993E5,1.485844E6,2.680322E6,1.22813E5,1.6818E5,6.14081E5,8.71763E5,3.19038E5,2.361284E6,1.1123E5,1.1583E4,1.257E4,1.5561E5,5.57173E5,5.6908E4,6.91033E5,1.8073E5,3.6763E4,2.82275E5,4.62035E5,1.899249E6,1.00458E5,1.0772E4,7.742E3,3.841E3,7.352E3,5.218E3,4.803E4,1.0758E5,2.70142E5,2.87031E5,2.17E4,3.5208E4,5.85097E5,1.05936E5,9.3491E4,8.7239E4,1.1134E4,2.5629E4,2.57747E5,2.4528E4,3.59754E5,1.02281E5,2.7328E5,1.625969E6,8.772E4,1.2738E4,2.813E3,7.959E3,2.347E3,5.395E3,2.535E3,1.306E3,3.376E3,3.976E3,2.54E3,2.678E3,2.9571E4,1.8459E4,5.674E3,1.01906E5],"tree_param":{"num_deleted":"0","num_feature":"4","num_nodes":"63","size_leaf_vector":"1"}},{"base_weights":[-2.1151858E-3,-1.8422282E0,1.0985204E0,6.680461E-1,-3.966281E0,8.3646E0,1.5339506E-1,1.8477275E0,-1.9541552E0,-2.3881915E0,-5.6901875E0,1.1416534E1,3.595786E0,-3.469177E0,1.7566555E0,1.0290179E0,1.0567077E1,-9.618372E0,-3.250392E-2,3.7036484E-1,-3.4631534E0,-7.8229547E0,-4.6276693E0,9.619141E0,2.3878628E1,-1.4465659E1,8.767212E0,-1.3574436E0,-4.5901046E0,4.2739925E0,5.3257483E-1,9.510403E-2,-3.386352E-1,4.4743425E-1,7.882582E-1,-9.8882383E-1,-3.602513E-1,2.2647751E-2,-4.9448416E-1,-1.21810995E-1,3.2854688E-1,-1.0679495E0,-1.264484E-1,-2.4223928E-1,-9.1581243E-1,8.122738E-3,-3.0012158E-1,5.4696375E-1,-6.291608E-1,1.8233597E0,9.527918E-1,-2.836477E-1,-1.217173E0,4.8315215E-1,-2.1645713E-1,-2.255442E-1,2.9117325E-2,-1.4267044E0,-2.0649417E-1,4.5384356E-1,5.9328105E-2,-5.1380992E-2,2.5756413E-1],"categories":[],"categories_nodes":[],"categories_segments":[],"categories_sizes":[],"default_left":[0,0,0,0,0,0,0,0,0,0,0,0,0,0,0,0,0,0,0,0,0,0,0,0,0,0,0,0,0,0,0,0,0,0,0,0,0,0,0,0,0,0,0,0,0,0,0,0,0,0,0,0,0,0,0,0,0,0,0,0,0,0,0],"id":6,"left_children":[1,3,5,7,9,11,13,15,17,19,21,23,25,27,29,31,33,35,37,39,41,43,45,47,49,51,53,55,57,59,61,-1,-1,-1,-1,-1,-1,-1,-1,-1,-1,-1,-1,-1,-1,-1,-1,-1,-1,-1,-1,-1,-1,-1,-1,-1,-1,-1,-1,-1,-1,-1,-1],"loss_changes":[9.025724E6,8.893368E6,1.915006E7,2.364777E6,2.457861E6,4.671376E6,1.4331621E7,3.7639102E6,3.4935585E6,1.398712E6,9.78436E5,4.383646E6,1.1699371E7,1.792E6,5.270926E6,3.283138E6,3.805935E5,1.165596E6,9.075522E5,2.3017838E6,5.6743805E6,4.486871E6,1.8979315E6,5.013541E6,1.49701E6,2.4213995E6,1.142458E6,1.6057672E6,5.449478E6,8.298654E6,8.2935575E6,0E0,0E0,0E0,0E0,0E0,0E0,0E0,0E0,0E0,0E0,0E0,0E0,0E0,0E0,0E0,0E0,0E0,0E0,0E0,0E0,0E0,0E0,0E0,0E0,0E0,0E0,0E0,0E0,0E0,0E0,0E0,0E0],"parents":[2147483647,0,0,1,1,2,2,3,3,4,4,5,5,6,6,7,7,8,8,9,9,10,10,11,11,12,12,13,13,14,14,15,15,16,16,17,17,18,18,19,19,20,20,21,21,22,22,23,23,24,24,25,25,26,26,27,27,28,28,29,29,30,30],"right_children":[2,4,6,8,10,12,14,16,18,20,22,24,26,28,30,32,34,36,38,40,42,44,46,48,50,52,54,56,58,60,62,-1,-1,-1,-1,-1,-1,-1,-1,-1,-1,-1,-1,-1,-1,-1,-1,-1,-1,-1,-1,-1,-1,-1,-1,-1,-1,-1,-1,-1,-1,-1,-1],"split_conditions":[5E0,3E0,6E0,1.1627264E3,4E0,1.1627264E3,7E0,2.6516983E2,2.7966068E2,1.094385E3,2.1219043E2,2.695002E2,2.821073E2,1.0880676E3,8E0,1.1452167E3,2.7897464E2,2.565119E2,1.2857855E3,1.9568997E2,2.0425397E2,1.1000215E3,1.1272388E3,1.1514905E3,1.1556256E3,1.1725289E3,1.2857855E3,1.694536E2,1.7880797E2,1.1101519E3,9E0,9.510403E-2,-3.386352E-1,4.4743425E-1,7.882582E-1,-9.8882383E-1,-3.602513E-1,2.2647751E-2,-4.9448416E-1,-1.21810995E-1,3.2854688E-1,-1.0679495E0,-1.264484E-1,-2.4223928E-1,-9.1581243E-1,8.122738E-3,-3.0012158E-1,5.4696375E-1,-6.291608E-1,1.8233597E0,9.527918E-1,-2.836477E-1,-1.217173E0,4.8315215E-1,-2.1645713E-1,-2.255442E-1,2.9117325E-2,-1.4267044E0,-2.0649417E-1,4.5384356E-1,5.9328105E-2,-5.1380992E-2,2.5756413E-1],"split_indices":[3,3,3,0,3,0,3,1,1,0,1,1,1,0,3,0,1,1,0,1,1,0,0,0,0,0,0,1,1,0,3,0,0,0,0,0,0,0,0,0,0,0,0,0,0,0,0,0,0,0,0,0,0,0,0,0,0,0,0,0,0,0,0],"split_type":[0,0,0,0,0,0,0,0,0,0,0,0,0,0,0,0,0,0,0,0,0,0,0,0,0,0,0,0,0,0,0,0,0,0,0,0,0,0,0,0,0,0,0,0,0,0,0,0,0,0,0,0,0,0,0,0,0,0,0,0,0,0,0],"sum_hessian":[4.456499E6,1.667936E6,2.788563E6,7.64466E5,9.0347E5,3.20968E5,2.467595E6,5.27261E5,2.37205E5,4.71685E5,4.31785E5,1.95714E5,1.25254E5,7.57046E5,1.710549E6,4.82004E5,4.5257E4,4.7551E4,1.89654E5,1.32266E5,3.39419E5,1.43578E5,2.88207E5,1.71046E5,2.4668E4,2.788E4,9.7374E4,2.62507E5,4.94539E5,5.5964E5,1.150909E6,4.33494E5,4.851E4,3.4514E4,1.0743E4,9.127E3,3.8424E4,1.80753E5,8.901E3,9.1053E4,4.1213E4,1.6838E4,3.22581E5,1.11838E5,3.174E4,6.427E4,2.23937E5,1.61447E5,9.599E3,6.831E3,1.7837E4,1.4751E4,1.3129E4,9.114E4,6.234E3,9.9977E4,1.6253E5,9.325E3,4.85214E5,2.18983E5,3.40657E5,8.60301E5,2.90608E5],"tree_param":{"num_deleted":"0","num_feature":"4","num_nodes":"63","size_leaf_vector":"1"}},{"base_weights":[4.322925E-3,7.5793105E-1,-2.038668E0,-2.3078458E-1,8.593188E0,-9.495204E0,3.4709653E-1,6.558501E-1,-7.807715E0,6.071554E0,1.419654E1,-1.7800594E1,-4.3495327E-1,1.0133159E0,-1.0582145E1,-7.741937E-1,5.9859653E0,-1.7250917E1,3.533943E0,1.0495333E1,-1.0184168E0,2.0544355E1,1.1513938E1,-2.3157887E1,-1.0917099E1,5.230426E0,-2.083562E1,1.3864931E-1,8.435287E0,-2.5192545E1,5.197551E-1,5.356124E-2,-5.1311827E-1,6.214393E-1,1.9883911E-1,-6.069431E-1,-1.3583535E0,4.0480047E-1,-4.5262646E-2,9.257805E-1,4.4770804E-1,-8.4256166E-1,2.0359495E-1,9.7667515E-1,1.7829506E0,2.0980552E-1,8.2106143E-1,-1.3041657E0,-8.06831E-1,-1.8844147E-1,-1.2045443E0,7.7326365E-2,4.4958192E-1,-6.8576384E-1,-1.3891755E0,6.0103178E-2,-1.0692289E0,8.418051E-1,2.841235E-1,-1.5253698E0,-8.74654E-1,3.8177273E-1,-3.8620973E-1],"categories":[],"categories_nodes":[],"categories_segments":[],"categories_sizes":[],"default_left":[0,0,0,0,0,0,0,0,0,0,0,0,0,0,0,0,0,0,0,0,0,0,0,0,0,0,0,0,0,0,0,0,0,0,0,0,0,0,0,0,0,0,0,0,0,0,0,0,0,0,0,0,0,0,0,0,0,0,0,0,0,0,0],"id":7,"left_children":[1,3,5,7,9,11,13,15,17,19,21,23,25,27,29,31,33,35,37,39,41,43,45,47,49,51,53,55,57,59,61,-1,-1,-1,-1,-1,-1,-1,-1,-1,-1,-1,-1,-1,-1,-1,-1,-1,-1,-1,-1,-1,-1,-1,-1,-1,-1,-1,-1,-1,-1,-1,-1],"loss_changes":[6.8615105E6,2.522137E7,2.136426E7,1.942099E7,5.154352E6,2.1905554E7,6.624789E6,1.9726924E7,3.2435556E7,7.890743E6,1.92768E6,5.600644E6,1.6091735E7,5.56709E6,8.479186E6,3.5729816E7,7.086932E6,8.376768E6,2.7865485E6,1.914742E6,7.79053E6,5.13142E5,2.857921E6,1.753876E6,6.25975E6,1.5098385E6,1.496673E6,1.7558794E7,2.090671E6,9.23105E5,1.742598E6,0E0,0E0,0E0,0E0,0E0,0E0,0E0,0E0,0E0,0E0,0E0,0E0,0E0,0E0,0E0,0E0,0E0,0E0,0E0,0E0,0E0,0E0,0E0,0E0,0E0,0E0,0E0,0E0,0E0,0E0,0E0,0E0],"parents":[2147483647,0,0,1,1,2,2,3,3,4,4,5,5,6,6,7,7,8,8,9,9,10,10,11,11,12,12,13,13,14,14,15,15,16,16,17,17,18,18,19,19,20,20,21,21,22,22,23,23,24,24,25,25,26,26,27,27,28,28,29,29,30,30],"right_children":[2,4,6,8,10,12,14,16,18,20,22,24,26,28,30,32,34,36,38,40,42,44,46,48,50,52,54,56,58,60,62,-1,-1,-1,-1,-1,-1,-1,-1,-1,-1,-1,-1,-1,-1,-1,-1,-1,-1,-1,-1,-1,-1,-1,-1,-1,-1,-1,-1,-1,-1,-1,-1],"split_conditions":[1.1641677E3,2.5443405E2,2.8144672E2,1.1380458E3,8.350291E3,8.426666E3,1.2857855E3,2.223397E2,8.3586455E3,1.1529916E3,1.1568855E3,2.7279755E2,1.186911E3,8.683767E3,8.741045E3,1.1069321E3,1.1152728E3,1.1471576E3,1.1522349E3,1.1418312E3,2.634514E2,2.776857E2,8.377515E3,8.404241E3,1.1735071E3,8.455346E3,1.192969E3,1.2627916E3,1.2686594E3,8.718032E3,1.3017128E3,5.356124E-2,-5.1311827E-1,6.214393E-1,1.9883911E-1,-6.069431E-1,-1.3583535E0,4.0480047E-1,-4.5262646E-2,9.257805E-1,4.4770804E-1,-8.4256166E-1,2.0359495E-1,9.7667515E-1,1.7829506E0,2.0980552E-1,8.2106143E-1,-1.3041657E0,-8.06831E-1,-1.8844147E-1,-1.2045443E0,7.7326365E-2,4.4958192E-1,-6.8576384E-1,-1.3891755E0,6.0103178E-2,-1.0692289E0,8.418051E-1,2.841235E-1,-1.5253698E0,-8.74654E-1,3.8177273E-1,-3.8620973E-1],"split_indices":[0,1,1,0,2,2,0,1,2,0,0,1,0,2,2,0,0,0,0,0,1,1,2,2,0,2,0,0,0,2,0,0,0,0,0,0,0,0,0,0,0,0,0,0,0,0,0,0,0,0,0,0,0,0,0,0,0,0,0,0,0,0,0],"split_type":[0,0,0,0,0,0,0,0,0,0,0,0,0,0,0,0,0,0,0,0,0,0,0,0,0,0,0,0,0,0,0,0,0,0,0,0,0,0,0,0,0,0,0,0,0,0,0,0,0,0,0,0,0,0,0,0,0,0,0,0,0,0,0],"sum_hessian":[4.45664E6,3.255696E6,1.200944E6,2.8909E6,3.64796E5,2.91107E5,9.09837E5,2.588053E6,3.02847E5,2.51581E5,1.13215E5,1.5188E5,1.39227E5,8.57563E5,5.2274E4,2.040577E6,5.47476E5,1.65254E5,1.37593E5,1.54919E5,9.6662E4,3.363E4,7.9585E4,8.5407E4,6.6473E4,1.08967E5,3.026E4,7.67156E5,9.0407E4,2.257E4,2.9704E4,1.708316E6,3.32261E5,1.30143E5,4.17333E5,1.09042E5,5.6212E4,6.7857E4,6.9736E4,2.4969E4,1.2995E5,2.3516E4,7.3146E4,3.1524E4,2.106E3,3.1947E4,4.7638E4,6.0286E4,2.5121E4,4.3092E4,2.3381E4,5.505E4,5.3917E4,1.4946E4,1.5314E4,7.31038E5,3.6118E4,2.2312E4,6.8095E4,1.3351E4,9.219E3,1.5943E4,1.3761E4],"tree_param":{"num_deleted":"0","num_feature":"4","num_nodes":"63","size_leaf_vector":"1"}},{"base_weights":[-4.360666E-3,7.087762E-1,-1.9390402E0,-3.0122352E-1,7.7394123E0,-8.6606455E0,4.6808428E-1,5.870357E-1,-8.378647E0,5.4910226E0,1.3518053E1,-1.5833905E1,-5.0249404E-1,1.4340822E1,-3.7313234E-2,-1.0876415E0,4.702005E0,-1.8737215E1,2.4322417E0,9.220101E0,-2.9265842E0,1.7385157E1,9.162411E0,-2.1983383E1,-9.479122E0,4.7114234E0,-2.0428455E1,1.0471544E1,2.0587006E1,6.102135E-1,-1.0005508E1,4.7030147E-2,-5.8480626E-1,5.155039E-1,1.3826762E-1,-6.7015123E-1,-1.2878066E0,2.5761184E-1,-4.044623E-1,3.842781E-1,8.204319E-1,-1.0585072E0,1.6533332E-1,7.8284913E-1,1.235353E0,-1.1988012E-1,6.419004E-1,-1.2374128E0,-7.6745933E-1,-1.724179E-1,-1.2385254E0,3.6858258E-1,-3.3182945E-2,-1.3104011E0,-6.493665E-1,8.313845E-1,1.4798461E-1,9.5764726E-1,1.4988711E0,-6.296956E-2,2.444483E-1,-1.1926707E0,2.594511E-2],"categories":[],"categories_nodes":[],"categories_segments":[],"categories_sizes":[],"default_left":[0,0,0,0,0,0,0,0,0,0,0,0,0,0,0,0,0,0,0,0,0,0,0,0,0,0,0,0,0,0,0,0,0,0,0,0,0,0,0,0,0,0,0,0,0,0,0,0,0,0,0,0,0,0,0,0,0,0,0,0,0,0,0],"id":8,"left_children":[1,3,5,7,9,11,13,15,17,19,21,23,25,27,29,31,33,35,37,39,41,43,45,47,49,51,53,55,57,59,61,-1,-1,-1,-1,-1,-1,-1,-1,-1,-1,-1,-1,-1,-1,-1,-1,-1,-1,-1,-1,-1,-1,-1,-1,-1,-1,-1,-1,-1,-1,-1,-1],"loss_changes":[6.147191E6,2.3117022E7,1.9415628E7,2.0423634E7,5.312976E6,1.851724E7,6.1949565E6,1.7672898E7,3.1581928E7,9.240843E6,1.929138E6,6.579652E6,1.5381251E7,7.50401E5,5.502724E6,3.9219172E7,8.056619E6,5.391872E6,3.949294E6,2.250326E6,1.0277669E7,7.67328E5,2.288964E6,1.569192E6,7.636273E6,1.6779145E6,1.320173E6,8.86912E5,1.59394E5,6.4038025E6,7.5786935E6,0E0,0E0,0E0,0E0,0E0,0E0,0E0,0E0,0E0,0E0,0E0,0E0,0E0,0E0,0E0,0E0,0E0,0E0,0E0,0E0,0E0,0E0,0E0,0E0,0E0,0E0,0E0,0E0,0E0,0E0,0E0,0E0],"parents":[2147483647,0,0,1,1,2,2,3,3,4,4,5,5,6,6,7,7,8,8,9,9,10,10,11,11,12,12,13,13,14,14,15,15,16,16,17,17,18,18,19,19,20,20,21,21,22,22,23,23,24,24,25,25,26,26,27,27,28,28,29,29,30,30],"right_children":[2,4,6,8,10,12,14,16,18,20,22,24,26,28,30,32,34,36,38,40,42,44,46,48,50,52,54,56,58,60,62,-1,-1,-1,-1,-1,-1,-1,-1,-1,-1,-1,-1,-1,-1,-1,-1,-1,-1,-1,-1,-1,-1,-1,-1,-1,-1,-1,-1,-1,-1,-1,-1],"split_conditions":[1.1641677E3,2.5212088E2,2.830599E2,1.1373352E3,8.352309E3,8.426666E3,1.1716323E3,2.1491695E2,8.3541455E3,1.1543767E3,1.1602238E3,2.7279755E2,1.1883517E3,2.8735742E2,1.2857855E3,1.1029789E3,1.1106987E3,1.1445479E3,1.1575416E3,2.668966E2,2.634514E2,2.783412E2,8.377515E3,8.404241E3,1.1755575E3,1.1804039E3,8.474461E3,1.1672642E3,8.412495E3,8.620172E3,8.741045E3,4.7030147E-2,-5.8480626E-1,5.155039E-1,1.3826762E-1,-6.7015123E-1,-1.2878066E0,2.5761184E-1,-4.044623E-1,3.842781E-1,8.204319E-1,-1.0585072E0,1.6533332E-1,7.8284913E-1,1.235353E0,-1.1988012E-1,6.419004E-1,-1.2374128E0,-7.6745933E-1,-1.724179E-1,-1.2385254E0,3.6858258E-1,-3.3182945E-2,-1.3104011E0,-6.493665E-1,8.313845E-1,1.4798461E-1,9.5764726E-1,1.4988711E0,-6.296956E-2,2.444483E-1,-1.1926707E0,2.594511E-2],"split_indices":[0,1,1,0,2,2,0,1,2,0,0,1,0,1,0,0,0,0,0,1,1,1,2,2,0,0,2,0,2,2,2,0,0,0,0,0,0,0,0,0,0,0,0,0,0,0,0,0,0,0,0,0,0,0,0,0,0,0,0,0,0,0,0],"split_type":[0,0,0,0,0,0,0,0,0,0,0,0,0,0,0,0,0,0,0,0,0,0,0,0,0,0,0,0,0,0,0,0,0,0,0,0,0,0,0,0,0,0,0,0,0,0,0,0,0,0,0,0,0,0,0,0,0,0,0,0,0,0,0],"sum_hessian":[4.455481E6,3.255486E6,1.199995E6,2.846559E6,4.08927E5,3.16422E5,8.83573E5,2.564542E6,2.82017E5,2.94387E5,1.1454E5,1.68374E5,1.48048E5,3.1057E4,8.52516E5,1.822739E6,7.41803E5,1.44021E5,1.37996E5,2.04009E5,9.0378E4,6.0671E4,5.3869E4,8.5568E4,8.2806E4,1.17344E5,3.0704E4,1.9179E4,1.1878E4,8.00516E5,5.2E4,1.530183E6,2.92556E5,1.90412E5,5.51391E5,8.1833E4,6.2188E4,1.0965E5,2.8346E4,1.68122E5,3.5887E4,2.3015E4,6.7363E4,4.9088E4,1.1583E4,1.2996E4,4.0873E4,6.0395E4,2.5173E4,5.9386E4,2.342E4,7.8495E4,3.8849E4,1.728E4,1.3424E4,1.054E4,8.639E3,1.0307E4,1.571E3,5.57094E5,2.43422E5,2.2454E4,2.9546E4],"tree_param":{"num_deleted":"0","num_feature":"4","num_nodes":"63","size_leaf_vector":"1"}},{"base_weights":[-3.9178273E-3,-1.822465E0,1.0838494E0,5.1958823E-1,-3.8052459E0,7.8042192E0,2.1024089E-1,1.5629722E0,-1.7519269E0,-2.2964873E0,-5.454887E0,1.0599022E1,3.761884E0,-3.242763E0,1.7379483E0,-5.3908926E-1,4.274602E0,-7.815677E0,6.097503E-1,2.056954E-1,-3.302499E0,-5.3246546E0,-1.2024776E1,9.283751E0,2.3290668E1,-9.586286E0,7.862161E0,-5.1335115E0,-2.283754E0,4.1386504E0,5.710172E-1,9.466826E-2,-1.5536629E-1,8.173609E-1,1.6399597E-1,-3.438689E-1,-1.2660927E0,5.253133E-1,-1.7436123E-2,-9.5801406E-2,5.737536E-1,-3.719569E-1,-1.15139306E-1,-2.7101824E-1,2.997633E-1,-1.149207E0,-2.5776565E-1,1.0399158E0,4.129126E-1,1.7301263E0,9.517401E-1,-1.236045E-1,-6.78878E-1,4.4188783E-1,-3.2026947E-2,-1.3811417E-2,-4.5688376E-1,1.7513408E-1,-1.8705082E-1,4.2656842E-1,6.601033E-2,-4.2795535E-2,2.3890224E-1],"categories":[],"categories_nodes":[],"categories_segments":[],"categories_sizes":[],"default_left":[0,0,0,0,0,0,0,0,0,0,0,0,0,0,0,0,0,0,0,0,0,0,0,0,0,0,0,0,0,0,0,0,0,0,0,0,0,0,0,0,0,0,0,0,0,0,0,0,0,0,0,0,0,0,0,0,0,0,0,0,0,0,0],"id":9,"left_children":[1,3,5,7,9,11,13,15,17,19,21,23,25,27,29,31,33,35,37,39,41,43,45,47,49,51,53,55,57,59,61,-1,-1,-1,-1,-1,-1,-1,-1,-1,-1,-1,-1,-1,-1,-1,-1,-1,-1,-1,-1,-1,-1,-1,-1,-1,-1,-1,-1,-1,-1,-1,-1],"loss_changes":[8.818679E6,7.7483275E6,1.6377023E7,1.8130199E6,2.248902E6,3.62536E6,1.302226E7,2.987886E6,3.448095E6,1.1879825E6,3.69246E5,3.166888E6,7.179495E6,1.372936E6,4.794443E6,1.8446864E6,2.748734E6,1.1084355E6,1.6437339E6,3.2359492E6,1.3920052E6,4.58587E5,6.314469E5,2.029805E6,8.56987E5,8.7526175E5,8.324375E5,4.9558295E6,4.2361925E6,6.930455E6,6.9133895E6,0E0,0E0,0E0,0E0,0E0,0E0,0E0,0E0,0E0,0E0,0E0,0E0,0E0,0E0,0E0,0E0,0E0,0E0,0E0,0E0,0E0,0E0,0E0,0E0,0E0,0E0,0E0,0E0,0E0,0E0,0E0,0E0],"parents":[2147483647,0,0,1,1,2,2,3,3,4,4,5,5,6,6,7,7,8,8,9,9,10,10,11,11,12,12,13,13,14,14,15,15,16,16,17,17,18,18,19,19,20,20,21,21,22,22,23,23,24,24,25,25,26,26,27,27,28,28,29,29,30,30],"right_children":[2,4,6,8,10,12,14,16,18,20,22,24,26,28,30,32,34,36,38,40,42,44,46,48,50,52,54,56,58,60,62,-1,-1,-1,-1,-1,-1,-1,-1,-1,-1,-1,-1,-1,-1,-1,-1,-1,-1,-1,-1,-1,-1,-1,-1,-1,-1,-1,-1,-1,-1,-1,-1],"split_conditions":[5E0,3E0,6E0,1.1620793E3,4E0,1.1614465E3,7E0,8.205695E3,8.426666E3,1.0954187E3,1.2780226E3,8.350291E3,8.379584E3,8.140066E3,8E0,1.0917911E3,1.101973E3,1.198226E3,1.1816923E3,8.1666113E3,8.200635E3,8.699802E3,8.727611E3,1.0668159E3,1.1549817E3,8.340982E3,1.2780226E3,1.0650938E3,1.0928693E3,1.1101519E3,9E0,9.466826E-2,-1.5536629E-1,8.173609E-1,1.6399597E-1,-3.438689E-1,-1.2660927E0,5.253133E-1,-1.7436123E-2,-9.5801406E-2,5.737536E-1,-3.719569E-1,-1.15139306E-1,-2.7101824E-1,2.997633E-1,-1.149207E0,-2.5776565E-1,1.0399158E0,4.129126E-1,1.7301263E0,9.517401E-1,-1.236045E-1,-6.78878E-1,4.4188783E-1,-3.2026947E-2,-1.3811417E-2,-4.5688376E-1,1.7513408E-1,-1.8705082E-1,4.2656842E-1,6.601033E-2,-4.2795535E-2,2.3890224E-1],"split_indices":[3,3,3,0,3,0,3,2,2,0,0,2,2,2,3,0,0,0,0,2,2,2,2,0,0,2,0,0,0,0,3,0,0,0,0,0,0,0,0,0,0,0,0,0,0,0,0,0,0,0,0,0,0,0,0,0,0,0,0,0,0,0,0],"split_type":[0,0,0,0,0,0,0,0,0,0,0,0,0,0,0,0,0,0,0,0,0,0,0,0,0,0,0,0,0,0,0,0,0,0,0,0,0,0,0,0,0,0,0,0,0,0,0,0,0,0,0,0,0,0,0,0,0,0,0,0,0,0,0],"sum_hessian":[4.458028E6,1.668538E6,2.78949E6,7.64965E5,9.03573E5,3.20901E5,2.468589E6,5.24188E5,2.40777E5,4.7194E5,4.31633E5,1.89726E5,1.31175E5,7.57177E5,1.711412E6,2.95284E5,2.28904E5,6.749E4,1.73287E5,1.35334E5,3.36606E5,4.23245E5,8.388E3,1.71912E5,1.7814E4,3.0825E4,1.0035E5,2.54806E5,5.02371E5,5.59782E5,1.15163E6,1.51651E5,1.43633E5,1.7423E4,2.11481E5,6.4058E4,3.432E3,1.53E4,1.57987E5,1.13892E5,2.1442E4,6.5514E4,2.71092E5,4.19697E5,3.548E3,3.231E3,5.157E3,1.4057E4,1.57855E5,4.868E3,1.2946E4,1.1079E4,1.9746E4,9.0021E4,1.0329E4,1.15138E5,1.39668E5,1.01065E5,4.01306E5,2.18787E5,3.40995E5,8.59954E5,2.91676E5],"tree_param":{"num_deleted":"0","num_feature":"4","num_nodes":"63","size_leaf_vector":"1"}},{"base_weights":[5.0791586E-4,-1.7264038E0,1.0330162E0,4.969183E-1,-3.6091087E0,7.417672E0,2.0285285E-1,1.489089E0,-1.6194016E0,-2.1910455E0,-5.1609426E0,1.0054309E1,3.59367E0,-3.0804148E0,1.6567246E0,9.029603E-1,1.1161257E1,-7.1315556E0,6.3929313E-1,-5.5289816E-2,-3.3081748E0,-3.6907353E0,-5.7707744E0,8.811702E0,2.2027004E1,-9.085654E0,7.500974E0,-1.3007373E0,-4.026068E0,3.9671378E0,5.3252286E-1,-4.62026E-2,1.4368819E-1,7.755871E-1,4.4448096E-1,-3.1336066E-1,-1.2012047E0,4.8989663E-1,-1.7442947E-2,-1.013574E-1,3.2508132E-1,-3.5455272E-1,-9.725532E-2,-2.9175767E-1,-7.32001E-2,-4.7627664E-1,-2.2567172E-1,9.9546427E-1,3.941395E-1,1.6452522E0,8.964219E-1,-2.0218937E-1,-7.1811706E-1,1.6773169E-1,4.738439E-1,-1.2968697E-1,5.979305E-1,-4.0178257E-1,-1.1189965E-1,4.0649852E-1,6.484778E-2,-4.0816385E-2,2.2583203E-1],"categories":[],"categories_nodes":[],"categories_segments":[],"categories_sizes":[],"default_left":[0,0,0,0,0,0,0,0,0,0,0,0,0,0,0,0,0,0,0,0,0,0,0,0,0,0,0,0,0,0,0,0,0,0,0,0,0,0,0,0,0,0,0,0,0,0,0,0,0,0,0,0,0,0,0,0,0,0,0,0,0,0,0],"id":10,"left_children":[1,3,5,7,9,11,13,15,17,19,21,23,25,27,29,31,33,35,37,39,41,43,45,47,49,51,53,55,57,59,61,-1,-1,-1,-1,-1,-1,-1,-1,-1,-1,-1,-1,-1,-1,-1,-1,-1,-1,-1,-1,-1,-1,-1,-1,-1,-1,-1,-1,-1,-1,-1,-1],"loss_changes":[7.947335E6,6.981012E6,1.4784653E7,1.6056942E6,1.98725E6,3.236026E6,1.1782976E7,2.9514945E6,3.0388672E6,1.1258348E6,3.86575E5,2.826088E6,6.489423E6,1.2749825E6,4.443717E6,1.7675089E6,2.9384375E5,1.03571275E6,1.5669065E6,2.0952466E6,1.5974922E6,6.036531E5,1.43878E6,1.774081E6,7.95775E5,8.20872E5,8.203185E5,4.5068385E6,3.546802E6,6.224549E6,6.184734E6,0E0,0E0,0E0,0E0,0E0,0E0,0E0,0E0,0E0,0E0,0E0,0E0,0E0,0E0,0E0,0E0,0E0,0E0,0E0,0E0,0E0,0E0,0E0,0E0,0E0,0E0,0E0,0E0,0E0,0E0,0E0,0E0],"parents":[2147483647,0,0,1,1,2,2,3,3,4,4,5,5,6,6,7,7,8,8,9,9,10,10,11,11,12,12,13,13,14,14,15,15,16,16,17,17,18,18,19,19,20,20,21,21,22,22,23,23,24,24,25,25,26,26,27,27,28,28,29,29,30,30],"right_children":[2,4,6,8,10,12,14,16,18,20,22,24,26,28,30,32,34,36,38,40,42,44,46,48,50,52,54,56,58,60,62,-1,-1,-1,-1,-1,-1,-1,-1,-1,-1,-1,-1,-1,-1,-1,-1,-1,-1,-1,-1,-1,-1,-1,-1,-1,-1,-1,-1,-1,-1,-1,-1],"split_conditions":[5E0,3E0,6E0,1.1614465E3,4E0,1.1614465E3,7E0,8.367386E3,8.426666E3,1.1014554E3,1.1014554E3,8.350291E3,8.379584E3,1.0880676E3,8E0,8.1666113E3,2E0,1.198226E3,1.1829755E3,8.164238E3,8.245302E3,7.9921396E3,8.24137E3,1.0659872E3,1.1549817E3,1.1735071E3,8.546854E3,8.1885396E3,8.223149E3,1.1101519E3,9E0,-4.62026E-2,1.4368819E-1,7.755871E-1,4.4448096E-1,-3.1336066E-1,-1.2012047E0,4.8989663E-1,-1.7442947E-2,-1.013574E-1,3.2508132E-1,-3.5455272E-1,-9.725532E-2,-2.9175767E-1,-7.32001E-2,-4.7627664E-1,-2.2567172E-1,9.9546427E-1,3.941395E-1,1.6452522E0,8.964219E-1,-2.0218937E-1,-7.1811706E-1,1.6773169E-1,4.738439E-1,-1.2968697E-1,5.979305E-1,-4.0178257E-1,-1.1189965E-1,4.0649852E-1,6.484778E-2,-4.0816385E-2,2.2583203E-1],"split_indices":[3,3,3,0,3,0,3,2,2,0,0,2,2,0,3,2,3,0,0,2,2,2,2,0,0,0,2,2,2,0,3,0,0,0,0,0,0,0,0,0,0,0,0,0,0,0,0,0,0,0,0,0,0,0,0,0,0,0,0,0,0,0,0],"split_type":[0,0,0,0,0,0,0,0,0,0,0,0,0,0,0,0,0,0,0,0,0,0,0,0,0,0,0,0,0,0,0,0,0,0,0,0,0,0,0,0,0,0,0,0,0,0,0,0,0,0,0,0,0,0,0,0,0,0,0,0,0,0,0],"sum_hessian":[4.457154E6,1.667759E6,2.789395E6,7.64705E5,9.03054E5,3.20957E5,2.468438E6,5.20626E5,2.44079E5,4.71866E5,4.31188E5,1.89971E5,1.30986E5,7.57586E5,1.710852E6,4.9088E5,2.9746E4,7.0944E4,1.73135E5,1.62052E5,3.09814E5,1.26419E5,3.04769E5,1.7211E5,1.7861E4,3.0856E4,1.0013E5,2.62873E5,4.94713E5,5.59987E5,1.150865E6,2.54733E5,2.36147E5,1.0202E4,1.9544E4,6.7492E4,3.452E3,1.686E4,1.56275E5,1.24586E5,3.7466E4,8.2063E4,2.27751E5,6.4399E4,6.202E4,7.6453E4,2.28316E5,1.3292E4,1.58818E5,4.886E3,1.2975E4,1.578E4,1.5076E4,3.2317E4,6.7813E4,2.39517E5,2.3356E4,1.52575E5,3.42138E5,2.18829E5,3.41158E5,8.59781E5,2.91084E5],"tree_param":{"num_deleted":"0","num_feature":"4","num_nodes":"63","size_leaf_vector":"1"}},{"base_weights":[-2.5509356E-3,-2.9967258E0,4.408845E-1,-8.4861386E-1,-1.8455826E1,4.3918066E0,-5.780494E-1,-2.5289295E0,7.0639725E0,-2.6129917E1,-7.0839834E0,3.2189498E0,1.216927E1,-8.271014E0,6.550584E-1,2.559106E-1,-1.7365744E1,1.4601026E1,2.8156178E0,-2.8609148E1,-2.2358252E1,-7.8190273E-1,-2.4549767E1,1.8668909E0,9.308373E0,1.0227376E1,1.4297523E1,-1.9747072E1,-2.025897E0,5.421659E0,-5.968557E-1,-9.72636E-2,2.1400145E-1,-1.291947E0,-7.248032E-1,2.8544196E-1,8.6961097E-1,-3.2180858E-1,4.6570745E-1,-1.5392112E0,-1.3376691E0,-5.021888E-1,-1.3093032E0,-1.03799395E-1,5.7338214E-1,-9.3755335E-1,-1.4267707E0,2.2215489E-1,-3.6603266E-1,8.146635E-1,3.9229935E-1,5.9111834E-1,4.6816003E-2,4.9922273E-1,8.441135E-1,-6.729381E-1,-1.2327459E0,2.4331272E-1,-5.2221924E-1,1.8326117E-1,6.419353E-1,-4.1813087E-1,3.0763611E-2],"categories":[],"categories_nodes":[],"categories_segments":[],"categories_sizes":[],"default_left":[0,0,0,0,0,0,0,0,0,0,0,0,0,0,0,0,0,0,0,0,0,0,0,0,0,0,0,0,0,0,0,0,0,0,0,0,0,0,0,0,0,0,0,0,0,0,0,0,0,0,0,0,0,0,0,0,0,0,0,0,0,0,0],"id":11,"left_children":[1,3,5,7,9,11,13,15,17,19,21,23,25,27,29,31,33,35,37,39,41,43,45,47,49,51,53,55,57,59,61,-1,-1,-1,-1,-1,-1,-1,-1,-1,-1,-1,-1,-1,-1,-1,-1,-1,-1,-1,-1,-1,-1,-1,-1,-1,-1,-1,-1,-1,-1,-1,-1],"loss_changes":[5.918363E6,1.9094512E7,1.5630007E7,6.712323E6,6.121792E6,7.261018E6,2.927954E7,1.720571E7,2.8315265E6,3.9102E5,3.1113515E6,5.694919E6,4.30946E5,3.0559254E7,1.5873996E7,3.1056658E6,1.599794E6,7.910825E5,3.400318E6,1.01174E5,7.8302E5,3.2931647E5,1.72686E5,1.3397261E7,1.283606E6,8.083135E5,5.5461E5,4.637152E6,1.6021465E7,7.208561E6,1.983148E7,0E0,0E0,0E0,0E0,0E0,0E0,0E0,0E0,0E0,0E0,0E0,0E0,0E0,0E0,0E0,0E0,0E0,0E0,0E0,0E0,0E0,0E0,0E0,0E0,0E0,0E0,0E0,0E0,0E0,0E0,0E0,0E0],"parents":[2147483647,0,0,1,1,2,2,3,3,4,4,5,5,6,6,7,7,8,8,9,9,10,10,11,11,12,12,13,13,14,14,15,15,16,16,17,17,18,18,19,19,20,20,21,21,22,22,23,23,24,24,25,25,26,26,27,27,28,28,29,29,30,30],"right_children":[2,4,6,8,10,12,14,16,18,20,22,24,26,28,30,32,34,36,38,40,42,44,46,48,50,52,54,56,58,60,62,-1,-1,-1,-1,-1,-1,-1,-1,-1,-1,-1,-1,-1,-1,-1,-1,-1,-1,-1,-1,-1,-1,-1,-1,-1,-1,-1,-1,-1,-1,-1,-1],"split_conditions":[1.7994077E2,1.079702E3,1.0959596E3,8.113461E3,8.1618765E3,8.200635E3,2.1327145E2,1.059495E3,1.0676917E3,8.143027E3,1.0912478E3,2.0425397E2,8.212684E3,8.214412E3,1.1279203E3,1.6695103E2,8.0065293E3,1.6613243E2,8.1486235E3,8.1220664E3,1.0848635E3,8.1885396E3,1.0979594E3,1.0853834E3,1.0853834E3,1.094385E3,1.861316E2,1.1009691E3,1.1090334E3,2.3502481E2,2.4198326E2,-9.72636E-2,2.1400145E-1,-1.291947E0,-7.248032E-1,2.8544196E-1,8.6961097E-1,-3.2180858E-1,4.6570745E-1,-1.5392112E0,-1.3376691E0,-5.021888E-1,-1.3093032E0,-1.03799395E-1,5.7338214E-1,-9.3755335E-1,-1.4267707E0,2.2215489E-1,-3.6603266E-1,8.146635E-1,3.9229935E-1,5.9111834E-1,4.6816003E-2,4.9922273E-1,8.441135E-1,-6.729381E-1,-1.2327459E0,2.4331272E-1,-5.2221924E-1,1.8326117E-1,6.419353E-1,-4.1813087E-1,3.0763611E-2],"split_indices":[1,0,0,2,2,2,1,0,0,2,0,1,2,2,0,1,2,1,2,2,0,2,0,0,0,0,1,0,0,1,1,0,0,0,0,0,0,0,0,0,0,0,0,0,0,0,0,0,0,0,0,0,0,0,0,0,0,0,0,0,0,0,0],"split_type":[0,0,0,0,0,0,0,0,0,0,0,0,0,0,0,0,0,0,0,0,0,0,0,0,0,0,0,0,0,0,0,0,0,0,0,0,0,0,0,0,0,0,0,0,0,0,0,0,0,0,0,0,0,0,0,0,0,0,0,0,0,0,0],"sum_hessian":[4.457526E6,5.74999E5,3.882527E6,5.04849E5,7.015E4,7.96006E5,3.086521E6,4.16419E5,8.843E4,4.1884E4,2.8266E4,6.91698E5,1.04308E5,4.26392E5,2.660129E6,3.50611E5,6.5808E4,3.1876E4,5.6554E4,2.5268E4,1.6616E4,2.0772E4,7.494E3,5.66023E5,1.25675E5,5.4545E4,4.9763E4,1.50264E5,2.76128E5,5.53334E5,2.106795E6,2.2664E5,1.23971E5,1.6647E4,4.9161E4,7.616E3,2.426E4,2.3334E4,3.322E4,1.1626E4,1.3642E4,3.941E3,1.2675E4,1.8788E4,1.984E3,3.055E3,4.439E3,4.42067E5,1.23956E5,2.1755E4,1.0392E5,4.6553E4,7.992E3,1.8649E4,3.1114E4,6.587E4,8.4394E4,1.51828E5,1.243E5,4.47389E5,1.05945E5,2.84443E5,1.822352E6],"tree_param":{"num_deleted":"0","num_feature":"4","num_nodes":"63","size_leaf_vector":"1"}},{"base_weights":[7.348189E-3,-1.6589222E0,1.0034918E0,4.5611537E-1,-3.4511533E0,6.9864597E0,2.2501849E-1,1.3915458E0,-1.6189545E0,-2.0923243E0,-4.9380984E0,9.344941E0,3.3026896E0,-2.8661635E0,1.5942241E0,8.622462E-1,1.0860696E1,-7.3367805E0,6.203514E-1,-1.2586292E0,-4.5678635E0,-4.805831E0,-1.1577062E1,7.879282E0,1.7274328E1,-7.905747E0,7.610249E0,1.0150524E-1,-3.3586314E0,3.7645807E0,5.390973E-1,-4.4972137E-2,1.3451093E-1,1.0493703E0,4.9976087E-1,-3.238927E-1,-1.1064197E0,4.459158E-1,-1.9861566E-2,-1.5965313E-1,2.1382453E-2,-6.053176E-1,-1.2748943E-1,-2.4493873E-1,3.0271944E-1,-1.0863838E0,-2.4461634E-1,4.5076808E-1,-1.093019E-1,1.1656717E0,6.815917E-1,-9.912541E-2,-6.6709816E-1,5.1748025E-1,1.537157E-1,-3.6437284E-2,3.5470206E-1,-4.232548E-1,-1.0405894E-1,3.8349968E-1,6.2721156E-2,-3.543498E-2,2.10982E-1],"categories":[],"categories_nodes":[],"categories_segments":[],"categories_sizes":[],"default_left":[0,0,0,0,0,0,0,0,0,0,0,0,0,0,0,0,0,0,0,0,0,0,0,0,0,0,0,0,0,0,0,0,0,0,0,0,0,0,0,0,0,0,0,0,0,0,0,0,0,0,0,0,0,0,0,0,0,0,0,0,0,0,0],"id":12,"left_children":[1,3,5,7,9,11,13,15,17,19,21,23,25,27,29,31,33,35,37,39,41,43,45,47,49,51,53,55,57,59,61,-1,-1,-1,-1,-1,-1,-1,-1,-1,-1,-1,-1,-1,-1,-1,-1,-1,-1,-1,-1,-1,-1,-1,-1,-1,-1,-1,-1,-1,-1,-1,-1],"loss_changes":[7.399041E6,6.3221765E6,1.2993863E7,1.4849796E6,1.824133E6,2.790634E6,1.0448378E7,2.6429025E6,3.043647E6,9.735755E5,3.7849E5,2.275734E6,6.053436E6,1.107504E6,3.917808E6,1.6082328E6,2.4444975E5,8.4977675E5,1.4423424E6,1.151126E6,1.8079558E6,4.26664E5,5.712259E5,1.889997E6,6.71682E5,1.1207912E6,1.1253615E6,6.2616375E5,4.2397195E6,5.4863625E6,5.2868905E6,0E0,0E0,0E0,0E0,0E0,0E0,0E0,0E0,0E0,0E0,0E0,0E0,0E0,0E0,0E0,0E0,0E0,0E0,0E0,0E0,0E0,0E0,0E0,0E0,0E0,0E0,0E0,0E0,0E0,0E0,0E0,0E0],"parents":[2147483647,0,0,1,1,2,2,3,3,4,4,5,5,6,6,7,7,8,8,9,9,10,10,11,11,12,12,13,13,14,14,15,15,16,16,17,17,18,18,19,19,20,20,21,21,22,22,23,23,24,24,25,25,26,26,27,27,28,28,29,29,30,30],"right_children":[2,4,6,8,10,12,14,16,18,20,22,24,26,28,30,32,34,36,38,40,42,44,46,48,50,52,54,56,58,60,62,-1,-1,-1,-1,-1,-1,-1,-1,-1,-1,-1,-1,-1,-1,-1,-1,-1,-1,-1,-1,-1,-1,-1,-1,-1,-1,-1,-1,-1,-1,-1,-1],"split_conditions":[5E0,3E0,6E0,1.1627264E3,4E0,1.1627264E3,7E0,8.375422E3,8.431803E3,1.1698142E3,1.2780226E3,8.326365E3,8.389391E3,1.0632102E3,8E0,8.1666113E3,1.1478375E3,1.198226E3,1.186911E3,8.169017E3,8.455346E3,8.699802E3,8.727611E3,1.1458771E3,1.1549817E3,1.1725289E3,1.2492672E3,8.0968936E3,8.127836E3,1.1101519E3,9E0,-4.4972137E-2,1.3451093E-1,1.0493703E0,4.9976087E-1,-3.238927E-1,-1.1064197E0,4.459158E-1,-1.9861566E-2,-1.5965313E-1,2.1382453E-2,-6.053176E-1,-1.2748943E-1,-2.4493873E-1,3.0271944E-1,-1.0863838E0,-2.4461634E-1,4.5076808E-1,-1.093019E-1,1.1656717E0,6.815917E-1,-9.912541E-2,-6.6709816E-1,5.1748025E-1,1.537157E-1,-3.6437284E-2,3.5470206E-1,-4.232548E-1,-1.0405894E-1,3.8349968E-1,6.2721156E-2,-3.543498E-2,2.10982E-1],"split_indices":[3,3,3,0,3,0,3,2,2,0,0,2,2,0,3,2,0,0,0,2,2,2,2,0,0,0,0,2,2,0,3,0,0,0,0,0,0,0,0,0,0,0,0,0,0,0,0,0,0,0,0,0,0,0,0,0,0,0,0,0,0,0,0],"split_type":[0,0,0,0,0,0,0,0,0,0,0,0,0,0,0,0,0,0,0,0,0,0,0,0,0,0,0,0,0,0,0,0,0,0,0,0,0,0,0,0,0,0,0,0,0,0,0,0,0,0,0,0,0,0,0,0,0,0,0,0,0,0,0],"sum_hessian":[4.457669E6,1.667839E6,2.78983E6,7.65024E5,9.02815E5,3.21204E5,2.468626E6,5.27314E5,2.3771E5,4.71731E5,4.31084E5,1.95827E5,1.25377E5,7.57794E5,1.710832E6,4.994E5,2.7914E4,6.6896E4,1.70814E5,3.52889E5,1.18842E5,4.22665E5,8.419E3,1.65279E5,3.0548E4,3.4807E4,9.057E4,1.07854E5,6.4994E5,5.5965E5,1.151182E6,2.54311E5,2.45089E5,2.196E3,2.5718E4,6.3226E4,3.67E3,1.8658E4,1.52156E5,1.64351E5,1.88538E5,2.5095E4,9.3747E4,4.19079E5,3.586E3,3.342E3,5.077E3,1.48516E5,1.6763E4,1.1491E4,1.9057E4,1.6658E4,1.8149E4,5.6467E4,3.4103E4,9.6408E4,1.1446E4,1.30055E5,5.19885E5,2.18968E5,3.40682E5,8.59717E5,2.91465E5],"tree_param":{"num_deleted":"0","num_feature":"4","num_nodes":"63","size_leaf_vector":"1"}},{"base_weights":[6.613624E-3,-1.5824893E0,9.5652884E-1,4.187179E-1,-3.2784197E0,6.635654E0,2.1839811E-1,1.3015157E0,-1.5897582E0,-1.9945563E0,-4.6829276E0,9.038773E0,3.3000848E0,-2.7239254E0,1.5203536E0,8.0794764E-1,1.0523901E1,-7.3680305E0,5.493736E-1,2.8115726E-1,-2.8784075E0,-4.5460753E0,-1.0462381E1,7.8776565E0,2.186907E1,-7.7213373E0,6.8753724E0,-1.2192756E0,-3.7003136E0,3.1425953E0,2.2978875E-1,-4.3041267E-2,1.255167E-1,1.040557E0,4.905274E-1,-3.2584676E-1,-1.0505109E0,3.5651365E-1,-2.8732581E-2,-8.4890015E-2,5.810658E-1,-3.2184958E-1,-9.964924E-2,-2.3090926E-1,3.84902E-1,-1.2060813E0,-2.8703558E-1,9.136197E-1,3.4980747E-1,9.436076E-1,1.7466128E0,-1.6429569E-1,-6.514794E-1,4.4204685E-1,1.4904217E-1,-1.3196138E-1,5.062712E-1,-3.8934627E-1,-1.0723223E-1,1.0092832E-1,6.6758054E-1,-2.688404E-1,1.13927186E-1],"categories":[],"categories_nodes":[],"categories_segments":[],"categories_sizes":[],"default_left":[0,0,0,0,0,0,0,0,0,0,0,0,0,0,0,0,0,0,0,0,0,0,0,0,0,0,0,0,0,0,0,0,0,0,0,0,0,0,0,0,0,0,0,0,0,0,0,0,0,0,0,0,0,0,0,0,0,0,0,0,0,0,0],"id":13,"left_children":[1,3,5,7,9,11,13,15,17,19,21,23,25,27,29,31,33,35,37,39,41,43,45,47,49,51,53,55,57,59,61,-1,-1,-1,-1,-1,-1,-1,-1,-1,-1,-1,-1,-1,-1,-1,-1,-1,-1,-1,-1,-1,-1,-1,-1,-1,-1,-1,-1,-1,-1,-1,-1],"loss_changes":[6.726035E6,5.657721E6,1.1690233E7,1.3558538E6,1.627078E6,2.57118E6,9.454259E6,2.4179698E6,2.88598E6,9.482029E5,3.4078E5,2.777368E6,5.2931355E6,1.112217E6,3.581976E6,1.4324415E6,1.978235E5,7.3230725E5,1.2604842E6,2.9594955E6,1.0698362E6,3.71704E5,6.426776E5,1.566505E6,6.050585E5,7.746131E5,7.76377E5,4.799471E6,2.9188565E6,8.698724E6,1.094515E7,0E0,0E0,0E0,0E0,0E0,0E0,0E0,0E0,0E0,0E0,0E0,0E0,0E0,0E0,0E0,0E0,0E0,0E0,0E0,0E0,0E0,0E0,0E0,0E0,0E0,0E0,0E0,0E0,0E0,0E0,0E0,0E0],"parents":[2147483647,0,0,1,1,2,2,3,3,4,4,5,5,6,6,7,7,8,8,9,9,10,10,11,11,12,12,13,13,14,14,15,15,16,16,17,17,18,18,19,19,20,20,21,21,22,22,23,23,24,24,25,25,26,26,27,27,28,28,29,29,30,30],"right_children":[2,4,6,8,10,12,14,16,18,20,22,24,26,28,30,32,34,36,38,40,42,44,46,48,50,52,54,56,58,60,62,-1,-1,-1,-1,-1,-1,-1,-1,-1,-1,-1,-1,-1,-1,-1,-1,-1,-1,-1,-1,-1,-1,-1,-1,-1,-1,-1,-1,-1,-1,-1,-1],"split_conditions":[5E0,3E0,6E0,1.1634111E3,4E0,1.1608325E3,7E0,8.377515E3,8.431803E3,1.094385E3,1.2748038E3,8.350291E3,8.379584E3,1.0923413E3,1.1101519E3,8.1666113E3,1.1478375E3,1.198226E3,1.192969E3,8.1666113E3,8.200635E3,8.699802E3,8.7091E3,1.0659872E3,8.377515E3,1.1735071E3,1.2492672E3,8.194796E3,8.226632E3,8.223149E3,8.270699E3,-4.3041267E-2,1.255167E-1,1.040557E0,4.905274E-1,-3.2584676E-1,-1.0505109E0,3.5651365E-1,-2.8732581E-2,-8.4890015E-2,5.810658E-1,-3.2184958E-1,-9.964924E-2,-2.3090926E-1,3.84902E-1,-1.2060813E0,-2.8703558E-1,9.136197E-1,3.4980747E-1,9.436076E-1,1.7466128E0,-1.6429569E-1,-6.514794E-1,4.4204685E-1,1.4904217E-1,-1.3196138E-1,5.062712E-1,-3.8934627E-1,-1.0723223E-1,1.0092832E-1,6.6758054E-1,-2.688404E-1,1.13927186E-1],"split_indices":[3,3,3,0,3,0,3,2,2,0,0,2,2,0,0,2,0,0,0,2,2,2,2,0,2,0,0,2,2,2,2,0,0,0,0,0,0,0,0,0,0,0,0,0,0,0,0,0,0,0,0,0,0,0,0,0,0,0,0,0,0,0,0],"split_type":[0,0,0,0,0,0,0,0,0,0,0,0,0,0,0,0,0,0,0,0,0,0,0,0,0,0,0,0,0,0,0,0,0,0,0,0,0,0,0,0,0,0,0,0,0,0,0,0,0,0,0,0,0,0,0,0,0,0,0,0,0,0,0],"sum_hessian":[4.455763E6,1.667021E6,2.788742E6,7.64687E5,9.02334E5,3.20768E5,2.467974E6,5.31204E5,2.33483E5,4.71415E5,4.30919E5,1.86443E5,1.34325E5,7.57064E5,1.71091E6,5.0422E5,2.6984E4,6.3082E4,1.70401E5,1.31873E5,3.39542E5,4.20953E5,9.966E3,1.70972E5,1.5471E4,3.2901E4,1.01424E5,2.97936E5,4.59128E5,7.58045E5,9.52865E5,2.54624E5,2.49596E5,1.748E3,2.5236E4,5.9379E4,3.703E3,2.4858E4,1.45543E5,1.1228E5,1.9593E4,6.7649E4,2.71893E5,4.18489E5,2.464E3,2.559E3,7.407E3,1.3364E4,1.57608E5,1.2586E4,2.885E3,1.7925E4,1.4976E4,6.7404E4,3.402E4,2.64794E5,3.3142E4,1.26588E5,3.3254E5,6.82862E5,7.5183E4,2.55009E5,6.97856E5],"tree_param":{"num_deleted":"0","num_feature":"4","num_nodes":"63","size_leaf_vector":"1"}},{"base_weights":[-6.9898223E-3,-1.5048195E0,8.879941E-1,4.0417725E-1,-3.1186223E0,6.246493E0,1.9147208E-1,1.2837399E0,-1.4730513E0,-1.8858625E0,-4.4683933E0,8.493429E0,2.9964304E0,-2.589833E0,1.422335E0,2.5341186E-1,5.767319E0,-6.2186236E0,4.7869623E-1,-1.3309493E-2,-2.865769E0,-1.1487079E1,-4.3593926E0,7.3812585E0,1.913651E1,-7.300741E0,6.4911327E0,3.2466784E-1,-3.0537837E0,3.477235E0,4.2408985E-1,6.2288623E-2,-2.8396186E-1,7.1685547E-1,1.5023385E-1,-2.720334E-1,-9.827342E-1,4.4903323E-1,-1.7535323E-2,-8.8877805E-2,2.922119E-1,-3.209619E-1,-7.92973E-2,-1.1786743E0,-5.148829E-1,-1.3869949E-1,-2.5051543E-1,8.657326E-1,3.2758874E-1,1.4476756E0,7.716103E-1,-1.2383603E-1,-6.010057E-1,4.211885E-1,1.2273283E-1,-1.919691E-2,3.504265E-1,-3.867436E-1,-9.265149E-2,3.5823914E-1,5.9794504E-2,-3.94078E-2,2.0012835E-1],"categories":[],"categories_nodes":[],"categories_segments":[],"categories_sizes":[],"default_left":[0,0,0,0,0,0,0,0,0,0,0,0,0,0,0,0,0,0,0,0,0,0,0,0,0,0,0,0,0,0,0,0,0,0,0,0,0,0,0,0,0,0,0,0,0,0,0,0,0,0,0,0,0,0,0,0,0,0,0,0,0,0,0],"id":14,"left_children":[1,3,5,7,9,11,13,15,17,19,21,23,25,27,29,31,33,35,37,39,41,43,45,47,49,51,53,55,57,59,61,-1,-1,-1,-1,-1,-1,-1,-1,-1,-1,-1,-1,-1,-1,-1,-1,-1,-1,-1,-1,-1,-1,-1,-1,-1,-1,-1,-1,-1,-1,-1,-1],"loss_changes":[5.974874E6,5.135861E6,1.0413162E7,1.2609711E6,1.503179E6,2.343698E6,8.45261E6,2.4023395E6,2.2568208E6,8.663826E5,3.29859E5,2.24595E6,4.7209195E6,1.024235E6,3.5109915E6,2.489546E6,2.3005775E6,7.4211625E5,1.2174754E6,1.6762418E6,1.4096295E6,9.4551375E4,4.38194E5,1.415465E6,6.52381E5,7.56769E5,7.64068E5,4.9266953E5,3.6728985E6,4.707816E6,4.997294E6,0E0,0E0,0E0,0E0,0E0,0E0,0E0,0E0,0E0,0E0,0E0,0E0,0E0,0E0,0E0,0E0,0E0,0E0,0E0,0E0,0E0,0E0,0E0,0E0,0E0,0E0,0E0,0E0,0E0,0E0,0E0,0E0],"parents":[2147483647,0,0,1,1,2,2,3,3,4,4,5,5,6,6,7,7,8,8,9,9,10,10,11,11,12,12,13,13,14,14,15,15,16,16,17,17,18,18,19,19,20,20,21,21,22,22,23,23,24,24,25,25,26,26,27,27,28,28,29,29,30,30],"right_children":[2,4,6,8,10,12,14,16,18,20,22,24,26,28,30,32,34,36,38,40,42,44,46,48,50,52,54,56,58,60,62,-1,-1,-1,-1,-1,-1,-1,-1,-1,-1,-1,-1,-1,-1,-1,-1,-1,-1,-1,-1,-1,-1,-1,-1,-1,-1,-1,-1,-1,-1,-1,-1],"split_conditions":[5E0,3E0,6E0,1.1614465E3,4E0,1.1614465E3,7E0,8.304791E3,8.426666E3,1.1014554E3,7.7814805E3,8.350291E3,8.381706E3,1.0622518E3,8E0,1.132806E3,1.1418312E3,1.196405E3,1.1816923E3,8.164238E3,8.245302E3,7.64215E3,1.1024794E3,1.0659872E3,1.1549817E3,1.1725289E3,1.2517432E3,8.0968936E3,8.127836E3,1.1090334E3,9E0,6.2288623E-2,-2.8396186E-1,7.1685547E-1,1.5023385E-1,-2.720334E-1,-9.827342E-1,4.4903323E-1,-1.7535323E-2,-8.8877805E-2,2.922119E-1,-3.209619E-1,-7.92973E-2,-1.1786743E0,-5.148829E-1,-1.3869949E-1,-2.5051543E-1,8.657326E-1,3.2758874E-1,1.4476756E0,7.716103E-1,-1.2383603E-1,-6.010057E-1,4.211885E-1,1.2273283E-1,-1.919691E-2,3.504265E-1,-3.867436E-1,-9.265149E-2,3.5823914E-1,5.9794504E-2,-3.94078E-2,2.0012835E-1],"split_indices":[3,3,3,0,3,0,3,2,2,0,2,2,2,0,3,0,0,0,0,2,2,2,0,0,0,0,0,2,2,0,3,0,0,0,0,0,0,0,0,0,0,0,0,0,0,0,0,0,0,0,0,0,0,0,0,0,0,0,0,0,0,0,0],"split_type":[0,0,0,0,0,0,0,0,0,0,0,0,0,0,0,0,0,0,0,0,0,0,0,0,0,0,0,0,0,0,0,0,0,0,0,0,0,0,0,0,0,0,0,0,0,0,0,0,0,0,0,0,0,0,0,0,0,0,0,0,0,0,0],"sum_hessian":[4.457085E6,1.667083E6,2.790002E6,7.63695E5,9.03388E5,3.20939E5,2.469063E6,5.20036E5,2.43659E5,4.72161E5,4.31227E5,1.89752E5,1.31187E5,7.57465E5,1.711598E6,4.22863E5,9.7173E4,7.1007E4,1.72652E5,1.62202E5,3.09959E5,6.593E3,4.24634E5,1.71801E5,1.7951E4,3.3241E4,9.7946E4,1.0402E5,6.53445E5,5.59617E5,1.151981E6,3.62267E5,6.0596E4,2.3688E4,7.3485E4,6.7122E4,3.885E3,1.5345E4,1.57307E5,1.24657E5,3.7545E4,8.2074E4,2.27885E5,5.89E2,6.004E3,1.23598E5,3.01036E5,1.3239E4,1.58562E5,4.916E3,1.3035E4,1.6439E4,1.6802E4,6.6233E4,3.1713E4,9.405E4,9.97E3,1.33397E5,5.20048E5,2.13888E5,3.45729E5,8.60484E5,2.91497E5],"tree_param":{"num_deleted":"0","num_feature":"4","num_nodes":"63","size_leaf_vector":"1"}},{"base_weights":[4.3840628E-4,-2.7751827E0,4.116443E-1,-7.5030726E-1,-1.736845E1,4.198137E0,-5.1317334E-1,-2.3535807E0,6.8235145E0,-2.4581476E1,-6.6536837E0,2.4500997E0,9.199687E0,-9.969571E0,3.5631305E-1,4.3588337E-1,-1.5513215E1,1.1341483E1,2.7265906E-1,-2.663357E1,-2.0670706E1,-6.046671E-1,-2.324464E1,4.4373032E-1,8.283539E0,1.5008436E1,7.6159267E0,-2.0570255E1,-3.2234333E0,5.680017E0,-2.7262828E-1,-8.537062E-2,2.2285758E-1,-1.0394737E0,-5.188533E-1,8.6407346E-1,4.308763E-1,-3.290672E-1,5.605049E-1,-1.4433721E0,-1.2493316E0,-4.309125E-1,-1.2267348E0,-9.0966545E-2,5.4843354E-1,-8.810033E-1,-1.3509159E0,2.2136295E-1,-5.626775E-1,8.0543035E-1,3.2781905E-1,6.9957477E-1,1.0278072E0,1.7206623E-1,5.896831E-1,-6.7540956E-1,-1.2008175E0,5.840083E-2,-9.655858E-1,6.946622E-2,5.057957E-1,-3.7469766E-1,2.8437449E-2],"categories":[],"categories_nodes":[],"categories_segments":[],"categories_sizes":[],"default_left":[0,0,0,0,0,0,0,0,0,0,0,0,0,0,0,0,0,0,0,0,0,0,0,0,0,0,0,0,0,0,0,0,0,0,0,0,0,0,0,0,0,0,0,0,0,0,0,0,0,0,0,0,0,0,0,0,0,0,0,0,0,0,0],"id":15,"left_children":[1,3,5,7,9,11,13,15,17,19,21,23,25,27,29,31,33,35,37,39,41,43,45,47,49,51,53,55,57,59,61,-1,-1,-1,-1,-1,-1,-1,-1,-1,-1,-1,-1,-1,-1,-1,-1,-1,-1,-1,-1,-1,-1,-1,-1,-1,-1,-1,-1,-1,-1,-1,-1],"loss_changes":[5.087561E6,1.6995796E7,1.3595182E7,6.1331795E6,5.416188E6,6.662849E6,2.5655232E7,1.5301614E7,2.6115978E6,3.35586E5,2.829908E6,6.6095205E6,1.815614E6,1.8789296E7,9.567755E6,2.964338E6,1.975486E6,8.44833E5,2.7001718E6,1.0033E5,6.7129E5,2.9052262E5,1.59436E5,1.9579832E7,1.953154E6,2.38259E5,2.704737E6,2.486332E6,1.1343801E7,5.746373E6,1.5527364E7,0E0,0E0,0E0,0E0,0E0,0E0,0E0,0E0,0E0,0E0,0E0,0E0,0E0,0E0,0E0,0E0,0E0,0E0,0E0,0E0,0E0,0E0,0E0,0E0,0E0,0E0,0E0,0E0,0E0,0E0,0E0,0E0],"parents":[2147483647,0,0,1,1,2,2,3,3,4,4,5,5,6,6,7,7,8,8,9,9,10,10,11,11,12,12,13,13,14,14,15,15,16,16,17,17,18,18,19,19,20,20,21,21,22,22,23,23,24,24,25,25,26,26,27,27,28,28,29,29,30,30],"right_children":[2,4,6,8,10,12,14,16,18,20,22,24,26,28,30,32,34,36,38,40,42,44,46,48,50,52,54,56,58,60,62,-1,-1,-1,-1,-1,-1,-1,-1,-1,-1,-1,-1,-1,-1,-1,-1,-1,-1,-1,-1,-1,-1,-1,-1,-1,-1,-1,-1,-1,-1,-1,-1],"split_conditions":[1.7994077E2,1.079702E3,1.0949056E3,8.113461E3,8.1618765E3,8.169017E3,2.0631508E2,1.0584889E3,1.0726418E3,8.145858E3,1.0912478E3,2.0190482E2,1.083777E3,8.210837E3,1.109601E3,1.6695103E2,8.068607E3,1.0632102E3,8.164238E3,8.1220664E3,1.0848635E3,8.1885396E3,1.0979594E3,1.079702E3,1.0831958E3,1.9307103E2,8.20235E3,1.0979594E3,1.1141173E3,2.1601556E2,2.2519652E2,-8.537062E-2,2.2285758E-1,-1.0394737E0,-5.188533E-1,8.6407346E-1,4.308763E-1,-3.290672E-1,5.605049E-1,-1.4433721E0,-1.2493316E0,-4.309125E-1,-1.2267348E0,-9.0966545E-2,5.4843354E-1,-8.810033E-1,-1.3509159E0,2.2136295E-1,-5.626775E-1,8.0543035E-1,3.2781905E-1,6.9957477E-1,1.0278072E0,1.7206623E-1,5.896831E-1,-6.7540956E-1,-1.2008175E0,5.840083E-2,-9.655858E-1,6.946622E-2,5.057957E-1,-3.7469766E-1,2.8437449E-2],"split_indices":[1,0,0,2,2,2,1,0,0,2,0,1,0,2,0,1,2,0,2,2,0,2,0,0,0,1,2,0,0,1,1,0,0,0,0,0,0,0,0,0,0,0,0,0,0,0,0,0,0,0,0,0,0,0,0,0,0,0,0,0,0,0,0],"split_type":[0,0,0,0,0,0,0,0,0,0,0,0,0,0,0,0,0,0,0,0,0,0,0,0,0,0,0,0,0,0,0,0,0,0,0,0,0,0,0,0,0,0,0,0,0,0,0,0,0,0,0,0,0,0,0,0,0,0,0,0,0,0,0],"sum_hessian":[4.457485E6,5.75162E5,3.882323E6,5.05081E5,7.0081E4,7.62089E5,3.120234E6,4.16842E5,8.8239E4,4.1884E4,2.8197E4,5.64721E5,1.97368E5,2.62737E5,2.857497E6,3.43938E5,7.2904E4,5.2222E4,3.6017E4,2.7466E4,1.4418E4,2.0664E4,7.533E3,4.20198E5,1.44523E5,4.2282E4,1.55086E5,1.02177E5,1.6056E5,3.01915E5,2.555582E6,2.24358E5,1.1958E5,3.596E4,3.6944E4,1.6417E4,3.5805E4,2.2142E4,1.3875E4,1.1649E4,1.5817E4,3.501E3,1.0917E4,1.8702E4,1.962E3,3.027E3,4.506E3,3.13452E5,1.06746E5,2.613E4,1.18393E5,3.5735E4,6.547E3,7.7573E4,7.7513E4,3.351E4,6.8667E4,1.26132E5,3.4428E4,1.5347E5,1.48445E5,2.66685E5,2.288897E6],"tree_param":{"num_deleted":"0","num_feature":"4","num_nodes":"63","size_leaf_vector":"1"}},{"base_weights":[1.1366112E-2,-1.4455383E0,8.818977E-1,3.6611998E-1,-2.9789422E0,5.949935E0,2.2398138E-1,-9.660254E-1,1.0323541E0,-1.8036149E0,-4.2642097E0,5.6576486E0,1.2094378E1,-2.4170935E0,1.3914751E0,-2.100306E0,-1.319317E-2,-5.226558E-1,1.7485762E0,-3.846103E0,-1.5017126E0,-6.2209997E0,-3.3063128E0,6.7073236E0,3.8099358E0,9.595327E0,1.3898178E1,-3.9335659E0,-1.6846702E0,-3.984711E0,1.7782555E0,-7.7928975E-2,-5.6377894E-1,-8.024622E-1,2.871491E-3,-5.458575E-2,8.2333975E-2,1.9367807E-1,5.4253098E-2,-7.010531E-2,-2.8358123E-1,-5.335624E-2,-1.1559737E-1,-2.3428622E-1,-4.5615673E-1,-8.0881834E-2,-2.1040975E-1,3.134788E-1,7.522513E-1,-3.5854813E-1,2.7461836E-1,5.5794555E-1,-3.1388575E-1,7.853294E-1,4.475033E-1,1.05848804E-1,-2.1743727E-1,-3.3169203E-2,-1.3632594E-1,2.125765E-1,-2.7802905E-1,1.6556107E-1,4.9565397E-2],"categories":[],"categories_nodes":[],"categories_segments":[],"categories_sizes":[],"default_left":[0,0,0,0,0,0,0,0,0,0,0,0,0,0,0,0,0,0,0,0,0,0,0,0,0,0,0,0,0,0,0,0,0,0,0,0,0,0,0,0,0,0,0,0,0,0,0,0,0,0,0,0,0,0,0,0,0,0,0,0,0,0,0],"id":16,"left_children":[1,3,5,7,9,11,13,15,17,19,21,23,25,27,29,31,33,35,37,39,41,43,45,47,49,51,53,55,57,59,61,-1,-1,-1,-1,-1,-1,-1,-1,-1,-1,-1,-1,-1,-1,-1,-1,-1,-1,-1,-1,-1,-1,-1,-1,-1,-1,-1,-1,-1,-1,-1,-1],"loss_changes":[5.651638E6,4.6301865E6,9.300846E6,6.781059E5,1.363602E6,5.75539E5,7.6127175E6,2.752993E5,5.6724925E5,2.9074362E5,8.08179E5,5.9337E5,6.54685E4,8.406015E5,3.5601048E6,5.779959E5,1.5678048E5,1.9827536E5,4.9166225E5,2.708942E5,1.4464562E5,6.31326E5,4.408595E5,7.1202E5,2.047838E6,1.5156412E5,7.547175E4,6.191925E5,5.430184E5,1.491417E6,1.9267665E6,0E0,0E0,0E0,0E0,0E0,0E0,0E0,0E0,0E0,0E0,0E0,0E0,0E0,0E0,0E0,0E0,0E0,0E0,0E0,0E0,0E0,0E0,0E0,0E0,0E0,0E0,0E0,0E0,0E0,0E0,0E0,0E0],"parents":[2147483647,0,0,1,1,2,2,3,3,4,4,5,5,6,6,7,7,8,8,9,9,10,10,11,11,12,12,13,13,14,14,15,15,16,16,17,17,18,18,19,19,20,20,21,21,22,22,23,23,24,24,25,25,26,26,27,27,28,28,29,29,30,30],"right_children":[2,4,6,8,10,12,14,16,18,20,22,24,26,28,30,32,34,36,38,40,42,44,46,48,50,52,54,56,58,60,62,-1,-1,-1,-1,-1,-1,-1,-1,-1,-1,-1,-1,-1,-1,-1,-1,-1,-1,-1,-1,-1,-1,-1,-1,-1,-1,-1,-1,-1,-1,-1,-1],"split_conditions":[5E0,3E0,6E0,8.1666113E3,4E0,8.691475E3,7E0,1.9875172E2,2E0,1.866735E2,2.1164688E2,8.3586455E3,8.718032E3,8.134037E3,1.6613243E2,8.134037E3,7.902935E3,8.61552E3,8.24731E3,7.8716484E3,8.3586455E3,8.159376E3,8.29193E3,8.350291E3,8.375422E3,3.957636E2,4.1228372E2,1.4134988E2,2.3563959E2,8E0,8E0,-7.7928975E-2,-5.6377894E-1,-8.024622E-1,2.871491E-3,-5.458575E-2,8.2333975E-2,1.9367807E-1,5.4253098E-2,-7.010531E-2,-2.8358123E-1,-5.335624E-2,-1.1559737E-1,-2.3428622E-1,-4.5615673E-1,-8.0881834E-2,-2.1040975E-1,3.134788E-1,7.522513E-1,-3.5854813E-1,2.7461836E-1,5.5794555E-1,-3.1388575E-1,7.853294E-1,4.475033E-1,1.05848804E-1,-2.1743727E-1,-3.3169203E-2,-1.3632594E-1,2.125765E-1,-2.7802905E-1,1.6556107E-1,4.9565397E-2],"split_indices":[3,3,3,2,3,2,3,1,3,1,1,2,2,2,1,2,2,2,2,2,2,2,2,2,2,1,1,1,1,3,3,0,0,0,0,0,0,0,0,0,0,0,0,0,0,0,0,0,0,0,0,0,0,0,0,0,0,0,0,0,0,0,0],"split_type":[0,0,0,0,0,0,0,0,0,0,0,0,0,0,0,0,0,0,0,0,0,0,0,0,0,0,0,0,0,0,0,0,0,0,0,0,0,0,0,0,0,0,0,0,0,0,0,0,0,0,0,0,0,0,0,0,0,0,0,0,0,0,0],"sum_hessian":[4.456137E6,1.66673E6,2.789407E6,7.64043E5,9.02687E5,3.20504E5,2.468903E6,2.54722E5,5.09321E5,4.71511E5,4.31176E5,3.05952E5,1.4552E4,7.56827E5,1.712076E6,1.16288E5,1.38434E5,1.60612E5,3.48709E5,6.0718E4,4.10793E5,1.41702E5,2.89474E5,1.95109E5,1.10843E5,6.103E3,8.449E3,2.46483E5,5.10344E5,1.14905E5,1.597171E6,1.09806E5,6.482E3,6.06E2,1.37828E5,1.27236E5,3.3376E4,8.2973E4,2.65736E5,2.5962E4,3.4756E4,2.6738E5,1.43413E5,9.2677E4,4.9025E4,1.00779E5,1.88695E5,1.85378E5,9.731E3,1.4726E4,9.6117E4,5.556E3,5.47E2,6.186E3,2.263E3,1.5827E4,2.30656E5,2.57716E5,2.52628E5,1.8454E4,9.6451E4,5.41782E5,1.055389E6],"tree_param":{"num_deleted":"0","num_feature":"4","num_nodes":"63","size_leaf_vector":"1"}},{"base_weights":[-2.5592812E-3,-1.3859094E0,8.244912E-1,3.229094E-1,-2.8315485E0,5.622611E0,2.0081836E-1,-9.656059E-1,9.67284E-1,-1.7321103E0,-4.0339203E0,5.336324E0,1.16602335E1,-2.3091793E0,1.3111653E0,-2.0347533E0,-6.291119E-2,2.949346E0,4.8365986E-1,-3.2133377E0,-1.3017006E0,-5.9037848E0,-3.1187813E0,6.3345675E0,3.57534E0,1.0265606E1,1.4829155E1,-3.7337496E0,-1.6213375E0,-3.7989242E0,1.6791523E0,-7.6455615E-2,-5.2659583E-1,-8.9585654E-2,2.8895527E-2,-3.288197E-2,2.0914654E-1,-4.0561542E-1,3.241953E-2,-1.1963072E-1,-2.6894936E-1,-3.585175E-2,-1.1033636E-1,-2.2286788E-1,-4.3202996E-1,-7.547652E-2,-1.9862549E-1,2.958702E-1,7.1606624E-1,-3.4675896E-1,2.594655E-1,5.6378144E-1,-8.892633E-1,1.0404638E0,4.5049438E-1,1.0376022E-1,-2.066387E-1,-3.3703454E-2,-1.2946299E-1,2.0521322E-1,-2.653874E-1,1.5607466E-1,4.6947237E-2],"categories":[],"categories_nodes":[],"categories_segments":[],"categories_sizes":[],"default_left":[0,0,0,0,0,0,0,0,0,0,0,0,0,0,0,0,0,0,0,0,0,0,0,0,0,0,0,0,0,0,0,0,0,0,0,0,0,0,0,0,0,0,0,0,0,0,0,0,0,0,0,0,0,0,0,0,0,0,0,0,0,0,0],"id":17,"left_children":[1,3,5,7,9,11,13,15,17,19,21,23,25,27,29,31,33,35,37,39,41,43,45,47,49,51,53,55,57,59,61,-1,-1,-1,-1,-1,-1,-1,-1,-1,-1,-1,-1,-1,-1,-1,-1,-1,-1,-1,-1,-1,-1,-1,-1,-1,-1,-1,-1,-1,-1,-1,-1],"loss_changes":[5.0986435E6,4.1191492E6,8.346022E6,6.344769E5,1.1940705E6,5.54478E5,6.8787925E6,2.4586553E5,4.883082E5,3.0080962E5,7.382605E5,5.38421E5,6.40315E4,7.41751E5,3.2178465E6,5.0106075E5,1.5302888E5,4.445858E5,5.7986125E5,1.88809E5,1.9345394E5,5.61169E5,3.9796825E5,6.51228E5,1.8798978E6,2.8601362E5,1.5418488E5,5.7134875E5,4.6806662E5,1.3707446E6,1.704217E6,0E0,0E0,0E0,0E0,0E0,0E0,0E0,0E0,0E0,0E0,0E0,0E0,0E0,0E0,0E0,0E0,0E0,0E0,0E0,0E0,0E0,0E0,0E0,0E0,0E0,0E0,0E0,0E0,0E0,0E0,0E0,0E0],"parents":[2147483647,0,0,1,1,2,2,3,3,4,4,5,5,6,6,7,7,8,8,9,9,10,10,11,11,12,12,13,13,14,14,15,15,16,16,17,17,18,18,19,19,20,20,21,21,22,22,23,23,24,24,25,25,26,26,27,27,28,28,29,29,30,30],"right_children":[2,4,6,8,10,12,14,16,18,20,22,24,26,28,30,32,34,36,38,40,42,44,46,48,50,52,54,56,58,60,62,-1,-1,-1,-1,-1,-1,-1,-1,-1,-1,-1,-1,-1,-1,-1,-1,-1,-1,-1,-1,-1,-1,-1,-1,-1,-1,-1,-1,-1,-1,-1,-1],"split_conditions":[5E0,3E0,6E0,8.1666113E3,4E0,8.691475E3,7E0,1.9875172E2,8.24731E3,8.047516E3,2.1164688E2,8.3586455E3,8.741045E3,8.134037E3,1.6613243E2,8.134037E3,7.977301E3,2.046727E2,2.1068318E2,7.977301E3,8.3586455E3,8.159376E3,8.29193E3,8.350291E3,8.375422E3,4.0578314E2,4.1228372E2,1.4134988E2,2.3563959E2,8E0,8E0,-7.6455615E-2,-5.2659583E-1,-8.9585654E-2,2.8895527E-2,-3.288197E-2,2.0914654E-1,-4.0561542E-1,3.241953E-2,-1.1963072E-1,-2.6894936E-1,-3.585175E-2,-1.1033636E-1,-2.2286788E-1,-4.3202996E-1,-7.547652E-2,-1.9862549E-1,2.958702E-1,7.1606624E-1,-3.4675896E-1,2.594655E-1,5.6378144E-1,-8.892633E-1,1.0404638E0,4.5049438E-1,1.0376022E-1,-2.066387E-1,-3.3703454E-2,-1.2946299E-1,2.0521322E-1,-2.653874E-1,1.5607466E-1,4.6947237E-2],"split_indices":[3,3,3,2,3,2,3,1,2,2,1,2,2,2,1,2,2,1,1,2,2,2,2,2,2,1,1,1,1,3,3,0,0,0,0,0,0,0,0,0,0,0,0,0,0,0,0,0,0,0,0,0,0,0,0,0,0,0,0,0,0,0,0],"split_type":[0,0,0,0,0,0,0,0,0,0,0,0,0,0,0,0,0,0,0,0,0,0,0,0,0,0,0,0,0,0,0,0,0,0,0,0,0,0,0,0,0,0,0,0,0,0,0,0,0,0,0,0,0,0,0,0,0,0,0,0,0,0,0],"sum_hessian":[4.456463E6,1.667444E6,2.789019E6,7.64164E5,9.0328E5,3.20822E5,2.468197E6,2.54752E5,5.09412E5,4.71838E5,4.31442E5,3.063E5,1.4522E4,7.56987E5,1.71121E6,1.16623E5,1.38129E5,9.9916E4,4.09496E5,1.06234E5,3.65604E5,1.41768E5,2.89674E5,1.95484E5,1.10816E5,1.0087E4,4.435E3,2.46488E5,5.10499E5,1.14949E5,1.596261E6,1.10074E5,6.549E3,3.7354E4,1.00775E5,2.5463E4,7.4453E4,7.699E3,4.01797E5,7.704E4,2.9194E4,2.22115E5,1.43489E5,9.2751E4,4.9017E4,1.00409E5,1.89265E5,1.85782E5,9.702E3,1.4751E4,9.6065E4,9.737E3,3.5E2,2.186E3,2.249E3,1.5843E4,2.30645E5,2.58003E5,2.52496E5,1.8427E4,9.6522E4,5.41368E5,1.054893E6],"tree_param":{"num_deleted":"0","num_feature":"4","num_nodes":"63","size_leaf_vector":"1"}},{"base_weights":[1.9468557E-3,6.6438025E-1,-1.8297575E0,6.82274E-2,6.5407E0,-7.3566213E0,3.4005535E-1,7.0603144E-1,-2.9497721E0,3.4315922E0,8.87942E0,-6.1101832E0,-1.782088E1,1.0990536E0,-8.165291E0,1.3218376E-1,9.747457E0,-2.4096495E1,-2.3929055E0,1.4086877E1,2.6946461E0,6.4513326E0,1.1473049E1,-2.0659157E1,-5.45604E0,-2.6557158E1,-1.0491925E1,4.9900874E-2,7.715254E0,-2.3773163E1,9.603277E-1,5.8338612E-2,-1.66138E-1,7.743658E-1,4.333368E-1,-1.3536556E0,-9.2962325E-1,-5.3817477E-2,-3.2725966E-1,1.007306E0,5.352554E-1,-5.9935678E-2,2.548928E-1,4.8541498E-1,-1.2504801E-1,8.527404E-1,5.3474224E-1,-7.692806E-1,-1.1855577E0,-3.1155828E-1,9.186413E-2,-1.381905E0,-1.1364838E0,-4.0216637E-1,-1.3324945E0,7.00132E-2,-1.1496443E0,7.306346E-1,2.2402644E-1,-1.4067746E0,-8.755032E-1,3.0916896E-1,-4.5731792E-1],"categories":[],"categories_nodes":[],"categories_segments":[],"categories_sizes":[],"default_left":[0,0,0,0,0,0,0,0,0,0,0,0,0,0,0,0,0,0,0,0,0,0,0,0,0,0,0,0,0,0,0,0,0,0,0,0,0,0,0,0,0,0,0,0,0,0,0,0,0,0,0,0,0,0,0,0,0,0,0,0,0,0,0],"id":18,"left_children":[1,3,5,7,9,11,13,15,17,19,21,23,25,27,29,31,33,35,37,39,41,43,45,47,49,51,53,55,57,59,61,-1,-1,-1,-1,-1,-1,-1,-1,-1,-1,-1,-1,-1,-1,-1,-1,-1,-1,-1,-1,-1,-1,-1,-1,-1,-1,-1,-1,-1,-1,-1,-1],"loss_changes":[5.4066185E6,1.1463735E7,1.4192242E7,5.7188005E6,2.191586E6,4.351482E6,5.4860455E6,1.2725309E7,6.103699E6,1.01600375E6,1.083188E6,2.837168E6,2.273348E6,5.4156555E6,9.91653E6,8.2436425E6,9.07863E5,2.173795E5,2.7608392E6,1.7129362E5,1.1323742E6,2.590477E6,3.61088E5,2.060835E5,1.612871E6,6.6391E4,7.638525E5,2.0954008E7,2.382449E6,7.01347E5,2.319339E6,0E0,0E0,0E0,0E0,0E0,0E0,0E0,0E0,0E0,0E0,0E0,0E0,0E0,0E0,0E0,0E0,0E0,0E0,0E0,0E0,0E0,0E0,0E0,0E0,0E0,0E0,0E0,0E0,0E0,0E0,0E0,0E0],"parents":[2147483647,0,0,1,1,2,2,3,3,4,4,5,5,6,6,7,7,8,8,9,9,10,10,11,11,12,12,13,13,14,14,15,15,16,16,17,17,18,18,19,19,20,20,21,21,22,22,23,23,24,24,25,25,26,26,27,27,28,28,29,29,30,30],"right_children":[2,4,6,8,10,12,14,16,18,20,22,24,26,28,30,32,34,36,38,40,42,44,46,48,50,52,54,56,58,60,62,-1,-1,-1,-1,-1,-1,-1,-1,-1,-1,-1,-1,-1,-1,-1,-1,-1,-1,-1,-1,-1,-1,-1,-1,-1,-1,-1,-1,-1,-1,-1,-1],"split_conditions":[1.1649058E3,8.348031E3,8.437137E3,1.132806E3,5E0,1.192969E3,1.2815818E3,8.279209E3,8.086954E3,1.1388405E3,8.377515E3,8.23929E3,8.367386E3,8.666656E3,8.727611E3,1.1079828E3,1.117758E3,8.072289E3,1.1529916E3,3E0,8.375422E3,1.1575416E3,1.1491915E3,1.1698142E3,9E0,8.345787E3,1.2104165E3,1.257149E3,1.265709E3,8.7091E3,1.3017128E3,5.8338612E-2,-1.66138E-1,7.743658E-1,4.333368E-1,-1.3536556E0,-9.2962325E-1,-5.3817477E-2,-3.2725966E-1,1.007306E0,5.352554E-1,-5.9935678E-2,2.548928E-1,4.8541498E-1,-1.2504801E-1,8.527404E-1,5.3474224E-1,-7.692806E-1,-1.1855577E0,-3.1155828E-1,9.186413E-2,-1.381905E0,-1.1364838E0,-4.0216637E-1,-1.3324945E0,7.00132E-2,-1.1496443E0,7.306346E-1,2.2402644E-1,-1.4067746E0,-8.755032E-1,3.0916896E-1,-4.5731792E-1],"split_indices":[0,2,2,0,3,0,0,2,2,0,2,2,2,2,2,0,0,2,0,3,2,0,0,0,3,2,0,0,0,2,0,0,0,0,0,0,0,0,0,0,0,0,0,0,0,0,0,0,0,0,0,0,0,0,0,0,0,0,0,0,0,0,0],"split_type":[0,0,0,0,0,0,0,0,0,0,0,0,0,0,0,0,0,0,0,0,0,0,0,0,0,0,0,0,0,0,0,0,0,0,0,0,0,0,0,0,0,0,0,0,0,0,0,0,0,0,0,0,0,0,0,0,0,0,0,0,0,0,0],"sum_hessian":[4.455823E6,3.272374E6,1.183449E6,2.97097E6,3.01404E5,3.33632E5,8.49817E5,2.452645E6,5.18325E5,1.29392E5,1.72012E5,2.98123E5,3.5509E4,7.80195E5,6.9622E4,2.30627E6,1.46375E5,1.3298E4,5.05027E5,8.369E3,1.21023E5,8.8843E4,8.3169E4,1.2826E4,2.85297E5,1.6198E4,1.9311E4,6.73411E5,1.06784E5,2.5687E4,4.3935E4,1.774803E6,5.31467E5,2.3191E4,1.23184E5,8.628E3,4.67E3,3.83449E5,1.21578E5,2.996E3,5.373E3,4.6191E4,7.4832E4,6.5143E4,2.37E4,1.0174E4,7.2995E4,4.704E3,8.122E3,2.57889E5,2.7408E4,1.2626E4,3.572E3,1.6771E4,2.54E3,6.36133E5,3.7278E4,3.409E4,7.2694E4,1.5139E4,1.0548E4,2.8966E4,1.4969E4],"tree_param":{"num_deleted":"0","num_feature":"4","num_nodes":"63","size_leaf_vector":"1"}},{"base_weights":[-5.227275E-4,6.026728E-1,-1.7732908E0,-2.1370816E-1,6.9573493E0,-7.8155403E0,5.527078E-1,5.7552457E-1,-6.9789767E0,1.2096791E1,5.2417755E0,-1.4252505E1,-2.9737347E-1,6.911974E0,-7.273354E-1,-6.795355E-1,5.2185516E0,-1.5040299E1,3.483407E0,1.07862425E1,1.960234E1,-1.4898714E0,9.567437E0,-9.886873E0,-2.4260946E1,4.5463386E0,-2.1355343E1,-3.9419188E0,8.092929E0,-1.590979E1,7.538402E-1,5.078834E-2,-4.039689E-1,5.797924E-1,1.75183E-1,-4.631025E-1,-1.1720651E0,5.0239867E-1,2.892181E-2,6.7757726E-1,2.8968146E-1,9.2041016E-1,1.1284684E0,-2.2073315E-1,6.999221E-1,9.161148E-1,3.9714137E-1,-8.7333757E-1,-5.0954033E-2,-1.0701772E0,-1.3528003E0,3.5889623E-1,-2.9598892E-2,-8.116813E-1,-1.4052507E0,3.909198E-1,-9.354392E-1,3.2353657E-1,6.8422335E-1,-5.5020857E-1,-1.3022462E0,3.247864E-1,-7.2055705E-2],"categories":[],"categories_nodes":[],"categories_segments":[],"categories_sizes":[],"default_left":[0,0,0,0,0,0,0,0,0,0,0,0,0,0,0,0,0,0,0,0,0,0,0,0,0,0,0,0,0,0,0,0,0,0,0,0,0,0,0,0,0,0,0,0,0,0,0,0,0,0,0,0,0,0,0,0,0,0,0,0,0,0,0],"id":19,"left_children":[1,3,5,7,9,11,13,15,17,19,21,23,25,27,29,31,33,35,37,39,41,43,45,47,49,51,53,55,57,59,61,-1,-1,-1,-1,-1,-1,-1,-1,-1,-1,-1,-1,-1,-1,-1,-1,-1,-1,-1,-1,-1,-1,-1,-1,-1,-1,-1,-1,-1,-1,-1,-1],"loss_changes":[4.765923E6,1.7251842E7,1.590243E7,1.5734383E7,3.33792E6,1.5220302E7,6.6504635E6,1.5378174E7,2.5965508E7,9.31736E5,8.265014E6,7.403004E6,1.4797157E7,1.754759E6,1.5294043E7,2.6061468E7,6.141334E6,8.4407E6,2.5549758E6,1.113562E6,4.9481E4,5.030138E6,2.457615E6,7.930084E6,4.10412E5,1.5948202E6,9.37391E5,2.333135E6,1.1197925E6,3.005334E6,7.8095705E6,0E0,0E0,0E0,0E0,0E0,0E0,0E0,0E0,0E0,0E0,0E0,0E0,0E0,0E0,0E0,0E0,0E0,0E0,0E0,0E0,0E0,0E0,0E0,0E0,0E0,0E0,0E0,0E0,0E0,0E0,0E0,0E0],"parents":[2147483647,0,0,1,1,2,2,3,3,4,4,5,5,6,6,7,7,8,8,9,9,10,10,11,11,12,12,13,13,14,14,15,15,16,16,17,17,18,18,19,19,20,20,21,21,22,22,23,23,24,24,25,25,26,26,27,27,28,28,29,29,30,30],"right_children":[2,4,6,8,10,12,14,16,18,20,22,24,26,28,30,32,34,36,38,40,42,44,46,48,50,52,54,56,58,60,62,-1,-1,-1,-1,-1,-1,-1,-1,-1,-1,-1,-1,-1,-1,-1,-1,-1,-1,-1,-1,-1,-1,-1,-1,-1,-1,-1,-1,-1,-1,-1,-1],"split_conditions":[1.1672642E3,2.565119E2,2.8735742E2,1.140428E3,1.1499344E3,8.437137E3,1.198226E3,2.2352675E2,8.367386E3,2.6607373E2,2.7039145E2,1.1778967E3,1.192969E3,8.319934E3,8.522191E3,1.1058986E3,1.1158887E3,1.1478375E3,1.1506779E3,1.1465045E3,8.330987E3,8.386443E3,1.1556256E3,2.759886E2,1.1842572E3,1.1842572E3,1.2001868E3,1.1829755E3,8.4954375E3,1.2125259E3,1.2263892E3,5.078834E-2,-4.039689E-1,5.797924E-1,1.75183E-1,-4.631025E-1,-1.1720651E0,5.0239867E-1,2.892181E-2,6.7757726E-1,2.8968146E-1,9.2041016E-1,1.1284684E0,-2.2073315E-1,6.999221E-1,9.161148E-1,3.9714137E-1,-8.7333757E-1,-5.0954033E-2,-1.0701772E0,-1.3528003E0,3.5889623E-1,-2.9598892E-2,-8.116813E-1,-1.4052507E0,3.909198E-1,-9.354392E-1,3.2353657E-1,6.8422335E-1,-5.5020857E-1,-1.3022462E0,3.247864E-1,-7.2055705E-2],"split_indices":[0,1,1,0,0,2,0,1,2,1,1,0,0,2,2,0,0,0,0,0,2,2,0,1,0,0,0,0,2,0,0,0,0,0,0,0,0,0,0,0,0,0,0,0,0,0,0,0,0,0,0,0,0,0,0,0,0,0,0,0,0,0,0],"split_type":[0,0,0,0,0,0,0,0,0,0,0,0,0,0,0,0,0,0,0,0,0,0,0,0,0,0,0,0,0,0,0,0,0,0,0,0,0,0,0,0,0,0,0,0,0,0,0,0,0,0,0,0,0,0,0,0,0,0,0,0,0,0,0],"sum_hessian":[4.45694E6,3.325439E6,1.131501E6,2.946859E6,3.7858E5,3.14506E5,8.16995E5,2.638996E6,3.07863E5,9.4744E4,2.83836E5,1.69436E5,1.4507E5,1.36895E5,6.801E5,2.077442E6,5.61554E5,1.73884E5,1.33979E5,8.0662E4,1.4082E4,1.11038E5,1.72798E5,1.17977E5,5.1459E4,1.17942E5,2.7128E4,1.3433E4,1.23462E5,6.0451E4,6.19649E5,1.690215E6,3.87227E5,1.19003E5,4.42551E5,1.03025E5,7.0859E4,4.11E4,9.2879E4,5.1909E4,2.8753E4,1.0046E4,4.036E3,9.3401E4,1.7637E4,2.7045E4,1.45753E5,6.3607E4,5.437E4,2.545E4,2.6009E4,7.7996E4,3.9946E4,1.5426E4,1.1702E4,7.478E3,5.955E3,9.57E4,2.7762E4,4.0736E4,1.9715E4,1.71365E5,4.48284E5],"tree_param":{"num_deleted":"0","num_feature":"4","num_nodes":"63","size_leaf_vector":"1"}},{"base_weights":[-5.169944E-3,-1.33972E0,7.9345E-1,2.9673994E-1,-2.7251916E0,5.3111973E0,2.0551479E-1,-2.6477547E0,5.682758E-1,-1.6647778E0,-3.8858223E0,5.1042686E0,1.2976569E1,-2.182182E0,1.2620944E0,-1.423649E0,-5.0886955E0,-5.534746E-1,1.1541677E0,-3.1219792E0,-1.2401392E0,-5.669629E0,-3.011141E0,5.994481E0,3.6151483E0,1.684785E1,1.1188455E1,-3.6085613E0,-1.4947348E0,-3.5177202E0,1.6325105E0,-1.3925043E-1,5.377503E-2,-2.9642037E-1,4.9022847E-1,-4.4673927E-2,8.6072855E-2,-1.494394E-2,8.118813E-2,-1.3897812E-1,-6.8668467E-1,-3.1507835E-2,-1.0920037E-1,-2.1788895E-1,-4.0718302E-1,-7.189782E-2,-1.9254743E-1,2.7282476E-1,5.993466E-1,-2.4649535E-1,2.621768E-1,7.420735E-1,1.2001632E0,3.900696E-2,7.1293724E-1,-1.2712209E-1,-2.8283373E-1,-3.0989517E-2,-1.1885279E-1,1.8470597E-1,-2.4422172E-1,1.5236725E-1,4.513598E-2],"categories":[],"categories_nodes":[],"categories_segments":[],"categories_sizes":[],"default_left":[0,0,0,0,0,0,0,0,0,0,0,0,0,0,0,0,0,0,0,0,0,0,0,0,0,0,0,0,0,0,0,0,0,0,0,0,0,0,0,0,0,0,0,0,0,0,0,0,0,0,0,0,0,0,0,0,0,0,0,0,0,0,0],"id":20,"left_children":[1,3,5,7,9,11,13,15,17,19,21,23,25,27,29,31,33,35,37,39,41,43,45,47,49,51,53,55,57,59,61,-1,-1,-1,-1,-1,-1,-1,-1,-1,-1,-1,-1,-1,-1,-1,-1,-1,-1,-1,-1,-1,-1,-1,-1,-1,-1,-1,-1,-1,-1,-1,-1],"loss_changes":[4.7511415E6,3.783909E6,7.4077055E6,6.117729E5,1.1123085E6,5.09338E5,6.225615E6,1.9302756E5,4.6042244E5,2.922335E5,6.732285E5,4.14516E5,5.8242625E4,7.4229475E5,3.0288922E6,1.4639462E5,2.6990112E5,1.8591734E5,3.1401138E5,3.871937E5,2.1055306E5,4.60727E5,3.82512E5,6.30874E5,1.6280554E6,3.790375E4,1.8460188E5,5.3755425E5,3.9434612E5,1.2127645E6,1.639343E6,0E0,0E0,0E0,0E0,0E0,0E0,0E0,0E0,0E0,0E0,0E0,0E0,0E0,0E0,0E0,0E0,0E0,0E0,0E0,0E0,0E0,0E0,0E0,0E0,0E0,0E0,0E0,0E0,0E0,0E0,0E0,0E0],"parents":[2147483647,0,0,1,1,2,2,3,3,4,4,5,5,6,6,7,7,8,8,9,9,10,10,11,11,12,12,13,13,14,14,15,15,16,16,17,17,18,18,19,19,20,20,21,21,22,22,23,23,24,24,25,25,26,26,27,27,28,28,29,29,30,30],"right_children":[2,4,6,8,10,12,14,16,18,20,22,24,26,28,30,32,34,36,38,40,42,44,46,48,50,52,54,56,58,60,62,-1,-1,-1,-1,-1,-1,-1,-1,-1,-1,-1,-1,-1,-1,-1,-1,-1,-1,-1,-1,-1,-1,-1,-1,-1,-1,-1,-1,-1,-1,-1,-1],"split_conditions":[5E0,3E0,6E0,1.8316742E2,4E0,8.718032E3,7E0,7.9381777E3,2E0,1.9777766E2,2.1164688E2,8.3586455E3,3.9994366E2,8.134037E3,1.6695103E2,7.843438E3,8.1885396E3,8.620172E3,8.1666113E3,8.221362E3,8.3586455E3,8.159376E3,8.29193E3,2.7279755E2,8.377515E3,8.727611E3,8.741045E3,8.068607E3,2.3502481E2,8E0,8E0,-1.3925043E-1,5.377503E-2,-2.9642037E-1,4.9022847E-1,-4.4673927E-2,8.6072855E-2,-1.494394E-2,8.118813E-2,-1.3897812E-1,-6.8668467E-1,-3.1507835E-2,-1.0920037E-1,-2.1788895E-1,-4.0718302E-1,-7.189782E-2,-1.9254743E-1,2.7282476E-1,5.993466E-1,-2.4649535E-1,2.621768E-1,7.420735E-1,1.2001632E0,3.900696E-2,7.1293724E-1,-1.2712209E-1,-2.8283373E-1,-3.0989517E-2,-1.1885279E-1,1.8470597E-1,-2.4422172E-1,1.5236725E-1,4.513598E-2],"split_indices":[3,3,3,1,3,2,3,2,3,1,1,2,1,2,1,2,2,2,2,2,2,2,2,1,2,2,2,2,1,3,3,0,0,0,0,0,0,0,0,0,0,0,0,0,0,0,0,0,0,0,0,0,0,0,0,0,0,0,0,0,0,0,0],"split_type":[0,0,0,0,0,0,0,0,0,0,0,0,0,0,0,0,0,0,0,0,0,0,0,0,0,0,0,0,0,0,0,0,0,0,0,0,0,0,0,0,0,0,0,0,0,0,0,0,0,0,0,0,0,0,0,0,0,0,0,0,0,0,0],"sum_hessian":[4.457822E6,1.668927E6,2.788895E6,7.65157E5,9.0377E5,3.21149E5,2.467746E6,6.4603E4,7.00554E5,4.72276E5,4.31494E5,3.12709E5,8.44E3,7.57015E5,1.710731E6,4.3027E4,2.1576E4,2.4036E5,4.60194E5,1.06568E5,3.65708E5,1.41966E5,2.89528E5,1.95709E5,1.17E5,2.664E3,5.776E3,2.46191E5,5.10824E5,1.23039E5,1.587692E6,2.7854E4,1.5173E4,2.0425E4,1.151E3,2.09108E5,3.1252E4,1.124E5,3.47794E5,1.03238E5,3.33E3,2.22146E5,1.43562E5,9.2775E4,4.9191E4,1.00767E5,1.88761E5,1.79588E5,1.6121E4,1.8727E4,9.8273E4,2.083E3,5.81E2,1.316E3,4.46E3,1.61912E5,8.4279E4,2.56485E5,2.54339E5,1.9602E4,1.03437E5,5.40272E5,1.04742E6],"tree_param":{"num_deleted":"0","num_feature":"4","num_nodes":"63","size_leaf_vector":"1"}},{"base_weights":[-6.4923945E-3,6.025733E-1,-1.6905605E0,-2.5886437E-1,6.3926187E0,-7.676464E0,3.5343966E-1,5.582024E-1,-7.619993E0,1.1550366E1,4.752747E0,-1.38931465E1,-1.7174521E-1,6.079714E0,-8.6234593E-1,-6.536852E-1,4.9077973E0,-1.7156538E1,1.823791E0,1.7120573E1,9.8782015E0,-2.3457334E0,8.80717E0,-1.0364991E1,-2.2564857E1,4.8805747E0,-1.8366459E1,1.508992E1,4.658233E0,-1.2807854E1,7.2968924E-1,5.1485915E-2,-3.8059017E-1,5.2850866E-1,1.567637E-1,-6.0716015E-1,-1.1443411E0,2.3941837E-1,-3.743771E-1,7.707551E-1,1.3540993E0,3.700877E-1,8.1222135E-1,-3.3831942E-1,5.7138026E-1,6.1843383E-1,3.137185E-1,-8.230301E-1,-1.3740595E-1,-1.0193024E0,-1.246518E0,3.957031E-1,3.184667E-2,-6.113636E-1,-1.2317438E0,6.4066774E-1,1.3301009E0,8.880166E-2,5.823368E-1,-3.5352212E-1,-1.0588076E0,3.3913478E-1,-6.4283065E-2],"categories":[],"categories_nodes":[],"categories_segments":[],"categories_sizes":[],"default_left":[0,0,0,0,0,0,0,0,0,0,0,0,0,0,0,0,0,0,0,0,0,0,0,0,0,0,0,0,0,0,0,0,0,0,0,0,0,0,0,0,0,0,0,0,0,0,0,0,0,0,0,0,0,0,0,0,0,0,0,0,0,0,0],"id":21,"left_children":[1,3,5,7,9,11,13,15,17,19,21,23,25,27,29,31,33,35,37,39,41,43,45,47,49,51,53,55,57,59,61,-1,-1,-1,-1,-1,-1,-1,-1,-1,-1,-1,-1,-1,-1,-1,-1,-1,-1,-1,-1,-1,-1,-1,-1,-1,-1,-1,-1,-1,-1,-1,-1],"loss_changes":[4.571521E6,1.6325749E7,1.4483798E7,1.7136928E7,3.585386E6,1.4058386E7,6.143574E6,1.3518521E7,2.5637084E7,9.52349E5,9.25707E6,5.04209E6,1.2550037E7,1.9793415E6,1.3843104E7,2.3493976E7,5.608903E6,4.068616E6,3.9482032E6,4.00691E5,1.2399245E6,7.119554E6,1.846599E6,5.439075E6,2.45134E5,1.375517E6,1.141528E6,5.515745E5,2.6887495E6,4.109853E6,7.8354415E6,0E0,0E0,0E0,0E0,0E0,0E0,0E0,0E0,0E0,0E0,0E0,0E0,0E0,0E0,0E0,0E0,0E0,0E0,0E0,0E0,0E0,0E0,0E0,0E0,0E0,0E0,0E0,0E0,0E0,0E0,0E0,0E0],"parents":[2147483647,0,0,1,1,2,2,3,3,4,4,5,5,6,6,7,7,8,8,9,9,10,10,11,11,12,12,13,13,14,14,15,15,16,16,17,17,18,18,19,19,20,20,21,21,22,22,23,23,24,24,25,25,26,26,27,27,28,28,29,29,30,30],"right_children":[2,4,6,8,10,12,14,16,18,20,22,24,26,28,30,32,34,36,38,40,42,44,46,48,50,52,54,56,58,60,62,-1,-1,-1,-1,-1,-1,-1,-1,-1,-1,-1,-1,-1,-1,-1,-1,-1,-1,-1,-1,-1,-1,-1,-1,-1,-1,-1,-1,-1,-1,-1,-1],"split_conditions":[1.1649058E3,2.5212088E2,2.830599E2,1.1373352E3,1.1465045E3,8.431803E3,1.192969E3,2.2115112E2,8.352309E3,1.1396465E3,2.6516983E2,1.1755575E3,1.1883517E3,1.1698142E3,8.515847E3,1.1039272E3,1.1141173E3,1.1439204E3,1.1568855E3,8.30875E3,2.6022632E2,8.3586455E3,1.1568855E3,2.7326694E2,1.1816923E3,1.1791508E3,1.1946174E3,2.8851044E2,2.9475085E2,1.2043809E3,1.222524E3,5.1485915E-2,-3.8059017E-1,5.2850866E-1,1.567637E-1,-6.0716015E-1,-1.1443411E0,2.3941837E-1,-3.743771E-1,7.707551E-1,1.3540993E0,3.700877E-1,8.1222135E-1,-3.3831942E-1,5.7138026E-1,6.1843383E-1,3.137185E-1,-8.230301E-1,-1.3740595E-1,-1.0193024E0,-1.246518E0,3.957031E-1,3.184667E-2,-6.113636E-1,-1.2317438E0,6.4066774E-1,1.3301009E0,8.880166E-2,5.823368E-1,-3.5352212E-1,-1.0588076E0,3.3913478E-1,-6.4283065E-2],"split_indices":[0,1,1,0,0,2,0,1,2,0,1,0,0,0,2,0,0,0,0,2,1,2,0,1,0,0,0,1,1,0,0,0,0,0,0,0,0,0,0,0,0,0,0,0,0,0,0,0,0,0,0,0,0,0,0,0,0,0,0,0,0,0,0],"split_type":[0,0,0,0,0,0,0,0,0,0,0,0,0,0,0,0,0,0,0,0,0,0,0,0,0,0,0,0,0,0,0,0,0,0,0,0,0,0,0,0,0,0,0,0,0,0,0,0,0,0,0,0,0,0,0,0,0,0,0,0,0,0,0],"sum_hessian":[4.45694E6,3.273159E6,1.183781E6,2.849251E6,4.23908E5,3.01329E5,8.82452E5,2.564589E6,2.84662E5,1.02263E5,3.21645E5,1.64807E5,1.36522E5,1.54546E5,7.27906E5,2.005747E6,5.58842E5,1.41635E5,1.43027E5,2.3609E4,7.8654E4,1.16928E5,2.04717E5,1.17147E5,4.766E4,1.06852E5,2.967E4,2.1058E4,1.33488E5,8.5602E4,6.42304E5,1.61502E6,3.90727E5,1.3323E5,4.25612E5,7.5545E4,6.609E4,1.08487E5,3.454E4,2.016E4,3.449E3,5.6628E4,2.2026E4,8.8518E4,2.841E4,8.5079E4,1.19638E5,6.5071E4,5.2076E4,2.4814E4,2.2846E4,6.231E4,4.4542E4,1.4991E4,1.4679E4,1.7583E4,3.475E3,9.4511E4,3.8977E4,5.0785E4,3.4817E4,1.60437E5,4.81867E5],"tree_param":{"num_deleted":"0","num_feature":"4","num_nodes":"63","size_leaf_vector":"1"}},{"base_weights":[-9.708957E-4,1.0780817E-1,-9.173268E0,-1.8446178E0,6.504107E-1,-2.0659658E1,-1.1497867E0,-5.698031E-1,-1.6218775E1,4.8587456E0,-2.5292665E-1,-2.4100346E1,-1.3065089E1,5.4694614E0,-8.450476E0,1.9759041E0,-4.2305083E0,-2.1395424E1,-1.1117173E1,3.3621073E0,8.064395E0,-7.744383E0,6.274962E-1,-2.1294752E1,-2.730859E1,-3.0789862E0,-2.1456848E1,1.9537569E0,1.2008163E1,-2.2557518E1,-4.829981E0,-6.969801E-2,3.0604067E-1,-8.3514386E-1,-1.4867263E-1,-1.3034966E0,-9.5217323E-1,-9.7748935E-2,-9.0247166E-1,3.98259E-1,-1.5965192E-2,6.584076E-1,3.55446E-1,-3.2626194E-1,-1.0691177E0,2.3373175E-1,-1.6604336E-2,-1.3588886E0,-8.7233686E-1,-1.4768356E0,-1.2895612E0,-7.154221E-1,-1.23347856E-1,-9.023186E-1,-1.3893374E0,4.04905E-1,-2.5834012E-1,2.3485903E-1,6.5088564E-1,-1.0681223E0,-1.3034216E0,-2.9331213E-1,1.3016115E-1],"categories":[],"categories_nodes":[],"categories_segments":[],"categories_sizes":[],"default_left":[0,0,0,0,0,0,0,0,0,0,0,0,0,0,0,0,0,0,0,0,0,0,0,0,0,0,0,0,0,0,0,0,0,0,0,0,0,0,0,0,0,0,0,0,0,0,0,0,0,0,0,0,0,0,0,0,0,0,0,0,0,0,0],"id":22,"left_children":[1,3,5,7,9,11,13,15,17,19,21,23,25,27,29,31,33,35,37,39,41,43,45,47,49,51,53,55,57,59,61,-1,-1,-1,-1,-1,-1,-1,-1,-1,-1,-1,-1,-1,-1,-1,-1,-1,-1,-1,-1,-1,-1,-1,-1,-1,-1,-1,-1,-1,-1,-1,-1],"loss_changes":[4.447384E6,4.6667805E6,4.8147355E6,1.7554828E7,1.3104497E7,5.611E5,1.486477E6,8.2004575E6,2.06079E6,2.922643E6,1.8718244E7,1.325E5,5.6148425E5,3.7084425E5,7.469575E5,7.2496515E6,5.6589035E6,4.25364E5,2.496601E6,7.037492E6,9.45408E5,4.962136E6,9.862377E6,1.781845E5,2.2546E4,2.1002201E4,7.8100375E4,4.5912275E5,4.1573875E4,1.1975875E4,8.968294E4,0E0,0E0,0E0,0E0,0E0,0E0,0E0,0E0,0E0,0E0,0E0,0E0,0E0,0E0,0E0,0E0,0E0,0E0,0E0,0E0,0E0,0E0,0E0,0E0,0E0,0E0,0E0,0E0,0E0,0E0,0E0,0E0],"parents":[2147483647,0,0,1,1,2,2,3,3,4,4,5,5,6,6,7,7,8,8,9,9,10,10,11,11,12,12,13,13,14,14,15,15,16,16,17,17,18,18,19,19,20,20,21,21,22,22,23,23,24,24,25,25,26,26,27,27,28,28,29,29,30,30],"right_children":[2,4,6,8,10,12,14,16,18,20,22,24,26,28,30,32,34,36,38,40,42,44,46,48,50,52,54,56,58,60,62,-1,-1,-1,-1,-1,-1,-1,-1,-1,-1,-1,-1,-1,-1,-1,-1,-1,-1,-1,-1,-1,-1,-1,-1,-1,-1,-1,-1,-1,-1,-1,-1],"split_conditions":[1.2857855E3,1.9100061E2,4.0578314E2,1.0938842E3,1.1009691E3,3.9994366E2,1.3017128E3,1.0659872E3,1.8514748E2,2.059166E2,2.1433978E2,1.2921661E3,1.2921661E3,4.1228372E2,4.1228372E2,1.7031667E2,1.6695103E2,1.7880797E2,1.1000215E3,1.0831958E3,1.0886277E3,1.1259811E3,1.1279203E3,3.8830533E2,3.92027E2,2E0,1.3017128E3,1.2921661E3,2E0,8E0,9E0,-6.969801E-2,3.0604067E-1,-8.3514386E-1,-1.4867263E-1,-1.3034966E0,-9.5217323E-1,-9.7748935E-2,-9.0247166E-1,3.98259E-1,-1.5965192E-2,6.584076E-1,3.55446E-1,-3.2626194E-1,-1.0691177E0,2.3373175E-1,-1.6604336E-2,-1.3588886E0,-8.7233686E-1,-1.4768356E0,-1.2895612E0,-7.154221E-1,-1.23347856E-1,-9.023186E-1,-1.3893374E0,4.04905E-1,-2.5834012E-1,2.3485903E-1,6.5088564E-1,-1.0681223E0,-1.3034216E0,-2.9331213E-1,1.3016115E-1],"split_indices":[0,1,1,0,0,1,0,0,1,1,1,0,0,1,1,1,1,1,0,0,0,0,0,1,1,3,0,0,3,3,3,0,0,0,0,0,0,0,0,0,0,0,0,0,0,0,0,0,0,0,0,0,0,0,0,0,0,0,0,0,0,0,0],"split_type":[0,0,0,0,0,0,0,0,0,0,0,0,0,0,0,0,0,0,0,0,0,0,0,0,0,0,0,0,0,0,0,0,0,0,0,0,0,0,0,0,0,0,0,0,0,0,0,0,0,0,0,0,0,0,0,0,0,0,0,0,0,0,0],"sum_hessian":[4.457393E6,4.405151E6,5.2242E4,9.58003E5,3.447148E6,2.1484E4,3.0758E4,8.79962E5,7.8041E4,6.09181E5,2.837967E6,1.4784E4,6.7E3,1.6132E4,1.4626E4,5.19025E5,3.60937E5,3.8734E4,3.9307E4,4.15293E5,1.93888E5,2.98452E5,2.539515E6,7.891E3,6.893E3,3.06E3,3.64E3,1.0492E4,5.64E3,2.986E3,1.164E4,2.86278E5,2.32747E5,3.3046E4,3.27891E5,1.2962E4,2.5772E4,1.6931E4,2.2376E4,1.84545E5,2.30748E5,3.0572E4,1.63316E5,2.73963E5,2.4489E4,4.8672E5,2.052795E6,3.118E3,4.773E3,2.785E3,4.108E3,1.57E2,2.903E3,2.368E3,1.272E3,5.632E3,4.86E3,6.85E2,4.955E3,2.233E3,7.53E2,1.0216E4,1.424E3],"tree_param":{"num_deleted":"0","num_feature":"4","num_nodes":"63","size_leaf_vector":"1"}},{"base_weights":[-9.7626245E-5,-1.334582E0,7.978034E-1,2.128344E-1,-2.6424692E0,4.9484E0,2.5687453E-1,1.2564301E0,-9.5125556E-1,-1.6460166E0,-3.733454E0,6.8019505E0,2.3762865E0,-1.9757954E0,1.2445164E0,9.103729E-2,1.1077486E1,-6.1904335E0,8.532375E-2,-9.4699305E-1,-3.754369E0,-4.630782E0,-2.9252036E0,5.941976E0,2.0234388E1,-5.519953E0,5.519876E0,-3.4818635E0,-1.2489768E0,3.5744865E0,5.257177E-1,6.720104E-2,-2.4779764E-1,4.6322933E-1,7.868978E-1,-2.8206787E-1,-1.0223614E0,4.4549868E-1,-1.6605655E-2,-1.3689773E-1,3.0021338E-2,-5.433652E-1,-9.832055E-2,-1.454817E-1,-4.090115E-1,1.0335739E-1,-1.8882672E-1,7.415576E-1,2.5837317E-1,8.795587E-1,1.7251278E0,-1.1330082E-1,-5.0977284E-1,3.8178334E-1,8.4013425E-2,1.6680205E-2,-3.40777E-1,1.9921926E-1,-1.06718384E-1,7.3582865E-2,4.9472627E-1,-1.55101E-1,9.899807E-2],"categories":[],"categories_nodes":[],"categories_segments":[],"categories_sizes":[],"default_left":[0,0,0,0,0,0,0,0,0,0,0,0,0,0,0,0,0,0,0,0,0,0,0,0,0,0,0,0,0,0,0,0,0,0,0,0,0,0,0,0,0,0,0,0,0,0,0,0,0,0,0,0,0,0,0,0,0,0,0,0,0,0,0],"id":23,"left_children":[1,3,5,7,9,11,13,15,17,19,21,23,25,27,29,31,33,35,37,39,41,43,45,47,49,51,53,55,57,59,61,-1,-1,-1,-1,-1,-1,-1,-1,-1,-1,-1,-1,-1,-1,-1,-1,-1,-1,-1,-1,-1,-1,-1,-1,-1,-1,-1,-1,-1,-1,-1,-1],"loss_changes":[4.7466785E6,3.3758892E6,6.263623E6,9.28215E5,9.82739E5,1.5335255E6,5.442469E6,4.611151E6,1.9615108E6,6.9631425E5,3.129585E5,2.159373E6,3.3441222E6,8.285945E5,2.865866E6,2.2775088E6,3.609295E5,4.6688325E5,1.1107409E6,9.833584E5,1.496106E6,1.2492495E6,9.649385E5,1.2095585E6,4.23598E5,5.8360825E5,7.8278875E5,3.134032E6,2.3657565E6,5.3617155E6,6.8991915E6,0E0,0E0,0E0,0E0,0E0,0E0,0E0,0E0,0E0,0E0,0E0,0E0,0E0,0E0,0E0,0E0,0E0,0E0,0E0,0E0,0E0,0E0,0E0,0E0,0E0,0E0,0E0,0E0,0E0,0E0,0E0,0E0],"parents":[2147483647,0,0,1,1,2,2,3,3,4,4,5,5,6,6,7,7,8,8,9,9,10,10,11,11,12,12,13,13,14,14,15,15,16,16,17,17,18,18,19,19,20,20,21,21,22,22,23,23,24,24,25,25,26,26,27,27,28,28,29,29,30,30],"right_children":[2,4,6,8,10,12,14,16,18,20,22,24,26,28,30,32,34,36,38,40,42,44,46,48,50,52,54,56,58,60,62,-1,-1,-1,-1,-1,-1,-1,-1,-1,-1,-1,-1,-1,-1,-1,-1,-1,-1,-1,-1,-1,-1,-1,-1,-1,-1,-1,-1,-1,-1,-1,-1],"split_conditions":[5E0,3E0,6E0,1.1396465E3,4E0,1.1608325E3,7E0,8.273064E3,8.310881E3,1.1707063E3,8.24334E3,8.3541455E3,8.384062E3,8.134037E3,1.083777E3,1.1165138E3,8.315383E3,1.1816923E3,1.1452167E3,8.169017E3,8.455346E3,1.1044177E3,1.1334248E3,1.0668159E3,8.379584E3,1.1735071E3,1.2492672E3,1.0650938E3,1.0875327E3,8.1105337E3,8.205695E3,6.720104E-2,-2.4779764E-1,4.6322933E-1,7.868978E-1,-2.8206787E-1,-1.0223614E0,4.4549868E-1,-1.6605655E-2,-1.3689773E-1,3.0021338E-2,-5.433652E-1,-9.832055E-2,-1.454817E-1,-4.090115E-1,1.0335739E-1,-1.8882672E-1,7.415576E-1,2.5837317E-1,8.795587E-1,1.7251278E0,-1.1330082E-1,-5.0977284E-1,3.8178334E-1,8.4013425E-2,1.6680205E-2,-3.40777E-1,1.9921926E-1,-1.06718384E-1,7.3582865E-2,4.9472627E-1,-1.55101E-1,9.899807E-2],"split_indices":[3,3,3,0,3,0,3,2,2,0,2,2,2,2,0,0,2,0,0,2,2,0,0,0,2,0,0,0,0,2,2,0,0,0,0,0,0,0,0,0,0,0,0,0,0,0,0,0,0,0,0,0,0,0,0,0,0,0,0,0,0,0,0],"split_type":[0,0,0,0,0,0,0,0,0,0,0,0,0,0,0,0,0,0,0,0,0,0,0,0,0,0,0,0,0,0,0,0,0,0,0,0,0,0,0,0,0,0,0,0,0,0,0,0,0,0,0,0,0,0,0,0,0,0,0,0,0,0,0],"sum_hessian":[4.457867E6,1.668055E6,2.789812E6,7.64062E5,9.03993E5,3.21662E5,2.46815E6,4.02882E5,3.6118E5,4.72467E5,4.31526E5,1.86943E5,1.34719E5,7.5696E5,1.71119E6,3.60147E5,4.2735E4,5.9656E4,3.01524E5,3.54826E5,1.17641E5,2.04492E5,2.27034E5,1.75696E5,1.1247E4,3.8361E4,9.6358E4,2.46394E5,5.10566E5,4.03441E5,1.307749E6,2.88519E5,7.1628E4,3.0769E4,1.1966E4,5.7445E4,2.211E3,1.3618E4,2.87906E5,1.6447E5,1.90356E5,2.363E4,9.4011E4,1.37715E5,6.6777E4,3.3075E4,1.93959E5,1.408E4,1.61616E5,9.491E3,1.756E3,2.262E4,1.5741E4,6.2124E4,3.4234E4,1.14895E5,1.31499E5,7.3879E4,4.36687E5,3.0272E5,1.00721E5,3.74221E5,9.33528E5],"tree_param":{"num_deleted":"0","num_feature":"4","num_nodes":"63","size_leaf_vector":"1"}},{"base_weights":[-9.24248E-3,9.5297344E-2,-8.801809E0,-1.663057E-2,1.0975872E1,-2.0831614E1,4.3369475E-1,1.0583953E-1,-1.8216715E1,1.863585E1,8.313444E0,-2.516536E1,-1.4498923E1,6.517261E0,-6.599935E0,-1.139909E-1,7.8205323E0,-2.5717495E1,-8.235609E0,1.6817577E1,2.1676989E1,1.8720769E0,1.4839626E1,-2.8710176E1,-2.3936968E1,-5.874236E0,-2.290858E1,3.0424325E0,1.2447039E1,-2.2773834E1,-3.4060116E0,6.211663E-3,-1.1837367E0,7.078103E-1,2.3617518E-1,-1.4983588E0,-1.0977448E0,-1.7217767E-1,-8.0165255E-1,1.0338138E0,6.346544E-1,9.037468E-1,1.1745579E0,4.2937207E-1,-1.6516973E-1,8.977887E-1,5.981007E-1,-1.4628689E0,-1.3753103E0,-1.0422666E0,-1.3090075E0,-4.689207E-1,-1.9864121E-1,-1.0037535E0,-1.3404969E0,4.2019865E-1,-2.2600864E-1,4.6356425E-1,6.66399E-1,-1.0634226E0,-1.2829777E0,-5.2283895E-1,-1.5301573E-1],"categories":[],"categories_nodes":[],"categories_segments":[],"categories_sizes":[],"default_left":[0,0,0,0,0,0,0,0,0,0,0,0,0,0,0,0,0,0,0,0,0,0,0,0,0,0,0,0,0,0,0,0,0,0,0,0,0,0,0,0,0,0,0,0,0,0,0,0,0,0,0,0,0,0,0,0,0,0,0,0,0,0,0],"id":24,"left_children":[1,3,5,7,9,11,13,15,17,19,21,23,25,27,29,31,33,35,37,39,41,43,45,47,49,51,53,55,57,59,61,-1,-1,-1,-1,-1,-1,-1,-1,-1,-1,-1,-1,-1,-1,-1,-1,-1,-1,-1,-1,-1,-1,-1,-1,-1,-1,-1,-1,-1,-1,-1,-1],"loss_changes":[4.0971342E6,5.364632E6,5.8188285E6,9.718708E6,9.145835E5,6.23882E5,1.2678546E6,7.3451215E6,2.181686E6,6.360225E4,1.3992338E6,5.811E4,6.703389E5,3.273337E5,7.0980944E5,2.3635524E7,2.354426E6,2.65397E5,4.6724125E5,1.15027E5,2.7838125E4,5.822819E5,1.480465E5,1.48125E3,6.90415E4,3.0378812E4,5.1197E4,4.062805E5,1.62986875E4,9.298E3,2.7942375E4,0E0,0E0,0E0,0E0,0E0,0E0,0E0,0E0,0E0,0E0,0E0,0E0,0E0,0E0,0E0,0E0,0E0,0E0,0E0,0E0,0E0,0E0,0E0,0E0,0E0,0E0,0E0,0E0,0E0,0E0,0E0,0E0],"parents":[2147483647,0,0,1,1,2,2,3,3,4,4,5,5,6,6,7,7,8,8,9,9,10,10,11,11,12,12,13,13,14,14,15,15,16,16,17,17,18,18,19,19,20,20,21,21,22,22,23,23,24,24,25,25,26,26,27,27,28,28,29,29,30,30],"right_children":[2,4,6,8,10,12,14,16,18,20,22,24,26,28,30,32,34,36,38,40,42,44,46,48,50,52,54,56,58,60,62,-1,-1,-1,-1,-1,-1,-1,-1,-1,-1,-1,-1,-1,-1,-1,-1,-1,-1,-1,-1,-1,-1,-1,-1,-1,-1,-1,-1,-1,-1,-1,-1],"split_conditions":[1.2857855E3,8.7091E3,8.741045E3,1.2717058E3,1.2748038E3,8.718032E3,1.3017128E3,8.636713E3,8.691475E3,8.718032E3,8.727611E3,8.683767E3,1.2921661E3,8.761846E3,8.761846E3,1.2468994E3,1.254367E3,8.666656E3,1.2780226E3,1.2717058E3,3.92027E2,1.2780226E3,1.2815818E3,8.674986E3,1.2921661E3,8.727611E3,1.3017128E3,1.2921661E3,4.1228372E2,4.1228372E2,4.1228372E2,6.211663E-3,-1.1837367E0,7.078103E-1,2.3617518E-1,-1.4983588E0,-1.0977448E0,-1.7217767E-1,-8.0165255E-1,1.0338138E0,6.346544E-1,9.037468E-1,1.1745579E0,4.2937207E-1,