{"learner":{"attributes":{"best_iteration":"40","best_score":"11.903112230445746"},"feature_names":["cycle","fc"],"feature_types":[],"gradient_booster":{"model":{"gbtree_model_param":{"num_parallel_tree":"1","num_trees":"61"},"iteration_indptr":[0,1,2,3,4,5,6,7,8,9,10,11,12,13,14,15,16,17,18,19,20,21,22,23,24,25,26,27,28,29,30,31,32,33,34,35,36,37,38,39,40,41,42,43,44,45,46,47,48,49,50,51,52,53,54,55,56,57,58,59,60,61],"tree_info":[0,0,0,0,0,0,0,0,0,0,0,0,0,0,0,0,0,0,0,0,0,0,0,0,0,0,0,0,0,0,0,0,0,0,0,0,0,0,0,0,0,0,0,0,0,0,0,0,0,0,0,0,0,0,0,0,0,0,0,0,0],"trees":[{"base_weights":[1.2383767E-3,1.801835E1,-1.670035E1,2.645692E1,9.5169115E0,-8.129408E0,-2.4843819E1,3.0962557E1,2.235474E1,1.3118805E1,4.031662E0,-3.023026E0,-1.2338148E1,-2.1407892E1,-2.7647038E1,3.306481E1,2.878256E1,2.3799934E1,1.9374207E1,1.5964495E1,1.1132778E1,6.169867E0,2.4420538E0,-1.8660374E0,-6.1393895E0,-9.819833E0,-1.4719232E1,-1.9729292E1,-2.3585024E1,-2.6265047E1,-2.9097643E1,1.693339E0,1.6116107E0,1.4822234E0,1.3934492E0,1.2897173E0,1.1344523E0,1.0088395E0,9.467252E-1,8.641391E-1,7.7517635E-1,6.2470365E-1,4.7561637E-1,3.6453834E-1,2.7865645E-1,1.9645642E-1,9.585206E-2,-2.927551E-2,-1.5937358E-1,-2.9097655E-1,-3.219522E-1,-4.3016225E-1,-5.8069164E-1,-6.7124194E-1,-7.801101E-1,-9.4677967E-1,-1.0521101E0,-1.1582017E0,-1.2031527E0,-1.2869613E0,-1.3580111E0,-1.4409505E0,-1.6768407E0],"categories":[],"categories_nodes":[],"categories_segments":[],"categories_sizes":[],"default_left":[0,0,0,0,0,0,0,0,0,0,0,0,0,0,0,0,0,0,0,0,0,0,0,0,0,0,0,0,0,0,0,0,0,0,0,0,0,0,0,0,0,0,0,0,0,0,0,0,0,0,0,0,0,0,0,0,0,0,0,0,0,0,0],"id":0,"left_children":[1,3,5,7,9,11,13,15,17,19,21,23,25,27,29,31,33,35,37,39,41,43,45,47,49,51,53,55,57,59,61,-1,-1,-1,-1,-1,-1,-1,-1,-1,-1,-1,-1,-1,-1,-1,-1,-1,-1,-1,-1,-1,-1,-1,-1,-1,-1,-1,-1,-1,-1,-1,-1],"loss_changes":[1.3411841E9,1.5381555E8,1.614375E8,1.9887232E7,2.1101904E7,2.4218704E7,1.142304E7,2.349088E6,2.425632E6,3.64348E6,1.438916E6,1.8358005E6,3.704064E6,1.947008E6,1.30864E6,1.73216E5,1.97424E5,8.39792E5,6.452E4,1.60768E5,8.37488E5,1.20709E5,1.8957625E5,6.282971E5,1.3175E4,6.55156E5,3.62696E5,3.13168E5,4.6128E4,1.56768E5,3.93184E5,0E0,0E0,0E0,0E0,0E0,0E0,0E0,0E0,0E0,0E0,0E0,0E0,0E0,0E0,0E0,0E0,0E0,0E0,0E0,0E0,0E0,0E0,0E0,0E0,0E0,0E0,0E0,0E0,0E0,0E0,0E0,0E0],"parents":[2147483647,0,0,1,1,2,2,3,3,4,4,5,5,6,6,7,7,8,8,9,9,10,10,11,11,12,12,13,13,14,14,15,15,16,16,17,17,18,18,19,19,20,20,21,21,22,22,23,23,24,24,25,25,26,26,27,27,28,28,29,29,30,30],"right_children":[2,4,6,8,10,12,14,16,18,20,22,24,26,28,30,32,34,36,38,40,42,44,46,48,50,52,54,56,58,60,62,-1,-1,-1,-1,-1,-1,-1,-1,-1,-1,-1,-1,-1,-1,-1,-1,-1,-1,-1,-1,-1,-1,-1,-1,-1,-1,-1,-1,-1,-1,-1,-1],"split_conditions":[3.5E1,1.8E1,5.3E1,9E0,2.8E1,4.3E1,6.2E1,5E0,1.5E1,2.2E1,3.1E1,4.1E1,4.8E1,5.8E1,6.9E1,3E0,7E0,1.1E1,1.6E1,1.9E1,2.5E1,2.9E1,3.2E1,3.8E1,4.2E1,4.6E1,5E1,5.6E1,6E1,6.6E1,8.9E1,1.693339E0,1.6116107E0,1.4822234E0,1.3934492E0,1.2897173E0,1.1344523E0,1.0088395E0,9.467252E-1,8.641391E-1,7.7517635E-1,6.2470365E-1,4.7561637E-1,3.6453834E-1,2.7865645E-1,1.9645642E-1,9.585206E-2,-2.927551E-2,-1.5937358E-1,-2.9097655E-1,-3.219522E-1,-4.3016225E-1,-5.8069164E-1,-6.7124194E-1,-7.801101E-1,-9.4677967E-1,-1.0521101E0,-1.1582017E0,-1.2031527E0,-1.2869613E0,-1.3580111E0,-1.4409505E0,-1.6768407E0],"split_indices":[0,0,0,0,0,0,0,0,0,0,0,0,0,0,0,0,0,0,0,0,0,0,0,0,0,0,0,0,0,0,0,0,0,0,0,0,0,0,0,0,0,0,0,0,0,0,0,0,0,0,0,0,0,0,0,0,0,0,0,0,0,0,0],"split_type":[0,0,0,0,0,0,0,0,0,0,0,0,0,0,0,0,0,0,0,0,0,0,0,0,0,0,0,0,0,0,0,0,0,0,0,0,0,0,0,0,0,0,0,0,0,0,0,0,0,0,0,0,0,0,0,0,0,0,0,0,0,0,0],"sum_hessian":[4.457027E6,2.144073E6,2.312954E6,1.076014E6,1.068059E6,1.126901E6,1.186053E6,5.12787E5,5.63227E5,6.44709E5,4.2335E5,5.09155E5,6.17746E5,5.32892E5,6.53161E5,2.61041E5,2.51746E5,3.79304E5,1.83923E5,2.64998E5,3.79711E5,1.80523E5,2.42827E5,3.71305E5,1.3785E5,3.00224E5,3.17522E5,3.00902E5,2.3199E5,3.34501E5,3.1866E5,1.32946E5,1.28095E5,1.2952E5,1.22226E5,1.35684E5,2.4362E5,6.5083E4,1.1884E5,6.8646E4,1.96352E5,2.06353E5,1.73358E5,6.2713E4,1.1781E5,6.3359E4,1.79468E5,1.88572E5,1.82733E5,6.6687E4,7.1163E4,1.78906E5,1.21318E5,1.28769E5,1.88753E5,1.87542E5,1.1336E5,1.23381E5,1.08609E5,2.10742E5,1.23759E5,2.99847E5,1.8813E4],"tree_param":{"num_deleted":"0","num_feature":"2","num_nodes":"63","size_leaf_vector":"1"}},{"base_weights":[8.597501E-4,-4.6985778E-1,3.364108E-1,-2.1801343E0,6.717368E-1,-6.2497085E-1,-3.3185384E-1,4.8145542E-1,-6.488029E-1,6.6050106E-1,-1.354578E-1,-2.1009584E-1,1.2459747E0,5.982848E-3,4.5901667E-2,2.2990589E-1,-4.683671E-2],"categories":[],"categories_nodes":[],"categories_segments":[],"categories_sizes":[],"default_left":[0,0,0,0,0,0,0,0,0,0,0,0,0,0,0,0,0],"id":1,"left_children":[1,3,-1,5,7,9,-1,-1,11,13,-1,-1,15,-1,-1,-1,-1],"loss_changes":[1.4111965E7,8.131844E6,0E0,1.1555954E7,2.9544696E7,3.311333E6,0E0,0E0,1.4655169E7,1.064775E5,0E0,0E0,1.0387781E7,0E0,0E0,0E0,0E0],"parents":[2147483647,0,0,1,1,3,3,4,4,5,5,8,8,9,9,12,12],"right_children":[2,4,-1,6,8,10,-1,-1,12,14,-1,-1,16,-1,-1,-1,-1],"split_conditions":[9E0,5E0,3.364108E-1,4E0,6E0,3E0,-3.3185384E-1,4.8145542E-1,7E0,2E0,-1.354578E-1,-2.1009584E-1,8E0,5.982848E-3,4.5901667E-2,2.2990589E-1,-4.683671E-2],"split_indices":[1,1,0,1,1,1,0,0,1,1,0,0,1,0,0,0,0],"split_type":[0,0,0,0,0,0,0,0,0,0,0,0,0,0,0,0,0],"sum_hessian":[4.456383E6,4.164959E6,2.91424E5,1.667219E6,2.49774E6,1.235957E6,4.31262E5,3.20917E5,2.176823E6,7.64459E5,4.71498E5,7.57099E5,1.419724E6,2.46592E5,5.17867E5,5.59878E5,8.59846E5],"tree_param":{"num_deleted":"0","num_feature":"2","num_nodes":"17","size_leaf_vector":"1"}},{"base_weights":[1.9091659E-3,-4.4284526E-1,3.177869E-1,-2.07367E0,6.4483446E-1,-5.941267E-1,-3.1593245E-1,4.5789477E-1,-6.0984504E-1,6.1309516E-1,-1.2756297E-1,-1.9913654E-1,1.1882236E0,6.352117E-3,4.2223662E-2,2.1831825E-1,-4.4037934E-2],"categories":[],"categories_nodes":[],"categories_segments":[],"categories_sizes":[],"default_left":[0,0,0,0,0,0,0,0,0,0,0,0,0,0,0,0,0],"id":2,"left_children":[1,3,-1,5,7,9,-1,-1,11,13,-1,-1,15,-1,-1,-1,-1],"loss_changes":[1.2595304E7,7.3888745E6,0E0,1.0467525E7,2.6691068E7,2.9200165E6,0E0,0E0,1.3208308E7,8.596434E4,0E0,0E0,9.341152E6,0E0,0E0,0E0,0E0],"parents":[2147483647,0,0,1,1,3,3,4,4,5,5,8,8,9,9,12,12],"right_children":[2,4,-1,6,8,10,-1,-1,12,14,-1,-1,16,-1,-1,-1,-1],"split_conditions":[9E0,5E0,3.177869E-1,4E0,6E0,3E0,-3.1593245E-1,4.5789477E-1,7E0,2E0,-1.2756297E-1,-1.9913654E-1,8E0,6.352117E-3,4.2223662E-2,2.1831825E-1,-4.4037934E-2],"split_indices":[1,1,0,1,1,1,0,0,1,1,0,0,1,0,0,0,0],"split_type":[0,0,0,0,0,0,0,0,0,0,0,0,0,0,0,0,0],"sum_hessian":[4.457103E6,4.165526E6,2.91577E5,1.666636E6,2.49889E6,1.235883E6,4.30753E5,3.20985E5,2.177905E6,7.64386E5,4.71497E5,7.57311E5,1.420594E6,2.46522E5,5.17864E5,5.60151E5,8.60443E5],"tree_param":{"num_deleted":"0","num_feature":"2","num_nodes":"17","size_leaf_vector":"1"}},{"base_weights":[-5.725238E-3,1.7170002E1,-1.5913224E1,2.5181921E1,9.101732E0,-7.675273E0,-2.3744665E1,2.9451454E1,2.1296362E1,1.2525505E1,3.8839664E0,-2.8383896E0,-1.1663496E1,-2.0595554E1,-2.6841173E1,3.143683E1,2.73957E1,2.2666954E1,1.8461882E1,1.5223527E1,1.0640191E1,5.91356E0,2.3786106E0,-1.7464331E0,-5.78306E0,-9.276961E0,-1.3923823E1,-1.867215E1,-2.2604897E1,-2.5352865E1,-2.8142473E1,1.6106474E0,1.5317045E0,1.4109915E0,1.3263029E0,1.2277482E0,1.0808343E0,9.611086E-1,9.021823E-1,8.24234E-1,7.390784E-1,5.971679E-1,4.5447704E-1,3.4961265E-1,2.670724E-1,1.8902437E-1,9.4130225E-2,-2.6330927E-2,-1.501473E-1,-2.7240142E-1,-3.0480716E-1,-4.0685678E-1,-5.4764533E-1,-6.3324785E-1,-7.390391E-1,-8.9563125E-1,-9.96293E-1,-1.09661E0,-1.1555196E0,-1.2497011E0,-1.3128082E0,-1.3722838E0,-1.5145727E0],"categories":[],"categories_nodes":[],"categories_segments":[],"categories_sizes":[],"default_left":[0,0,0,0,0,0,0,0,0,0,0,0,0,0,0,0,0,0,0,0,0,0,0,0,0,0,0,0,0,0,0,0,0,0,0,0,0,0,0,0,0,0,0,0,0,0,0,0,0,0,0,0,0,0,0,0,0,0,0,0,0,0,0],"id":3,"left_children":[1,3,5,7,9,11,13,15,17,19,21,23,25,27,29,31,33,35,37,39,41,43,45,47,49,51,53,55,57,59,61,-1,-1,-1,-1,-1,-1,-1,-1,-1,-1,-1,-1,-1,-1,-1,-1,-1,-1,-1,-1,-1,-1,-1,-1,-1,-1,-1,-1,-1,-1,-1,-1],"loss_changes":[1.2177709E9,1.3853478E8,1.4928493E8,1.7838144E7,1.907556E7,2.1754192E7,1.1566848E7,2.090208E6,2.186688E6,3.279368E6,1.29255E6,1.638697E6,3.334008E6,2.27256E6,1.157664E6,1.61424E5,1.79664E5,7.5192E5,5.8004E4,1.47572E5,7.66836E5,1.111455E5,1.68893E5,5.698214E5,1.44275E4,5.74238E5,3.4226E5,2.85784E5,9.7296E4,8.9792E4,4.76992E5,0E0,0E0,0E0,0E0,0E0,0E0,0E0,0E0,0E0,0E0,0E0,0E0,0E0,0E0,0E0,0E0,0E0,0E0,0E0,0E0,0E0,0E0,0E0,0E0,0E0,0E0,0E0,0E0,0E0,0E0,0E0,0E0],"parents":[2147483647,0,0,1,1,2,2,3,3,4,4,5,5,6,6,7,7,8,8,9,9,10,10,11,11,12,12,13,13,14,14,15,15,16,16,17,17,18,18,19,19,20,20,21,21,22,22,23,23,24,24,25,25,26,26,27,27,28,28,29,29,30,30],"right_children":[2,4,6,8,10,12,14,16,18,20,22,24,26,28,30,32,34,36,38,40,42,44,46,48,50,52,54,56,58,60,62,-1,-1,-1,-1,-1,-1,-1,-1,-1,-1,-1,-1,-1,-1,-1,-1,-1,-1,-1,-1,-1,-1,-1,-1,-1,-1,-1,-1,-1,-1,-1,-1],"split_conditions":[3.5E1,1.8E1,5.3E1,9E0,2.8E1,4.3E1,6.3E1,5E0,1.5E1,2.2E1,3.1E1,4.1E1,4.8E1,5.8E1,6.9E1,3E0,7E0,1.1E1,1.6E1,1.9E1,2.5E1,2.9E1,3.2E1,3.8E1,4.2E1,4.6E1,5E1,5.6E1,6E1,6.7E1,8E1,1.6106474E0,1.5317045E0,1.4109915E0,1.3263029E0,1.2277482E0,1.0808343E0,9.611086E-1,9.021823E-1,8.24234E-1,7.390784E-1,5.971679E-1,4.5447704E-1,3.4961265E-1,2.670724E-1,1.8902437E-1,9.4130225E-2,-2.6330927E-2,-1.501473E-1,-2.7240142E-1,-3.0480716E-1,-4.0685678E-1,-5.4764533E-1,-6.3324785E-1,-7.390391E-1,-8.9563125E-1,-9.96293E-1,-1.09661E0,-1.1555196E0,-1.2497011E0,-1.3128082E0,-1.3722838E0,-1.5145727E0],"split_indices":[0,0,0,0,0,0,0,0,0,0,0,0,0,0,0,0,0,0,0,0,0,0,0,0,0,0,0,0,0,0,0,0,0,0,0,0,0,0,0,0,0,0,0,0,0,0,0,0,0,0,0,0,0,0,0,0,0,0,0,0,0,0,0],"split_type":[0,0,0,0,0,0,0,0,0,0,0,0,0,0,0,0,0,0,0,0,0,0,0,0,0,0,0,0,0,0,0,0,0,0,0,0,0,0,0,0,0,0,0,0,0,0,0,0,0,0,0,0,0,0,0,0,0,0,0,0,0,0,0],"sum_hessian":[4.457059E6,2.1431E6,2.313959E6,1.075304E6,1.067796E6,1.127712E6,1.186247E6,5.12334E5,5.6297E5,6.44735E5,4.23061E5,5.09634E5,6.18078E5,5.88132E5,5.98115E5,2.60621E5,2.51713E5,3.79472E5,1.83498E5,2.65203E5,3.79532E5,1.80159E5,2.42902E5,3.71773E5,1.37861E5,3.00648E5,3.1743E5,3.00497E5,2.87635E5,2.79019E5,3.19096E5,1.32488E5,1.28133E5,1.29222E5,1.22491E5,1.35632E5,2.4384E5,6.5104E4,1.18394E5,6.8811E4,1.96392E5,2.06219E5,1.73313E5,6.2433E4,1.17726E5,6.348E4,1.79422E5,1.88642E5,1.83131E5,6.6605E4,7.1256E4,1.78949E5,1.21699E5,1.28573E5,1.88857E5,1.87139E5,1.13358E5,1.23427E5,1.64208E5,1.99711E5,7.9308E4,2.40975E5,7.8121E4],"tree_param":{"num_deleted":"0","num_feature":"2","num_nodes":"63","size_leaf_vector":"1"}},{"base_weights":[8.9725815E-3,1.5876621E1,-1.5541438E1,2.3930126E1,8.194474E0,-7.734276E0,-2.2552622E1,2.7997747E1,2.022728E1,1.18850765E1,3.283676E0,-3.5694482E0,-1.1488289E1,-1.926408E1,-2.5230558E1,2.9882427E1,2.6041988E1,2.2280739E1,1.8504656E1,1.4438202E1,1.0103348E1,5.1010885E0,1.4440577E0,-2.0485141E0,-5.9783063E0,-9.202267E0,-1.3232608E1,-1.7732908E1,-2.1247482E1,-2.380051E1,-2.672708E1,1.5305902E0,1.4564347E0,1.3706673E0,1.2776973E0,1.1663426E0,1.0554537E0,9.9859333E-1,8.762693E-1,7.8234094E-1,7.007372E-1,5.6732506E-1,4.3123314E-1,3.0199844E-1,2.0923047E-1,1.098634E-1,3.1175578E-2,-4.4353966E-2,-1.427927E-1,-2.7439526E-1,-3.5732952E-1,-4.0000615E-1,-5.201513E-1,-6.0230756E-1,-7.018986E-1,-8.504219E-1,-9.465949E-1,-1.0415076E0,-1.0860652E0,-1.1645949E0,-1.233311E0,-1.3033794E0,-1.4379978E0],"categories":[],"categories_nodes":[],"categories_segments":[],"categories_sizes":[],"default_left":[0,0,0,0,0,0,0,0,0,0,0,0,0,0,0,0,0,0,0,0,0,0,0,0,0,0,0,0,0,0,0,0,0,0,0,0,0,0,0,0,0,0,0,0,0,0,0,0,0,0,0,0,0,0,0,0,0,0,0,0,0,0,0],"id":4,"left_children":[1,3,5,7,9,11,13,15,17,19,21,23,25,27,29,31,33,35,37,39,41,43,45,47,49,51,53,55,57,59,61,-1,-1,-1,-1,-1,-1,-1,-1,-1,-1,-1,-1,-1,-1,-1,-1,-1,-1,-1,-1,-1,-1,-1,-1,-1,-1,-1,-1,-1,-1,-1,-1],"loss_changes":[1.0998629E9,1.3649402E8,1.2322566E8,1.6222016E7,2.0464256E7,1.6653336E7,1.0444672E7,1.89104E6,1.994016E6,2.932392E6,1.6197805E6,1.8499655E6,2.233712E6,1.616336E6,1.3984E6,1.428E5,1.67888E5,3.14776E5,4.402E5,1.35388E5,6.9786E5,2.09679E5,1.4880562E5,2.9022588E5,1.119265E5,3.499E5,3.03444E5,2.60632E5,4.5408E4,1.46608E5,4.27472E5,0E0,0E0,0E0,0E0,0E0,0E0,0E0,0E0,0E0,0E0,0E0,0E0,0E0,0E0,0E0,0E0,0E0,0E0,0E0,0E0,0E0,0E0,0E0,0E0,0E0,0E0,0E0,0E0,0E0,0E0,0E0,0E0],"parents":[2147483647,0,0,1,1,2,2,3,3,4,4,5,5,6,6,7,7,8,8,9,9,10,10,11,11,12,12,13,13,14,14,15,15,16,16,17,17,18,18,19,19,20,20,21,21,22,22,23,23,24,24,25,25,26,26,27,27,28,28,29,29,30,30],"right_children":[2,4,6,8,10,12,14,16,18,20,22,24,26,28,30,32,34,36,38,40,42,44,46,48,50,52,54,56,58,60,62,-1,-1,-1,-1,-1,-1,-1,-1,-1,-1,-1,-1,-1,-1,-1,-1,-1,-1,-1,-1,-1,-1,-1,-1,-1,-1,-1,-1,-1,-1,-1,-1],"split_conditions":[3.6E1,1.8E1,5.3E1,9E0,2.8E1,4.4E1,6.2E1,5E0,1.3E1,2.2E1,3.2E1,4.1E1,4.8E1,5.8E1,6.9E1,3E0,6E0,1.1E1,1.5E1,1.9E1,2.5E1,3E1,3.4E1,3.8E1,4.3E1,4.6E1,5E1,5.6E1,6E1,6.6E1,8E1,1.5305902E0,1.4564347E0,1.3706673E0,1.2776973E0,1.1663426E0,1.0554537E0,9.9859333E-1,8.762693E-1,7.8234094E-1,7.007372E-1,5.6732506E-1,4.3123314E-1,3.0199844E-1,2.0923047E-1,1.098634E-1,3.1175578E-2,-4.4353966E-2,-1.427927E-1,-2.7439526E-1,-3.5732952E-1,-4.0000615E-1,-5.201513E-1,-6.0230756E-1,-7.018986E-1,-8.504219E-1,-9.465949E-1,-1.0415076E0,-1.0860652E0,-1.1645949E0,-1.233311E0,-1.3033794E0,-1.4379978E0],"split_indices":[0,0,0,0,0,0,0,0,0,0,0,0,0,0,0,0,0,0,0,0,0,0,0,0,0,0,0,0,0,0,0,0,0,0,0,0,0,0,0,0,0,0,0,0,0,0,0,0,0,0,0,0,0,0,0,0,0,0,0,0,0,0,0],"split_type":[0,0,0,0,0,0,0,0,0,0,0,0,0,0,0,0,0,0,0,0,0,0,0,0,0,0,0,0,0,0,0,0,0,0,0,0,0,0,0,0,0,0,0,0,0,0,0,0,0,0,0,0,0,0,0,0,0,0,0,0,0,0,0],"sum_hessian":[4.457424E6,2.206208E6,2.251216E6,1.07707E6,1.129138E6,1.065146E6,1.18607E6,5.13251E5,5.63819E5,6.44658E5,4.8448E5,5.04945E5,5.60201E5,5.32348E5,6.53722E5,2.61368E5,2.51883E5,2.57205E5,3.06614E5,2.64967E5,3.79691E5,2.4371E5,2.4077E5,3.09519E5,1.95426E5,2.42456E5,3.17745E5,3.00429E5,2.31919E5,3.34294E5,3.19428E5,1.3281E5,1.28558E5,6.6098E4,1.85785E5,1.35873E5,1.21332E5,1.22723E5,1.83891E5,6.8739E4,1.96228E5,2.0627E5,1.73421E5,1.20381E5,1.23329E5,1.25535E5,1.15235E5,1.26926E5,1.82593E5,1.37651E5,5.7775E4,1.21162E5,1.21294E5,1.28482E5,1.89263E5,1.87282E5,1.13147E5,1.23334E5,1.08585E5,2.10595E5,1.23699E5,2.41195E5,7.8233E4],"tree_param":{"num_deleted":"0","num_feature":"2","num_nodes":"63","size_leaf_vector":"1"}},{"base_weights":[2.4447076E-3,-4.487572E-1,3.231156E-1,-2.1113417E0,6.6082126E-1,-6.119315E-1,-3.2043955E-1,4.7372875E-1,-6.374585E-1,6.1121565E-1,-1.2978344E-1,-2.0730002E-1,1.2340479E0,6.0218605E-3,4.2260315E-2,2.1973999E-1,-4.1112673E-2],"categories":[],"categories_nodes":[],"categories_segments":[],"categories_sizes":[],"default_left":[0,0,0,0,0,0,0,0,0,0,0,0,0,0,0,0,0],"id":5,"left_children":[1,3,-1,5,7,9,-1,-1,11,13,-1,-1,15,-1,-1,-1,-1],"loss_changes":[1.2991306E7,7.6856125E6,0E0,1.0745015E7,2.8591114E7,2.9995588E6,0E0,0E0,1.4300213E7,8.781709E4,0E0,0E0,9.230866E6,0E0,0E0,0E0,0E0],"parents":[2147483647,0,0,1,1,3,3,4,4,5,5,8,8,9,9,12,12],"right_children":[2,4,-1,6,8,10,-1,-1,12,14,-1,-1,16,-1,-1,-1,-1],"split_conditions":[9E0,5E0,3.231156E-1,4E0,6E0,3E0,-3.2043955E-1,4.7372875E-1,7E0,2E0,-1.2978344E-1,-2.0730002E-1,8E0,6.0218605E-3,4.2260315E-2,2.1973999E-1,-4.1112673E-2],"split_indices":[1,1,0,1,1,1,0,0,1,1,0,0,1,0,0,0,0],"split_type":[0,0,0,0,0,0,0,0,0,0,0,0,0,0,0,0,0],"sum_hessian":[4.457159E6,4.166166E6,2.90993E5,1.667538E6,2.498628E6,1.236215E6,4.31323E5,3.20797E5,2.177831E6,7.64707E5,4.71508E5,7.57581E5,1.42025E6,2.46885E5,5.17822E5,5.59791E5,8.60459E5],"tree_param":{"num_deleted":"0","num_feature":"2","num_nodes":"17","size_leaf_vector":"1"}},{"base_weights":[-2.047745E-3,1.55218E1,-1.4386546E1,2.273881E1,8.246226E0,-6.903884E0,-2.1497961E1,2.6594307E1,1.9237709E1,1.13228E1,3.5512745E0,-2.537329E0,-1.0500581E1,-1.856981E1,-2.4379166E1,2.8385141E1,2.473659E1,2.1197369E1,1.7591965E1,1.328489E1,9.215122E0,5.3826113E0,2.1904924E0,-1.2442932E0,-4.5665817E0,-8.344209E0,-1.2539245E1,-1.682048E1,-2.0397236E1,-2.3753746E1,-2.7349096E1,1.4543555E0,1.383027E0,1.2748276E0,1.196586E0,1.1092037E0,1.0045742E0,9.474742E-1,8.341873E-1,7.0312685E-1,6.044908E-1,5.231251E-1,4.1144451E-1,3.1801793E-1,2.4322009E-1,1.7191707E-1,8.740952E-2,-2.2741195E-2,-1.2294372E-1,-1.5819675E-1,-2.590395E-1,-3.6582774E-1,-4.9299383E-1,-5.704767E-1,-6.654854E-1,-8.065848E-1,-8.9814234E-1,-9.88815E-1,-1.0431687E0,-1.1297401E0,-1.2270956E0,-1.3386811E0,-1.5456952E0],"categories":[],"categories_nodes":[],"categories_segments":[],"categories_sizes":[],"default_left":[0,0,0,0,0,0,0,0,0,0,0,0,0,0,0,0,0,0,0,0,0,0,0,0,0,0,0,0,0,0,0,0,0,0,0,0,0,0,0,0,0,0,0,0,0,0,0,0,0,0,0,0,0,0,0,0,0,0,0,0,0,0,0],"id":6,"left_children":[1,3,5,7,9,11,13,15,17,19,21,23,25,27,29,31,33,35,37,39,41,43,45,47,49,51,53,55,57,59,61,-1,-1,-1,-1,-1,-1,-1,-1,-1,-1,-1,-1,-1,-1,-1,-1,-1,-1,-1,-1,-1,-1,-1,-1,-1,-1,-1,-1,-1,-1,-1,-1],"loss_changes":[9.9514906E8,1.1254346E8,1.230871E8,1.4523968E7,1.5417208E7,1.7702028E7,1.0005248E7,1.702912E6,1.818352E6,2.666472E6,1.052987E6,1.3357965E6,2.716952E6,1.880016E6,1.109728E6,1.31824E5,1.53136E5,2.8044E5,3.77592E5,3.10176E5,3.82356E5,9.1236E4,1.3379025E5,2.9816475E5,1.70683E5,4.67766E5,2.76376E5,2.36184E5,8.2848E4,4.50496E5,2.1248E5,0E0,0E0,0E0,0E0,0E0,0E0,0E0,0E0,0E0,0E0,0E0,0E0,0E0,0E0,0E0,0E0,0E0,0E0,0E0,0E0,0E0,0E0,0E0,0E0,0E0,0E0,0E0,0E0,0E0,0E0,0E0,0E0],"parents":[2147483647,0,0,1,1,2,2,3,3,4,4,5,5,6,6,7,7,8,8,9,9,10,10,11,11,12,12,13,13,14,14,15,15,16,16,17,17,18,18,19,19,20,20,21,21,22,22,23,23,24,24,25,25,26,26,27,27,28,28,29,29,30,30],"right_children":[2,4,6,8,10,12,14,16,18,20,22,24,26,28,30,32,34,36,38,40,42,44,46,48,50,52,54,56,58,60,62,-1,-1,-1,-1,-1,-1,-1,-1,-1,-1,-1,-1,-1,-1,-1,-1,-1,-1,-1,-1,-1,-1,-1,-1,-1,-1,-1,-1,-1,-1,-1,-1],"split_conditions":[3.5E1,1.8E1,5.3E1,9E0,2.8E1,4.3E1,6.3E1,5E0,1.3E1,2.3E1,3.1E1,4E1,4.8E1,5.8E1,7.8E1,3E0,7E0,1.1E1,1.5E1,2.1E1,2.5E1,2.9E1,3.2E1,3.8E1,4.1E1,4.6E1,5E1,5.6E1,6E1,6.7E1,9E1,1.4543555E0,1.383027E0,1.2748276E0,1.196586E0,1.1092037E0,1.0045742E0,9.474742E-1,8.341873E-1,7.0312685E-1,6.044908E-1,5.231251E-1,4.1144451E-1,3.1801793E-1,2.4322009E-1,1.7191707E-1,8.740952E-2,-2.2741195E-2,-1.2294372E-1,-1.5819675E-1,-2.590395E-1,-3.6582774E-1,-4.9299383E-1,-5.704767E-1,-6.654854E-1,-8.065848E-1,-8.9814234E-1,-9.88815E-1,-1.0431687E0,-1.1297401E0,-1.2270956E0,-1.3386811E0,-1.5456952E0],"split_indices":[0,0,0,0,0,0,0,0,0,0,0,0,0,0,0,0,0,0,0,0,0,0,0,0,0,0,0,0,0,0,0,0,0,0,0,0,0,0,0,0,0,0,0,0,0,0,0,0,0,0,0,0,0,0,0,0,0,0,0,0,0,0,0],"split_type":[0,0,0,0,0,0,0,0,0,0,0,0,0,0,0,0,0,0,0,0,0,0,0,0,0,0,0,0,0,0,0,0,0,0,0,0,0,0,0,0,0,0,0,0,0,0,0,0,0,0,0,0,0,0,0,0,0,0,0,0,0,0,0],"sum_hessian":[4.456499E6,2.143365E6,2.313134E6,1.076012E6,1.067353E6,1.127147E6,1.185987E6,5.12085E5,5.63927E5,6.44811E5,4.22542E5,5.0909E5,6.18057E5,5.88205E5,5.97782E5,2.60729E5,2.51356E5,2.57408E5,3.06519E5,3.33936E5,3.10875E5,1.80126E5,2.42416E5,3.10953E5,1.98137E5,3.0036E5,3.17697E5,3.00529E5,2.87676E5,4.93804E5,1.03978E5,1.32413E5,1.28316E5,1.29269E5,1.22087E5,1.36024E5,1.21384E5,1.2286E5,1.83659E5,2.02292E5,1.31644E5,1.3726E5,1.73615E5,6.2393E4,1.17733E5,6.3437E4,1.78979E5,1.88458E5,1.22495E5,6.0342E4,1.37795E5,1.79E5,1.2136E5,1.28823E5,1.88874E5,1.87495E5,1.13034E5,1.23374E5,1.64302E5,1.99898E5,2.93906E5,8.9533E4,1.4445E4],"tree_param":{"num_deleted":"0","num_feature":"2","num_nodes":"63","size_leaf_vector":"1"}},{"base_weights":[3.94767E-3,1.4351392E1,-1.40505705E1,2.1612356E1,7.4256206E0,-6.9507766E0,-2.0423191E1,2.5268774E1,1.828219E1,1.0751251E1,2.99646E0,-3.623373E0,-1.0763767E1,-1.763943E1,-2.3160646E1,2.6977636E1,2.3500048E1,2.015384E1,1.6710377E1,1.3063041E1,9.138204E0,4.634032E0,1.3449463E0,-1.8396704E0,-5.7580843E0,-9.176517E0,-1.2383775E1,-1.5986708E1,-1.9366518E1,-2.2568523E1,-2.5979368E1,1.3827487E0,1.3138723E0,1.2386332E0,1.1522727E0,1.0538749E0,9.5580846E-1,9.0144014E-1,7.9153794E-1,6.8521255E-1,6.190368E-1,5.1295865E-1,3.9018095E-1,2.7447924E-1,1.8997653E-1,1.016629E-1,2.9724121E-2,-4.0213063E-2,-1.2793615E-1,-2.4629545E-1,-3.3523554E-1,-3.7268528E-1,-4.8461506E-1,-5.759696E-1,-6.32198E-1,-7.671018E-1,-8.527116E-1,-9.400031E-1,-9.897098E-1,-1.0740168E0,-1.1653576E0,-1.271702E0,-1.4686393E0],"categories":[],"categories_nodes":[],"categories_segments":[],"categories_sizes":[],"default_left":[0,0,0,0,0,0,0,0,0,0,0,0,0,0,0,0,0,0,0,0,0,0,0,0,0,0,0,0,0,0,0,0,0,0,0,0,0,0,0,0,0,0,0,0,0,0,0,0,0,0,0,0,0,0,0,0,0,0,0,0,0,0,0],"id":7,"left_children":[1,3,5,7,9,11,13,15,17,19,21,23,25,27,29,31,33,35,37,39,41,43,45,47,49,51,53,55,57,59,61,-1,-1,-1,-1,-1,-1,-1,-1,-1,-1,-1,-1,-1,-1,-1,-1,-1,-1,-1,-1,-1,-1,-1,-1,-1,-1,-1,-1,-1,-1,-1,-1],"loss_changes":[8.986659E8,1.1090144E8,1.0185846E8,1.3108896E7,1.6625792E7,1.351068E7,9.040544E6,1.5504E6,1.657264E6,2.40388E6,1.3091015E6,2.1652675E6,1.275892E6,1.678736E6,9.97792E5,1.23056E5,1.45328E5,2.46096E5,3.54888E5,1.15748E5,5.67998E5,1.735085E5,1.2448909E5,2.30649E5,2.03885E5,2.22662E5,5.5084E4,2.06608E5,6.932E4,3.96848E5,1.914E5,0E0,0E0,0E0,0E0,0E0,0E0,0E0,0E0,0E0,0E0,0E0,0E0,0E0,0E0,0E0,0E0,0E0,0E0,0E0,0E0,0E0,0E0,0E0,0E0,0E0,0E0,0E0,0E0,0E0,0E0,0E0,0E0],"parents":[2147483647,0,0,1,1,2,2,3,3,4,4,5,5,6,6,7,7,8,8,9,9,10,10,11,11,12,12,13,13,14,14,15,15,16,16,17,17,18,18,19,19,20,20,21,21,22,22,23,23,24,24,25,25,26,26,27,27,28,28,29,29,30,30],"right_children":[2,4,6,8,10,12,14,16,18,20,22,24,26,28,30,32,34,36,38,40,42,44,46,48,50,52,54,56,58,60,62,-1,-1,-1,-1,-1,-1,-1,-1,-1,-1,-1,-1,-1,-1,-1,-1,-1,-1,-1,-1,-1,-1,-1,-1,-1,-1,-1,-1,-1,-1,-1,-1],"split_conditions":[3.6E1,1.8E1,5.3E1,9E0,2.8E1,4.5E1,6.3E1,5E0,1.3E1,2.2E1,3.2E1,4.1E1,4.9E1,5.8E1,7.8E1,3E0,6E0,1.1E1,1.5E1,2E1,2.5E1,3E1,3.4E1,3.8E1,4.3E1,4.6E1,5E1,5.6E1,6E1,6.7E1,9E1,1.3827487E0,1.3138723E0,1.2386332E0,1.1522727E0,1.0538749E0,9.5580846E-1,9.0144014E-1,7.9153794E-1,6.8521255E-1,6.190368E-1,5.1295865E-1,3.9018095E-1,2.7447924E-1,1.8997653E-1,1.016629E-1,2.9724121E-2,-4.0213063E-2,-1.2793615E-1,-2.4629545E-1,-3.3523554E-1,-3.7268528E-1,-4.8461506E-1,-5.759696E-1,-6.32198E-1,-7.671018E-1,-8.527116E-1,-9.400031E-1,-9.897098E-1,-1.0740168E0,-1.1653576E0,-1.271702E0,-1.4686393E0],"split_indices":[0,0,0,0,0,0,0,0,0,0,0,0,0,0,0,0,0,0,0,0,0,0,0,0,0,0,0,0,0,0,0,0,0,0,0,0,0,0,0,0,0,0,0,0,0,0,0,0,0,0,0,0,0,0,0,0,0,0,0,0,0,0,0],"split_type":[0,0,0,0,0,0,0,0,0,0,0,0,0,0,0,0,0,0,0,0,0,0,0,0,0,0,0,0,0,0,0,0,0,0,0,0,0,0,0,0,0,0,0,0,0,0,0,0,0,0,0,0,0,0,0,0,0,0,0,0,0,0,0],"sum_hessian":[4.45664E6,2.205338E6,2.251302E6,1.076615E6,1.128723E6,1.064895E6,1.186407E6,5.13167E5,5.63448E5,6.44671E5,4.84052E5,5.68658E5,4.96237E5,5.88232E5,5.98175E5,2.60993E5,2.52174E5,2.57188E5,3.0626E5,2.64947E5,3.79724E5,2.43051E5,2.41001E5,3.098E5,2.58858E5,2.50656E5,2.45581E5,3.00593E5,2.87639E5,4.94339E5,1.03836E5,1.32642E5,1.28351E5,6.6357E4,1.85817E5,1.36059E5,1.21129E5,1.22552E5,1.83708E5,1.36577E5,1.2837E5,2.06375E5,1.73349E5,1.20009E5,1.23042E5,1.25705E5,1.15296E5,1.2697E5,1.8283E5,1.3776E5,1.21098E5,5.7756E4,1.929E5,5.6829E4,1.88752E5,1.87424E5,1.13169E5,1.23762E5,1.63877E5,1.99886E5,2.94453E5,8.9467E4,1.4369E4],"tree_param":{"num_deleted":"0","num_feature":"2","num_nodes":"63","size_leaf_vector":"1"}},{"base_weights":[-3.4103347E-3,1.362951E1,-1.3347787E1,2.0527533E1,7.057573E0,-6.608926E0,-1.9406054E1,2.4003338E1,1.7365616E1,1.0218322E1,2.8464246E0,-3.4459627E0,-1.0230663E1,-1.6759363E1,-2.200231E1,2.5608868E1,2.2341E1,1.9139719E1,1.5875657E1,1.242269E1,8.680046E0,4.3956013E0,1.2788804E0,-1.7627944E0,-5.461661E0,-8.729668E0,-1.1762507E1,-1.5181957E1,-1.8406431E1,-2.143539E1,-2.4695183E1,1.3119761E0,1.2478381E0,1.1522425E0,1.079866E0,1.0013231E0,9.073686E-1,8.5587996E-1,7.522944E-1,6.760092E-1,6.0189533E-1,4.8640323E-1,3.7173477E-1,2.8837147E-1,1.9610249E-1,9.631447E-2,2.8692534E-2,-3.801697E-2,-1.2299234E-1,-2.3354319E-1,-3.1804487E-1,-3.5435185E-1,-4.611543E-1,-5.4724586E-1,-6.004494E-1,-7.2764343E-1,-8.110405E-1,-8.926425E-1,-9.410823E-1,-1.0341116E0,-1.1206108E0,-1.2090267E0,-1.3950572E0],"categories":[],"categories_nodes":[],"categories_segments":[],"categories_sizes":[],"default_left":[0,0,0,0,0,0,0,0,0,0,0,0,0,0,0,0,0,0,0,0,0,0,0,0,0,0,0,0,0,0,0,0,0,0,0,0,0,0,0,0,0,0,0,0,0,0,0,0,0,0,0,0,0,0,0,0,0,0,0,0,0,0,0],"id":8,"left_children":[1,3,5,7,9,11,13,15,17,19,21,23,25,27,29,31,33,35,37,39,41,43,45,47,49,51,53,55,57,59,61,-1,-1,-1,-1,-1,-1,-1,-1,-1,-1,-1,-1,-1,-1,-1,-1,-1,-1,-1,-1,-1,-1,-1,-1,-1,-1,-1,-1,-1,-1,-1,-1],"loss_changes":[8.1055405E8,9.991069E7,9.192198E7,1.1817152E7,1.5022532E7,1.2210456E7,8.14688E6,1.366496E6,1.488096E6,2.186112E6,1.1751258E6,1.930457E6,1.142456E6,1.525136E6,9.13184E5,1.06496E5,1.31232E5,2.258E5,3.15136E5,1.1174E5,4.95542E5,1.580855E5,1.097875E5,2.1666794E5,1.84092E5,2.03364E5,4.9432E4,1.95768E5,6.5688E4,3.6328E5,1.71064E5,0E0,0E0,0E0,0E0,0E0,0E0,0E0,0E0,0E0,0E0,0E0,0E0,0E0,0E0,0E0,0E0,0E0,0E0,0E0,0E0,0E0,0E0,0E0,0E0,0E0,0E0,0E0,0E0,0E0,0E0,0E0,0E0],"parents":[2147483647,0,0,1,1,2,2,3,3,4,4,5,5,6,6,7,7,8,8,9,9,10,10,11,11,12,12,13,13,14,14,15,15,16,16,17,17,18,18,19,19,20,20,21,21,22,22,23,23,24,24,25,25,26,26,27,27,28,28,29,29,30,30],"right_children":[2,4,6,8,10,12,14,16,18,20,22,24,26,28,30,32,34,36,38,40,42,44,46,48,50,52,54,56,58,60,62,-1,-1,-1,-1,-1,-1,-1,-1,-1,-1,-1,-1,-1,-1,-1,-1,-1,-1,-1,-1,-1,-1,-1,-1,-1,-1,-1,-1,-1,-1,-1,-1],"split_conditions":[3.6E1,1.8E1,5.3E1,9E0,2.8E1,4.5E1,6.3E1,5E0,1.3E1,2.2E1,3.2E1,4.1E1,4.9E1,5.8E1,7.8E1,3E0,7E0,1.1E1,1.5E1,1.9E1,2.5E1,2.9E1,3.4E1,3.8E1,4.3E1,4.6E1,5E1,5.6E1,6E1,6.9E1,9E1,1.3119761E0,1.2478381E0,1.1522425E0,1.079866E0,1.0013231E0,9.073686E-1,8.5587996E-1,7.522944E-1,6.760092E-1,6.0189533E-1,4.8640323E-1,3.7173477E-1,2.8837147E-1,1.9610249E-1,9.631447E-2,2.8692534E-2,-3.801697E-2,-1.2299234E-1,-2.3354319E-1,-3.1804487E-1,-3.5435185E-1,-4.611543E-1,-5.4724586E-1,-6.004494E-1,-7.2764343E-1,-8.110405E-1,-8.926425E-1,-9.410823E-1,-1.0341116E0,-1.1206108E0,-1.2090267E0,-1.3950572E0],"split_indices":[0,0,0,0,0,0,0,0,0,0,0,0,0,0,0,0,0,0,0,0,0,0,0,0,0,0,0,0,0,0,0,0,0,0,0,0,0,0,0,0,0,0,0,0,0,0,0,0,0,0,0,0,0,0,0,0,0,0,0,0,0,0,0],"split_type":[0,0,0,0,0,0,0,0,0,0,0,0,0,0,0,0,0,0,0,0,0,0,0,0,0,0,0,0,0,0,0,0,0,0,0,0,0,0,0,0,0,0,0,0,0,0,0,0,0,0,0,0,0,0,0,0,0,0,0,0,0,0,0],"sum_hessian":[4.455481E6,2.203913E6,2.251568E6,1.075279E6,1.128634E6,1.065912E6,1.185656E6,5.12212E5,5.63067E5,6.44724E5,4.8391E5,5.68995E5,4.96917E5,5.87129E5,5.98527E5,2.60551E5,2.51661E5,2.5702E5,3.06047E5,2.64987E5,3.79737E5,2.4338E5,2.4053E5,3.10075E5,2.5892E5,2.50989E5,2.45928E5,2.99912E5,2.87217E5,4.94443E5,1.04084E5,1.32434E5,1.28117E5,1.29277E5,1.22384E5,1.35722E5,1.21298E5,1.22571E5,1.83476E5,6.8779E4,1.96208E5,2.06202E5,1.73535E5,6.2452E4,1.80928E5,1.25388E5,1.15142E5,1.27178E5,1.82897E5,1.3777E5,1.2115E5,5.7981E4,1.93008E5,5.6977E4,1.88951E5,1.86805E5,1.13107E5,1.23117E5,1.641E5,2.79197E5,2.15246E5,8.9694E4,1.439E4],"tree_param":{"num_deleted":"0","num_feature":"2","num_nodes":"63","size_leaf_vector":"1"}},{"base_weights":[-3.385675E-3,1.29444275E1,-1.2683049E1,1.9508163E1,6.6966166E0,-6.2786326E0,-1.8435698E1,2.2819439E1,1.649893E1,9.701842E0,2.6965556E0,-2.8865566E0,-9.338791E0,-1.5921091E1,-2.0907185E1,2.4347788E1,2.1235764E1,1.8182158E1,1.50871105E1,1.1394412E1,7.8876367E0,4.6339335E0,1.5497752E0,-1.6657991E0,-4.824671E0,-7.4785867E0,-1.0761328E1,-1.4430841E1,-1.7473991E1,-1.9656096E1,-2.200081E1,1.2472385E0,1.1864896E0,1.1200954E0,1.0410236E0,9.510852E-1,8.619818E-1,8.135292E-1,7.1484435E-1,6.194448E-1,5.351457E-1,4.471386E-1,3.5250756E-1,2.7440053E-1,2.0897947E-1,1.0850593E-1,2.6503442E-2,-3.590789E-2,-1.1623148E-1,-2.2209536E-1,-2.868387E-1,-3.2697257E-1,-4.2105666E-1,-4.906548E-1,-5.70247E-1,-6.91971E-1,-7.704556E-1,-8.4735125E-1,-8.935003E-1,-9.679927E-1,-1.0201591E0,-1.0705959E0,-1.1906769E0],"categories":[],"categories_nodes":[],"categories_segments":[],"categories_sizes":[],"default_left":[0,0,0,0,0,0,0,0,0,0,0,0,0,0,0,0,0,0,0,0,0,0,0,0,0,0,0,0,0,0,0,0,0,0,0,0,0,0,0,0,0,0,0,0,0,0,0,0,0,0,0,0,0,0,0,0,0,0,0,0,0,0,0],"id":9,"left_children":[1,3,5,7,9,11,13,15,17,19,21,23,25,27,29,31,33,35,37,39,41,43,45,47,49,51,53,55,57,59,61,-1,-1,-1,-1,-1,-1,-1,-1,-1,-1,-1,-1,-1,-1,-1,-1,-1,-1,-1,-1,-1,-1,-1,-1,-1,-1,-1,-1,-1,-1,-1,-1],"loss_changes":[7.318923E8,9.045306E7,8.298131E7,1.0717824E7,1.3584324E7,1.1063224E7,7.373792E6,1.239008E6,1.338912E6,1.981296E6,1.0770578E6,1.195953E6,1.482616E6,1.360848E6,8.18288E5,9.5568E4,1.21344E5,2.03072E5,2.864E5,2.29432E5,2.75148E5,6.99245E4,1.9263344E5,1.9362956E5,6.8174E4,2.14874E5,1.9366E5,1.73436E5,5.98E4,6.1376E4,3.4032E5,0E0,0E0,0E0,0E0,0E0,0E0,0E0,0E0,0E0,0E0,0E0,0E0,0E0,0E0,0E0,0E0,0E0,0E0,0E0,0E0,0E0,0E0,0E0,0E0,0E0,0E0,0E0,0E0,0E0,0E0,0E0,0E0],"parents":[2147483647,0,0,1,1,2,2,3,3,4,4,5,5,6,6,7,7,8,8,9,9,10,10,11,11,12,12,13,13,14,14,15,15,16,16,17,17,18,18,19,19,20,20,21,21,22,22,23,23,24,24,25,25,26,26,27,27,28,28,29,29,30,30],"right_children":[2,4,6,8,10,12,14,16,18,20,22,24,26,28,30,32,34,36,38,40,42,44,46,48,50,52,54,56,58,60,62,-1,-1,-1,-1,-1,-1,-1,-1,-1,-1,-1,-1,-1,-1,-1,-1,-1,-1,-1,-1,-1,-1,-1,-1,-1,-1,-1,-1,-1,-1,-1,-1],"split_conditions":[3.6E1,1.8E1,5.3E1,9E0,2.8E1,4.4E1,6.3E1,5E0,1.3E1,2.3E1,3.1E1,4.1E1,4.8E1,5.8E1,6.9E1,3E0,6E0,1.1E1,1.5E1,2E1,2.5E1,2.9E1,3.4E1,3.8E1,4.3E1,4.6E1,5E1,5.6E1,6E1,6.7E1,8E1,1.2472385E0,1.1864896E0,1.1200954E0,1.0410236E0,9.510852E-1,8.619818E-1,8.135292E-1,7.1484435E-1,6.194448E-1,5.351457E-1,4.471386E-1,3.5250756E-1,2.7440053E-1,2.0897947E-1,1.0850593E-1,2.6503442E-2,-3.590789E-2,-1.1623148E-1,-2.2209536E-1,-2.868387E-1,-3.2697257E-1,-4.2105666E-1,-4.906548E-1,-5.70247E-1,-6.91971E-1,-7.704556E-1,-8.4735125E-1,-8.935003E-1,-9.679927E-1,-1.0201591E0,-1.0705959E0,-1.1906769E0],"split_indices":[0,0,0,0,0,0,0,0,0,0,0,0,0,0,0,0,0,0,0,0,0,0,0,0,0,0,0,0,0,0,0,0,0,0,0,0,0,0,0,0,0,0,0,0,0,0,0,0,0,0,0,0,0,0,0,0,0,0,0,0,0,0,0],"split_type":[0,0,0,0,0,0,0,0,0,0,0,0,0,0,0,0,0,0,0,0,0,0,0,0,0,0,0,0,0,0,0,0,0,0,0,0,0,0,0,0,0,0,0,0,0,0,0,0,0,0,0,0,0,0,0,0,0,0,0,0,0,0,0],"sum_hessian":[4.458028E6,2.205691E6,2.252337E6,1.075649E6,1.130042E6,1.065793E6,1.186544E6,5.1212E5,5.63529E5,6.4526E5,4.84782E5,5.05484E5,5.60309E5,5.88145E5,5.98399E5,2.60605E5,2.51515E5,2.57051E5,3.06478E5,3.33818E5,3.11442E5,1.80255E5,3.04527E5,3.10139E5,1.95345E5,2.42806E5,3.17503E5,3.00132E5,2.88013E5,2.79115E5,3.19284E5,1.32536E5,1.28069E5,6.6035E4,1.8548E5,1.35942E5,1.21109E5,1.22699E5,1.83779E5,1.36907E5,1.96911E5,1.37809E5,1.73633E5,6.2589E4,1.17666E5,1.8934E5,1.15187E5,1.27192E5,1.82947E5,1.37605E5,5.774E4,1.21627E5,1.21179E5,1.28379E5,1.89124E5,1.87059E5,1.13073E5,1.23594E5,1.64419E5,1.99883E5,7.9232E4,2.41003E5,7.8281E4],"tree_param":{"num_deleted":"0","num_feature":"2","num_nodes":"63","size_leaf_vector":"1"}},{"base_weights":[-1.0288233E-4,1.2300036E1,-1.2048441E1,1.853096E1,6.364523E0,-5.9637303E0,-1.7516066E1,2.1670956E1,1.5673198E1,9.228168E0,2.5559888E0,-2.7426238E0,-8.869075E0,-1.489013E1,-1.9652065E1,2.3129822E1,2.015894E1,1.6974089E1,1.4021499E1,1.121932E1,7.8374357E0,3.964241E0,1.1304408E0,-1.5825374E0,-4.5816236E0,-7.0840445E0,-1.0228993E1,-1.3414435E1,-1.6162075E1,-1.8459679E1,-2.0902441E1,1.1851084E0,1.1269202E0,1.0642376E0,9.878464E-1,9.034028E-1,8.0716735E-1,7.394507E-1,6.590034E-1,6.1127675E-1,5.433765E-1,4.3903747E-1,3.3575356E-1,2.3522186E-1,1.6213505E-1,8.5690625E-2,2.4814805E-2,-3.532431E-2,-1.0949122E-1,-2.109021E-1,-2.7222094E-1,-3.09098E-1,-3.9937136E-1,-4.6659526E-1,-5.4187614E-1,-6.256961E-1,-6.852255E-1,-7.4829096E-1,-8.219554E-1,-9.0224504E-1,-9.583227E-1,-1.0326741E0,-1.2427218E0],"categories":[],"categories_nodes":[],"categories_segments":[],"categories_sizes":[],"default_left":[0,0,0,0,0,0,0,0,0,0,0,0,0,0,0,0,0,0,0,0,0,0,0,0,0,0,0,0,0,0,0,0,0,0,0,0,0,0,0,0,0,0,0,0,0,0,0,0,0,0,0,0,0,0,0,0,0,0,0,0,0,0,0],"id":10,"left_children":[1,3,5,7,9,11,13,15,17,19,21,23,25,27,29,31,33,35,37,39,41,43,45,47,49,51,53,55,57,59,61,-1,-1,-1,-1,-1,-1,-1,-1,-1,-1,-1,-1,-1,-1,-1,-1,-1,-1,-1,-1,-1,-1,-1,-1,-1,-1,-1,-1,-1,-1,-1,-1],"loss_changes":[6.6053376E8,8.156867E7,7.490899E7,9.654848E6,1.2319096E7,9.973032E6,6.651712E6,1.130416E6,1.210144E6,1.785328E6,9.7323075E5,1.0781635E6,1.360056E6,9.98288E5,9.74656E5,8.7776E4,1.13528E5,2.86088E5,1.60096E5,9.372E4,4.01854E5,1.3023375E5,8.9124875E4,1.648655E5,6.130075E4,1.97395E5,1.73506E5,6.416E4,9.444E4,9.7784E4,3.13552E5,0E0,0E0,0E0,0E0,0E0,0E0,0E0,0E0,0E0,0E0,0E0,0E0,0E0,0E0,0E0,0E0,0E0,0E0,0E0,0E0,0E0,0E0,0E0,0E0,0E0,0E0,0E0,0E0,0E0,0E0,0E0,0E0],"parents":[2147483647,0,0,1,1,2,2,3,3,4,4,5,5,6,6,7,7,8,8,9,9,10,10,11,11,12,12,13,13,14,14,15,15,16,16,17,17,18,18,19,19,20,20,21,21,22,22,23,23,24,24,25,25,26,26,27,27,28,28,29,29,30,30],"right_children":[2,4,6,8,10,12,14,16,18,20,22,24,26,28,30,32,34,36,38,40,42,44,46,48,50,52,54,56,58,60,62,-1,-1,-1,-1,-1,-1,-1,-1,-1,-1,-1,-1,-1,-1,-1,-1,-1,-1,-1,-1,-1,-1,-1,-1,-1,-1,-1,-1,-1,-1,-1,-1],"split_conditions":[3.6E1,1.8E1,5.3E1,9E0,2.8E1,4.4E1,6.2E1,5E0,1.4E1,2.2E1,3.2E1,4.1E1,4.8E1,5.7E1,6.9E1,3E0,6E0,1.1E1,1.6E1,1.9E1,2.5E1,3E1,3.4E1,3.8E1,4.3E1,4.6E1,5E1,5.4E1,5.8E1,6.6E1,8.9E1,1.1851084E0,1.1269202E0,1.0642376E0,9.878464E-1,9.034028E-1,8.0716735E-1,7.394507E-1,6.590034E-1,6.1127675E-1,5.433765E-1,4.3903747E-1,3.3575356E-1,2.3522186E-1,1.6213505E-1,8.5690625E-2,2.4814805E-2,-3.532431E-2,-1.0949122E-1,-2.109021E-1,-2.7222094E-1,-3.09098E-1,-3.9937136E-1,-4.6659526E-1,-5.4187614E-1,-6.256961E-1,-6.852255E-1,-7.4829096E-1,-8.219554E-1,-9.0224504E-1,-9.583227E-1,-1.0326741E0,-1.2427218E0],"split_indices":[0,0,0,0,0,0,0,0,0,0,0,0,0,0,0,0,0,0,0,0,0,0,0,0,0,0,0,0,0,0,0,0,0,0,0,0,0,0,0,0,0,0,0,0,0,0,0,0,0,0,0,0,0,0,0,0,0,0,0,0,0,0,0],"split_type":[0,0,0,0,0,0,0,0,0,0,0,0,0,0,0,0,0,0,0,0,0,0,0,0,0,0,0,0,0,0,0,0,0,0,0,0,0,0,0,0,0,0,0,0,0,0,0,0,0,0,0,0,0,0,0,0,0,0,0,0,0,0,0],"sum_hessian":[4.457154E6,2.20553E6,2.251624E6,1.075988E6,1.129542E6,1.065676E6,1.185948E6,5.12675E5,5.63313E5,6.44751E5,4.84791E5,5.05376E5,5.603E5,5.31969E5,6.53979E5,2.60916E5,2.51759E5,3.15116E5,2.48197E5,2.65138E5,3.79613E5,2.43874E5,2.40917E5,3.09891E5,1.95485E5,2.42284E5,3.18016E5,2.46266E5,2.85703E5,3.3476E5,3.19219E5,1.32576E5,1.2834E5,6.6231E4,1.85528E5,1.36001E5,1.79115E5,1.29791E5,1.18406E5,6.8675E4,1.96463E5,2.06255E5,1.73358E5,1.20378E5,1.23496E5,1.25481E5,1.15436E5,1.26872E5,1.83019E5,1.37534E5,5.7951E4,1.21233E5,1.21051E5,1.2854E5,1.89476E5,6.0011E4,1.86255E5,5.3733E4,2.3197E5,2.10974E5,1.23786E5,3.00307E5,1.8912E4],"tree_param":{"num_deleted":"0","num_feature":"2","num_nodes":"63","size_leaf_vector":"1"}},{"base_weights":[-1.6616237E-3,-1.4730815E0,2.358933E0,-2.2611515E-1,-2.3735599E-1,1.4303128E0,3.4423587E-1,-2.30979E0,5.296144E-1,2.3607479E-1,-3.5636257E-2,-6.690836E-1,-3.502169E-1,3.2216195E-2,-1.3975194E-1],"categories":[],"categories_nodes":[],"categories_segments":[],"categories_sizes":[],"default_left":[0,0,0,0,0,0,0,0,0,0,0,0,0,0,0],"id":11,"left_children":[1,3,5,7,-1,9,-1,11,-1,-1,-1,13,-1,-1,-1],"loss_changes":[1.5482894E7,1.1210546E7,7.193414E6,4.4826068E7,0E0,1.001688E7,0E0,1.2842973E7,0E0,0E0,0E0,3.450047E6,0E0,0E0,0E0],"parents":[2147483647,0,0,1,1,2,2,3,3,5,5,7,7,11,11],"right_children":[2,4,6,8,-1,10,-1,12,-1,-1,-1,14,-1,-1,-1],"split_conditions":[7E0,6E0,9E0,5E0,-2.3735599E-1,8E0,3.4423587E-1,4E0,5.296144E-1,2.3607479E-1,-3.5636257E-2,3E0,-3.502169E-1,3.2216195E-2,-1.3975194E-1],"split_indices":[1,1,1,1,0,1,0,1,0,0,0,1,0,0,0],"split_type":[0,0,0,0,0,0,0,0,0,0,0,0,0,0,0],"sum_hessian":[4.457526E6,2.745922E6,1.711604E6,1.988553E6,7.57369E5,1.420202E6,2.91402E5,1.667404E6,3.21149E5,5.6007E5,8.60132E5,1.23558E6,4.31824E5,7.63743E5,4.71837E5],"tree_param":{"num_deleted":"0","num_feature":"2","num_nodes":"15","size_leaf_vector":"1"}},{"base_weights":[5.9098005E-3,1.1716971E1,-1.1467419E1,1.763516E1,6.078902E0,-5.639235E0,-1.6711266E1,2.0620474E1,1.4921786E1,8.783071E0,2.4765403E0,-2.5800517E0,-8.400339E0,-1.4338018E1,-1.9042866E1,2.2001774E1,1.9189215E1,1.6456078E1,1.3633641E1,1.0324912E1,7.1277766E0,4.2259355E0,1.4378018E0,-1.4820635E0,-4.3218365E0,-7.091706E0,-1.0070913E1,-1.2976577E1,-1.5758876E1,-1.8495836E1,-2.1644318E1,1.1155244E0,1.0468384E0,9.9132365E-1,9.2577213E-1,8.6016494E-1,7.8090686E-1,7.346443E-1,6.4636916E-1,5.476234E-1,4.681034E-1,4.0367824E-1,3.188002E-1,2.495904E-1,1.9090323E-1,1.00052975E-1,2.5742972E-2,-3.1527605E-2,-1.036253E-1,-1.9906375E-1,-2.5658333E-1,-2.935727E-1,-3.9288682E-1,-4.8324105E-1,-5.2395326E-1,-6.213782E-1,-6.941568E-1,-7.621078E-1,-8.0726254E-1,-8.762911E-1,-9.5771295E-1,-1.0586579E0,-1.2299776E0],"categories":[],"categories_nodes":[],"categories_segments":[],"categories_sizes":[],"default_left":[0,0,0,0,0,0,0,0,0,0,0,0,0,0,0,0,0,0,0,0,0,0,0,0,0,0,0,0,0,0,0,0,0,0,0,0,0,0,0,0,0,0,0,0,0,0,0,0,0,0,0,0,0,0,0,0,0,0,0,0,0,0,0],"id":12,"left_children":[1,3,5,7,9,11,13,15,17,19,21,23,25,27,29,31,33,35,37,39,41,43,45,47,49,51,53,55,57,59,61,-1,-1,-1,-1,-1,-1,-1,-1,-1,-1,-1,-1,-1,-1,-1,-1,-1,-1,-1,-1,-1,-1,-1,-1,-1,-1,-1,-1,-1,-1,-1,-1],"loss_changes":[5.989544E8,7.36072E7,6.881629E7,8.717632E6,1.10051E7,9.007808E6,6.558336E6,1.012688E6,1.114088E6,1.646896E6,8.8025725E5,9.67522E5,1.225324E6,1.136048E6,8.50416E5,8.5272E4,1.07696E5,1.60848E5,2.291E5,2.01776E5,2.21225E5,5.635625E4,1.5800606E5,1.5600862E5,5.392775E4,2.93758E5,4.0706E4,1.49128E5,5.7136E4,3.15184E5,1.44108E5,0E0,0E0,0E0,0E0,0E0,0E0,0E0,0E0,0E0,0E0,0E0,0E0,0E0,0E0,0E0,0E0,0E0,0E0,0E0,0E0,0E0,0E0,0E0,0E0,0E0,0E0,0E0,0E0,0E0,0E0,0E0,0E0],"parents":[2147483647,0,0,1,1,2,2,3,3,4,4,5,5,6,6,7,7,8,8,9,9,10,10,11,11,12,12,13,13,14,14,15,15,16,16,17,17,18,18,19,19,20,20,21,21,22,22,23,23,24,24,25,25,26,26,27,27,28,28,29,29,30,30],"right_children":[2,4,6,8,10,12,14,16,18,20,22,24,26,28,30,32,34,36,38,40,42,44,46,48,50,52,54,56,58,60,62,-1,-1,-1,-1,-1,-1,-1,-1,-1,-1,-1,-1,-1,-1,-1,-1,-1,-1,-1,-1,-1,-1,-1,-1,-1,-1,-1,-1,-1,-1,-1,-1],"split_conditions":[3.6E1,1.8E1,5.3E1,9E0,2.8E1,4.4E1,6.3E1,5E0,1.3E1,2.3E1,3.1E1,4.1E1,4.9E1,5.8E1,7.8E1,4E0,7E0,1.1E1,1.5E1,2.1E1,2.5E1,2.9E1,3.4E1,3.8E1,4.3E1,4.6E1,5.1E1,5.6E1,6E1,6.7E1,9E1,1.1155244E0,1.0468384E0,9.9132365E-1,9.2577213E-1,8.6016494E-1,7.8090686E-1,7.346443E-1,6.4636916E-1,5.476234E-1,4.681034E-1,4.0367824E-1,3.188002E-1,2.495904E-1,1.9090323E-1,1.00052975E-1,2.5742972E-2,-3.1527605E-2,-1.036253E-1,-1.9906375E-1,-2.5658333E-1,-2.935727E-1,-3.9288682E-1,-4.8324105E-1,-5.2395326E-1,-6.213782E-1,-6.941568E-1,-7.621078E-1,-8.0726254E-1,-8.762911E-1,-9.5771295E-1,-1.0586579E0,-1.2299776E0],"split_indices":[0,0,0,0,0,0,0,0,0,0,0,0,0,0,0,0,0,0,0,0,0,0,0,0,0,0,0,0,0,0,0,0,0,0,0,0,0,0,0,0,0,0,0,0,0,0,0,0,0,0,0,0,0,0,0,0,0,0,0,0,0,0,0],"split_type":[0,0,0,0,0,0,0,0,0,0,0,0,0,0,0,0,0,0,0,0,0,0,0,0,0,0,0,0,0,0,0,0,0,0,0,0,0,0,0,0,0,0,0,0,0,0,0,0,0,0,0,0,0,0,0,0,0,0,0,0,0,0,0],"sum_hessian":[4.457669E6,2.20598E6,2.251689E6,1.076253E6,1.129727E6,1.066428E6,1.185261E6,5.12444E5,5.63809E5,6.45312E5,4.84415E5,5.05907E5,5.60521E5,5.87388E5,5.97873E5,2.60766E5,2.51678E5,2.57314E5,3.06495E5,3.34103E5,3.11209E5,1.80471E5,3.03944E5,3.10301E5,1.95606E5,3.14312E5,2.46209E5,2.99971E5,2.87417E5,4.94003E5,1.0387E5,2.02149E5,5.8617E4,1.29329E5,1.22349E5,1.3601E5,1.21304E5,1.226E5,1.83895E5,2.02263E5,1.3184E5,1.37816E5,1.73393E5,6.2709E4,1.17762E5,1.88751E5,1.15193E5,1.27061E5,1.8324E5,1.37703E5,5.7903E4,1.21221E5,1.93091E5,1.23428E5,1.22781E5,1.86837E5,1.13134E5,1.22984E5,1.64433E5,1.9975E5,2.94253E5,8.9594E4,1.4276E4],"tree_param":{"num_deleted":"0","num_feature":"2","num_nodes":"63","size_leaf_vector":"1"}},{"base_weights":[4.9420283E-3,1.1136364E1,-1.0897559E1,1.6414091E1,5.4312825E0,-5.35458E0,-1.5879379E1,1.922824E1,1.3502153E1,8.024341E0,2.3478081E0,-2.77417E0,-8.308646E0,-1.3626441E1,-1.8095652E1,2.0566025E1,1.751029E1,1.47544565E1,1.1964234E1,9.480415E0,6.780923E0,3.6192164E0,1.0627409E0,-1.4076581E0,-4.4108357E0,-7.076335E0,-9.566898E0,-1.23368225E1,-1.4973162E1,-1.7531956E1,-2.0363827E1,1.0598134E0,9.7737485E-1,9.043307E-1,8.4657305E-1,7.804843E-1,7.085089E-1,6.486599E-1,5.807316E-1,4.9208018E-1,4.2243692E-1,3.839822E-1,3.0334184E-1,2.1420994E-1,1.4849679E-1,7.872664E-2,2.526131E-2,-3.0516593E-2,-9.809583E-2,-1.8948351E-1,-2.5578693E-1,-3.1398258E-1,-3.8807517E-1,-4.5872998E-1,-4.9806723E-1,-5.9091645E-1,-6.5982616E-1,-7.2387934E-1,-7.6724863E-1,-8.326648E-1,-9.080664E-1,-9.9399453E-1,-1.147483E0],"categories":[],"categories_nodes":[],"categories_segments":[],"categories_sizes":[],"default_left":[0,0,0,0,0,0,0,0,0,0,0,0,0,0,0,0,0,0,0,0,0,0,0,0,0,0,0,0,0,0,0,0,0,0,0,0,0,0,0,0,0,0,0,0,0,0,0,0,0,0,0,0,0,0,0,0,0,0,0,0,0,0,0],"id":13,"left_children":[1,3,5,7,9,11,13,15,17,19,21,23,25,27,29,31,33,35,37,39,41,43,45,47,49,51,53,55,57,59,61,-1,-1,-1,-1,-1,-1,-1,-1,-1,-1,-1,-1,-1,-1,-1,-1,-1,-1,-1,-1,-1,-1,-1,-1,-1,-1,-1,-1,-1,-1,-1,-1],"loss_changes":[5.4075315E8,6.6384224E7,6.216011E7,9.384736E6,8.471146E6,8.122016E6,5.9192E6,1.33816E6,1.083848E6,1.041884E6,7.9073275E5,1.271956E6,7.70224E5,1.020856E6,7.6376E5,2.0976E5,8.4752E4,1.548E5,8.896E4,9.8696E4,1.99172E5,1.050255E5,6.867709E4,1.3697025E5,1.13291E5,1.36954E5,3.7944E4,1.33716E5,5.2768E4,2.644E5,1.48396E5,0E0,0E0,0E0,0E0,0E0,0E0,0E0,0E0,0E0,0E0,0E0,0E0,0E0,0E0,0E0,0E0,0E0,0E0,0E0,0E0,0E0,0E0,0E0,0E0,0E0,0E0,0E0,0E0,0E0,0E0,0E0,0E0],"parents":[2147483647,0,0,1,1,2,2,3,3,4,4,5,5,6,6,7,7,8,8,9,9,10,10,11,11,12,12,13,13,14,14,15,15,16,16,17,17,18,18,19,19,20,20,21,21,22,22,23,23,24,24,25,25,26,26,27,27,28,28,29,29,30,30],"right_children":[2,4,6,8,10,12,14,16,18,20,22,24,26,28,30,32,34,36,38,40,42,44,46,48,50,52,54,56,58,60,62,-1,-1,-1,-1,-1,-1,-1,-1,-1,-1,-1,-1,-1,-1,-1,-1,-1,-1,-1,-1,-1,-1,-1,-1,-1,-1,-1,-1,-1,-1,-1,-1],"split_conditions":[3.6E1,1.9E1,5.3E1,1E1,2.8E1,4.5E1,6.3E1,6E0,1.5E1,2.3E1,3.2E1,4.1E1,4.9E1,5.8E1,7.7E1,4E0,8E0,1.2E1,1.6E1,2.2E1,2.5E1,3E1,3.4E1,3.8E1,4.3E1,4.7E1,5.1E1,5.6E1,6E1,6.7E1,8.9E1,1.0598134E0,9.7737485E-1,9.043307E-1,8.4657305E-1,7.804843E-1,7.085089E-1,6.486599E-1,5.807316E-1,4.9208018E-1,4.2243692E-1,3.839822E-1,3.0334184E-1,2.1420994E-1,1.4849679E-1,7.872664E-2,2.526131E-2,-3.0516593E-2,-9.809583E-2,-1.8948351E-1,-2.5578693E-1,-3.1398258E-1,-3.8807517E-1,-4.5872998E-1,-4.9806723E-1,-5.9091645E-1,-6.5982616E-1,-7.2387934E-1,-7.6724863E-1,-8.326648E-1,-9.080664E-1,-9.9399453E-1,-1.147483E0],"split_indices":[0,0,0,0,0,0,0,0,0,0,0,0,0,0,0,0,0,0,0,0,0,0,0,0,0,0,0,0,0,0,0,0,0,0,0,0,0,0,0,0,0,0,0,0,0,0,0,0,0,0,0,0,0,0,0,0,0,0,0,0,0,0,0],"split_type":[0,0,0,0,0,0,0,0,0,0,0,0,0,0,0,0,0,0,0,0,0,0,0,0,0,0,0,0,0,0,0,0,0,0,0,0,0,0,0,0,0,0,0,0,0,0,0,0,0,0,0,0,0,0,0,0,0,0,0,0,0,0,0],"sum_hessian":[4.455763E6,2.204735E6,2.251028E6,1.145261E6,1.059474E6,1.065505E6,1.185523E6,5.82407E5,5.62854E5,5.75502E5,4.83972E5,5.68722E5,4.96783E5,5.87902E5,5.97621E5,3.27426E5,2.54981E5,3.1023E5,2.52624E5,2.6508E5,3.10422E5,2.43278E5,2.40694E5,3.09942E5,2.5878E5,2.50982E5,2.45801E5,3.00323E5,2.87579E5,4.78669E5,1.18952E5,2.02255E5,1.25171E5,1.27752E5,1.27229E5,1.25908E5,1.84322E5,6.4999E4,1.87625E5,1.96335E5,6.8745E4,1.37438E5,1.72984E5,1.20183E5,1.23095E5,1.25492E5,1.15202E5,1.27102E5,1.8284E5,1.37564E5,1.21216E5,1.16052E5,1.3493E5,1.23248E5,1.22553E5,1.87347E5,1.12976E5,1.2329E5,1.64289E5,1.99782E5,2.78887E5,1.00207E5,1.8745E4],"tree_param":{"num_deleted":"0","num_feature":"2","num_nodes":"63","size_leaf_vector":"1"}},{"base_weights":[-4.3907566E-3,1.0566484E1,-1.0355401E1,1.591179E1,5.479733E0,-5.0906925E0,-1.5087187E1,1.8606335E1,1.3461537E1,7.927764E0,2.2272403E0,-2.3322144E0,-7.5796275E0,-1.2948564E1,-1.7189701E1,1.9852781E1,1.7313723E1,1.4838906E1,1.2308317E1,9.31183E0,6.442299E0,3.4365957E0,1.0042709E0,-1.3399179E0,-3.9057152E0,-6.0391016E0,-8.755874E0,-1.1722508E1,-1.422795E1,-1.6693209E1,-1.9542444E1,1.0179709E0,9.6641034E-1,8.939619E-1,8.358076E-1,7.7584106E-1,7.0406854E-1,6.628365E-1,5.8376306E-1,5.072971E-1,4.366086E-1,3.646304E-1,2.8837553E-1,2.2648776E-1,1.5292738E-1,7.484279E-2,2.3382388E-2,-2.8917832E-2,-9.341676E-2,-1.7959884E-1,-2.326248E-1,-2.6423824E-1,-3.396856E-1,-3.9795086E-1,-4.6488816E-1,-5.6147087E-1,-6.2693995E-1,-6.891544E-1,-7.281E-1,-8.0300343E-1,-8.757173E-1,-9.584819E-1,-1.1327639E0],"categories":[],"categories_nodes":[],"categories_segments":[],"categories_sizes":[],"default_left":[0,0,0,0,0,0,0,0,0,0,0,0,0,0,0,0,0,0,0,0,0,0,0,0,0,0,0,0,0,0,0,0,0,0,0,0,0,0,0,0,0,0,0,0,0,0,0,0,0,0,0,0,0,0,0,0,0,0,0,0,0,0,0],"id":14,"left_children":[1,3,5,7,9,11,13,15,17,19,21,23,25,27,29,31,33,35,37,39,41,43,45,47,49,51,53,55,57,59,61,-1,-1,-1,-1,-1,-1,-1,-1,-1,-1,-1,-1,-1,-1,-1,-1,-1,-1,-1,-1,-1,-1,-1,-1,-1,-1,-1,-1,-1,-1,-1,-1],"loss_changes":[4.8769104E8,5.995781E7,5.6099664E7,7.098784E6,8.9964E6,7.318488E6,5.33264E6,8.2472E5,8.94328E5,1.325368E6,7.176405E5,7.8943125E5,1.015332E6,9.22104E5,6.98272E5,6.8888E4,8.4656E4,1.31572E5,1.83884E5,1.61266E5,1.78374E5,1.0081025E5,6.377058E4,1.2477669E5,4.579625E4,1.38067E5,1.37132E5,1.20708E5,4.2556E4,2.56464E5,1.20496E5,0E0,0E0,0E0,0E0,0E0,0E0,0E0,0E0,0E0,0E0,0E0,0E0,0E0,0E0,0E0,0E0,0E0,0E0,0E0,0E0,0E0,0E0,0E0,0E0,0E0,0E0,0E0,0E0,0E0,0E0,0E0,0E0],"parents":[2147483647,0,0,1,1,2,2,3,3,4,4,5,5,6,6,7,7,8,8,9,9,10,10,11,11,12,12,13,13,14,14,15,15,16,16,17,17,18,18,19,19,20,20,21,21,22,22,23,23,24,24,25,25,26,26,27,27,28,28,29,29,30,30],"right_children":[2,4,6,8,10,12,14,16,18,20,22,24,26,28,30,32,34,36,38,40,42,44,46,48,50,52,54,56,58,60,62,-1,-1,-1,-1,-1,-1,-1,-1,-1,-1,-1,-1,-1,-1,-1,-1,-1,-1,-1,-1,-1,-1,-1,-1,-1,-1,-1,-1,-1,-1,-1,-1],"split_conditions":[3.6E1,1.8E1,5.3E1,9E0,2.8E1,4.4E1,6.3E1,5E0,1.3E1,2.3E1,3.2E1,4.1E1,4.8E1,5.8E1,7.8E1,3E0,7E0,1.1E1,1.5E1,2E1,2.5E1,2.9E1,3.4E1,3.8E1,4.3E1,4.6E1,5E1,5.6E1,6E1,6.9E1,9.1E1,1.0179709E0,9.6641034E-1,8.939619E-1,8.358076E-1,7.7584106E-1,7.0406854E-1,6.628365E-1,5.8376306E-1,5.072971E-1,4.366086E-1,3.646304E-1,2.8837553E-1,2.2648776E-1,1.5292738E-1,7.484279E-2,2.3382388E-2,-2.8917832E-2,-9.341676E-2,-1.7959884E-1,-2.326248E-1,-2.6423824E-1,-3.396856E-1,-3.9795086E-1,-4.6488816E-1,-5.6147087E-1,-6.2693995E-1,-6.891544E-1,-7.281E-1,-8.0300343E-1,-8.757173E-1,-9.584819E-1,-1.1327639E0],"split_indices":[0,0,0,0,0,0,0,0,0,0,0,0,0,0,0,0,0,0,0,0,0,0,0,0,0,0,0,0,0,0,0,0,0,0,0,0,0,0,0,0,0,0,0,0,0,0,0,0,0,0,0,0,0,0,0,0,0,0,0,0,0,0,0],"split_type":[0,0,0,0,0,0,0,0,0,0,0,0,0,0,0,0,0,0,0,0,0,0,0,0,0,0,0,0,0,0,0,0,0,0,0,0,0,0,0,0,0,0,0,0,0,0,0,0,0,0,0,0,0,0,0,0,0,0,0,0,0,0,0],"sum_hessian":[4.457085E6,2.205123E6,2.251962E6,1.075234E6,1.129889E6,1.065955E6,1.186007E6,5.12086E5,5.63148E5,6.44669E5,4.8522E5,5.05601E5,5.60354E5,5.87958E5,5.98049E5,2.60691E5,2.51395E5,2.56628E5,3.0652E5,3.33722E5,3.10947E5,2.43967E5,2.41253E5,3.10066E5,1.95535E5,2.42612E5,3.17742E5,3.00242E5,2.87716E5,4.93843E5,1.04206E5,1.32594E5,1.28097E5,1.29147E5,1.22248E5,1.35421E5,1.21207E5,1.22691E5,1.83829E5,1.36822E5,1.969E5,1.37576E5,1.73371E5,6.2688E4,1.81279E5,1.25787E5,1.15466E5,1.27014E5,1.83052E5,1.37693E5,5.7842E4,1.21332E5,1.2128E5,1.2862E5,1.89122E5,1.87185E5,1.13057E5,1.2341E5,1.64306E5,2.78853E5,2.1499E5,9.3067E4,1.1139E4],"tree_param":{"num_deleted":"0","num_feature":"2","num_nodes":"63","size_leaf_vector":"1"}},{"base_weights":[-5.052384E-4,-1.5048796E0,2.4130206E0,-2.1355554E-1,-2.4469519E-1,1.4879456E0,3.4590548E-1,-2.3470662E0,5.440232E-1,2.3841803E-1,-3.2360077E-2,-6.9900775E-1,-3.532146E-1,2.9873816E-2,-1.399933E-1],"categories":[],"categories_nodes":[],"categories_segments":[],"categories_sizes":[],"default_left":[0,0,0,0,0,0,0,0,0,0,0,0,0,0,0],"id":15,"left_children":[1,3,5,7,-1,9,-1,11,-1,-1,-1,13,-1,-1,-1],"loss_changes":[1.6184451E7,1.201707E7,7.133002E6,4.7061896E7,0E0,9.945811E6,0E0,1.2964473E7,0E0,0E0,0E0,3.3661165E6,0E0,0E0,0E0],"parents":[2147483647,0,0,1,1,2,2,3,3,5,5,7,7,11,11],"right_children":[2,4,6,8,-1,10,-1,12,-1,-1,-1,14,-1,-1,-1],"split_conditions":[7E0,6E0,9E0,5E0,-2.4469519E-1,8E0,3.4590548E-1,4E0,5.440232E-1,2.3841803E-1,-3.2360077E-2,3E0,-3.532146E-1,2.9873816E-2,-1.399933E-1],"split_indices":[1,1,1,1,0,1,0,1,0,0,0,1,0,0,0],"split_type":[0,0,0,0,0,0,0,0,0,0,0,0,0,0,0],"sum_hessian":[4.457485E6,2.745924E6,1.711561E6,1.988315E6,7.57609E5,1.419983E6,2.91578E5,1.667614E6,3.20701E5,5.59844E5,8.60139E5,1.235847E6,4.31767E5,7.64227E5,4.7162E5],"tree_param":{"num_deleted":"0","num_feature":"2","num_nodes":"15","size_leaf_vector":"1"}},{"base_weights":[8.234939E-3,-1.4230835E0,2.3023062E0,-1.969748E-1,-2.3212636E-1,1.4215405E0,3.293129E-1,-2.2227352E0,5.168822E-1,2.2689031E-1,-3.0440798E-2,-6.500244E-1,-3.364698E-1,2.936691E-2,-1.3275306E-1],"categories":[],"categories_nodes":[],"categories_segments":[],"categories_sizes":[],"default_left":[0,0,0,0,0,0,0,0,0,0,0,0,0,0,0],"id":16,"left_children":[1,3,5,7,-1,9,-1,11,-1,-1,-1,13,-1,-1,-1],"loss_changes":[1.4631942E7,1.0831876E7,6.459926E6,4.2408836E7,0E0,8.985217E6,0E0,1.1813241E7,0E0,0E0,0E0,3.0653608E6,0E0,0E0,0E0],"parents":[2147483647,0,0,1,1,2,2,3,3,5,5,7,7,11,11],"right_children":[2,4,6,8,-1,10,-1,12,-1,-1,-1,14,-1,-1,-1],"split_conditions":[7E0,6E0,9E0,5E0,-2.3212636E-1,8E0,3.293129E-1,4E0,5.168822E-1,2.2689031E-1,-3.0440798E-2,3E0,-3.364698E-1,2.936691E-2,-1.3275306E-1],"split_indices":[1,1,1,1,0,1,0,1,0,0,0,1,0,0,0],"split_type":[0,0,0,0,0,0,0,0,0,0,0,0,0,0,0],"sum_hessian":[4.456137E6,2.744061E6,1.712076E6,1.987234E6,7.56827E5,1.420108E6,2.91968E5,1.66673E6,3.20504E5,5.60236E5,8.59872E5,1.235554E6,4.31176E5,7.64043E5,4.71511E5],"tree_param":{"num_deleted":"0","num_feature":"2","num_nodes":"15","size_leaf_vector":"1"}},{"base_weights":[-1.2996834E-3,-1.3598446E0,2.1781807E0,-1.9545923E-1,-2.2090797E-1,1.3431557E0,3.1236193E-1,-2.1186996E0,4.900194E-1,2.147607E-1,-2.8915564E-2,-6.309191E-1,-3.1904528E-1,2.7114708E-2,-1.2654953E-1],"categories":[],"categories_nodes":[],"categories_segments":[],"categories_sizes":[],"default_left":[0,0,0,0,0,0,0,0,0,0,0,0,0,0,0],"id":17,"left_children":[1,3,5,7,-1,9,-1,11,-1,-1,-1,13,-1,-1,-1],"loss_changes":[1.3195246E7,9.776006E6,5.8142865E6,3.8223292E7,0E0,8.0537475E6,0E0,1.0573644E7,0E0,0E0,0E0,2.755286E6,0E0,0E0,0E0],"parents":[2147483647,0,0,1,1,2,2,3,3,5,5,7,7,11,11],"right_children":[2,4,6,8,-1,10,-1,12,-1,-1,-1,14,-1,-1,-1],"split_conditions":[7E0,6E0,9E0,5E0,-2.2090797E-1,8E0,3.1236193E-1,4E0,4.900194E-1,2.147607E-1,-2.8915564E-2,3E0,-3.1904528E-1,2.7114708E-2,-1.2654953E-1],"split_indices":[1,1,1,1,0,1,0,1,0,0,0,1,0,0,0],"split_type":[0,0,0,0,0,0,0,0,0,0,0,0,0,0,0],"sum_hessian":[4.456463E6,2.745253E6,1.71121E6,1.988266E6,7.56987E5,1.419841E6,2.91369E5,1.667444E6,3.20822E5,5.59795E5,8.60046E5,1.236002E6,4.31442E5,7.64164E5,4.71838E5],"tree_param":{"num_deleted":"0","num_feature":"2","num_nodes":"15","size_leaf_vector":"1"}},{"base_weights":[6.720369E-4,1.0126739E1,-9.918506E0,1.5203346E1,5.2908053E0,-4.757723E0,-1.4555052E1,1.7760883E1,1.2875332E1,7.8615212E0,2.5280628E0,-2.1493235E0,-7.1080685E0,-1.2240209E1,-1.6832613E1,1.893775E1,1.6538622E1,1.3956587E1,1.1504432E1,9.243955E0,6.714109E0,4.045859E0,1.32646E0,-1.2225585E0,-3.6241112E0,-5.9784985E0,-8.554172E0,-1.0787979E1,-1.3288011E1,-1.6146448E1,-1.9594461E1,9.719518E-1,9.209369E-1,8.543734E-1,7.978617E-1,7.412214E-1,6.6489E-1,6.0743695E-1,5.3991187E-1,4.8664346E-1,4.3613386E-1,3.601641E-1,2.911587E-1,2.3445098E-1,1.6889545E-1,9.048652E-2,2.6607884E-2,-3.5438992E-2,-9.934364E-2,-1.4905798E-1,-1.9786231E-1,-2.4781524E-1,-3.3095208E-1,-4.0769982E-1,-4.4776392E-1,-4.967331E-1,-5.5313337E-1,-6.3698775E-1,-6.939766E-1,-7.715894E-1,-8.571578E-1,-9.509432E-1,-1.1002954E0],"categories":[],"categories_nodes":[],"categories_segments":[],"categories_sizes":[],"default_left":[0,0,0,0,0,0,0,0,0,0,0,0,0,0,0,0,0,0,0,0,0,0,0,0,0,0,0,0,0,0,0,0,0,0,0,0,0,0,0,0,0,0,0,0,0,0,0,0,0,0,0,0,0,0,0,0,0,0,0,0,0,0,0],"id":18,"left_children":[1,3,5,7,9,11,13,15,17,19,21,23,25,27,29,31,33,35,37,39,41,43,45,47,49,51,53,55,57,59,61,-1,-1,-1,-1,-1,-1,-1,-1,-1,-1,-1,-1,-1,-1,-1,-1,-1,-1,-1,-1,-1,-1,-1,-1,-1,-1,-1,-1,-1,-1,-1,-1],"loss_changes":[4.4755315E8,5.4130976E7,5.3860096E7,6.404448E6,8.02001E6,6.53055E6,6.25088E6,7.36992E5,8.34544E5,9.27788E5,9.926585E5,6.9008475E5,9.1524E5,8.94632E5,1.132288E6,6.7584E4,7.996E4,1.79784E5,1.1285E5,6.753E4,1.39267E5,1.033025E5,1.1661194E5,1.2175559E5,4.172125E4,2.05954E5,3.937E4,5.7658E4,1.106E5,3.40736E5,1.6466E5,0E0,0E0,0E0,0E0,0E0,0E0,0E0,0E0,0E0,0E0,0E0,0E0,0E0,0E0,0E0,0E0,0E0,0E0,0E0,0E0,0E0,0E0,0E0,0E0,0E0,0E0,0E0,0E0,0E0,0E0,0E0,0E0],"parents":[2147483647,0,0,1,1,2,2,3,3,4,4,5,5,6,6,7,7,8,8,9,9,10,10,11,11,12,12,13,13,14,14,15,15,16,16,17,17,18,18,19,19,20,20,21,21,22,22,23,23,24,24,25,25,26,26,27,27,28,28,29,29,30,30],"right_children":[2,4,6,8,10,12,14,16,18,20,22,24,26,28,30,32,34,36,38,40,42,44,46,48,50,52,54,56,58,60,62,-1,-1,-1,-1,-1,-1,-1,-1,-1,-1,-1,-1,-1,-1,-1,-1,-1,-1,-1,-1,-1,-1,-1,-1,-1,-1,-1,-1,-1,-1,-1,-1],"split_conditions":[3.6E1,1.8E1,5.3E1,9E0,2.7E1,4.4E1,6.3E1,5E0,1.4E1,2.2E1,3.1E1,4.1E1,4.9E1,5.7E1,7.7E1,3E0,7E0,1.1E1,1.6E1,2E1,2.5E1,2.9E1,3.4E1,3.9E1,4.2E1,4.6E1,5.1E1,5.4E1,6E1,6.9E1,8.8E1,9.719518E-1,9.209369E-1,8.543734E-1,7.978617E-1,7.412214E-1,6.6489E-1,6.0743695E-1,5.3991187E-1,4.8664346E-1,4.3613386E-1,3.601641E-1,2.911587E-1,2.3445098E-1,1.6889545E-1,9.048652E-2,2.6607884E-2,-3.5438992E-2,-9.934364E-2,-1.4905798E-1,-1.9786231E-1,-2.4781524E-1,-3.3095208E-1,-4.0769982E-1,-4.4776392E-1,-4.967331E-1,-5.5313337E-1,-6.3698775E-1,-6.939766E-1,-7.715894E-1,-8.571578E-1,-9.509432E-1,-1.1002954E0],"split_indices":[0,0,0,0,0,0,0,0,0,0,0,0,0,0,0,0,0,0,0,0,0,0,0,0,0,0,0,0,0,0,0,0,0,0,0,0,0,0,0,0,0,0,0,0,0,0,0,0,0,0,0,0,0,0,0,0,0,0,0,0,0,0,0],"split_type":[0,0,0,0,0,0,0,0,0,0,0,0,0,0,0,0,0,0,0,0,0,0,0,0,0,0,0,0,0,0,0,0,0,0,0,0,0,0,0,0,0,0,0,0,0,0,0,0,0,0,0,0,0,0,0,0,0,0,0,0,0,0,0],"sum_hessian":[4.455823E6,2.204917E6,2.250906E6,1.07569E6,1.129227E6,1.065233E6,1.185673E6,5.12574E5,5.63116E5,5.84941E5,5.44286E5,5.049E5,5.60333E5,5.88027E5,5.97646E5,2.61129E5,2.51445E5,3.1481E5,2.48306E5,2.65297E5,3.19644E5,2.40499E5,3.03787E5,3.10059E5,1.94841E5,3.146E5,2.45733E5,2.46456E5,3.41571E5,4.78718E5,1.18928E5,1.32814E5,1.28315E5,1.29328E5,1.22117E5,1.35841E5,1.78969E5,1.29834E5,1.18472E5,1.36889E5,1.28408E5,2.06343E5,1.13301E5,1.2252E5,1.17979E5,1.88872E5,1.14915E5,1.8542E5,1.24639E5,6.6502E4,1.28339E5,1.21198E5,1.93402E5,1.2302E5,1.22713E5,6.0025E4,1.86431E5,1.7728E5,1.64291E5,2.78817E5,1.99901E5,9.6018E4,2.291E4],"tree_param":{"num_deleted":"0","num_feature":"2","num_nodes":"63","size_leaf_vector":"1"}},{"base_weights":[-1.3261821E-4,9.623455E0,-9.426796E0,1.4444E1,5.031372E0,-4.5154576E0,-1.3838976E1,1.687218E1,1.2233958E1,7.4769897E0,2.4084408E0,-2.3151758E0,-7.032549E0,-1.163754E1,-1.5998997E1,1.799695E1,1.57067795E1,1.35058155E1,1.1168242E1,8.787653E0,6.388181E0,3.8497016E0,1.2683569E0,-1.1631855E0,-3.694749E0,-5.9811964E0,-8.104721E0,-1.0489445E1,-1.283671E1,-1.5345892E1,-1.8620285E1,9.234487E-1,8.754468E-1,8.3050203E-1,7.6919204E-1,7.046838E-1,6.423743E-1,5.863897E-1,5.142421E-1,4.6271202E-1,4.1445014E-1,3.553407E-1,2.9081732E-1,2.2305408E-1,1.6060667E-1,8.644669E-2,2.5596155E-2,-2.2019286E-2,-8.324928E-2,-1.5794514E-1,-2.1520534E-1,-2.6429456E-1,-3.2894275E-1,-3.871966E-1,-4.2334396E-1,-5.014593E-1,-5.625124E-1,-6.1837506E-1,-6.594265E-1,-7.1981746E-1,-8.012806E-1,-9.0693015E-1,-1.0596129E0],"categories":[],"categories_nodes":[],"categories_segments":[],"categories_sizes":[],"default_left":[0,0,0,0,0,0,0,0,0,0,0,0,0,0,0,0,0,0,0,0,0,0,0,0,0,0,0,0,0,0,0,0,0,0,0,0,0,0,0,0,0,0,0,0,0,0,0,0,0,0,0,0,0,0,0,0,0,0,0,0,0,0,0],"id":19,"left_children":[1,3,5,7,9,11,13,15,17,19,21,23,25,27,29,31,33,35,37,39,41,43,45,47,49,51,53,55,57,59,61,-1,-1,-1,-1,-1,-1,-1,-1,-1,-1,-1,-1,-1,-1,-1,-1,-1,-1,-1,-1,-1,-1,-1,-1,-1,-1,-1,-1,-1,-1,-1,-1],"loss_changes":[4.043263E8,4.882019E7,4.878944E7,5.77376E6,7.245268E6,5.90097E6,5.639504E6,6.71728E5,7.63336E5,8.34058E5,8.9549475E5,9.03522E5,5.60146E5,8.08552E5,1.024576E6,5.9768E4,7.3196E4,9.9204E4,1.51376E5,6.1632E4,1.31162E5,9.380975E4,1.0601181E5,1.1237022E5,8.445975E4,1.04237E5,3.2083E4,1.04966E5,4.7268E4,3.09088E5,1.47536E5,0E0,0E0,0E0,0E0,0E0,0E0,0E0,0E0,0E0,0E0,0E0,0E0,0E0,0E0,0E0,0E0,0E0,0E0,0E0,0E0,0E0,0E0,0E0,0E0,0E0,0E0,0E0,0E0,0E0,0E0,0E0,0E0],"parents":[2147483647,0,0,1,1,2,2,3,3,4,4,5,5,6,6,7,7,8,8,9,9,10,10,11,11,12,12,13,13,14,14,15,15,16,16,17,17,18,18,19,19,20,20,21,21,22,22,23,23,24,24,25,25,26,26,27,27,28,28,29,29,30,30],"right_children":[2,4,6,8,10,12,14,16,18,20,22,24,26,28,30,32,34,36,38,40,42,44,46,48,50,52,54,56,58,60,62,-1,-1,-1,-1,-1,-1,-1,-1,-1,-1,-1,-1,-1,-1,-1,-1,-1,-1,-1,-1,-1,-1,-1,-1,-1,-1,-1,-1,-1,-1,-1,-1],"split_conditions":[3.6E1,1.8E1,5.3E1,9E0,2.7E1,4.5E1,6.3E1,5E0,1.3E1,2.2E1,3.1E1,4.1E1,4.9E1,5.8E1,7.7E1,3E0,6E0,1.1E1,1.6E1,2E1,2.4E1,2.9E1,3.4E1,3.8E1,4.3E1,4.7E1,5.1E1,5.6E1,6E1,6.7E1,8.9E1,9.234487E-1,8.754468E-1,8.3050203E-1,7.6919204E-1,7.046838E-1,6.423743E-1,5.863897E-1,5.142421E-1,4.6271202E-1,4.1445014E-1,3.553407E-1,2.9081732E-1,2.2305408E-1,1.6060667E-1,8.644669E-2,2.5596155E-2,-2.2019286E-2,-8.324928E-2,-1.5794514E-1,-2.1520534E-1,-2.6429456E-1,-3.2894275E-1,-3.871966E-1,-4.2334396E-1,-5.014593E-1,-5.625124E-1,-6.1837506E-1,-6.594265E-1,-7.1981746E-1,-8.012806E-1,-9.0693015E-1,-1.0596129E0],"split_indices":[0,0,0,0,0,0,0,0,0,0,0,0,0,0,0,0,0,0,0,0,0,0,0,0,0,0,0,0,0,0,0,0,0,0,0,0,0,0,0,0,0,0,0,0,0,0,0,0,0,0,0,0,0,0,0,0,0,0,0,0,0,0,0],"split_type":[0,0,0,0,0,0,0,0,0,0,0,0,0,0,0,0,0,0,0,0,0,0,0,0,0,0,0,0,0,0,0,0,0,0,0,0,0,0,0,0,0,0,0,0,0,0,0,0,0,0,0,0,0,0,0,0,0,0,0,0,0,0,0],"sum_hessian":[4.45694E6,2.205434E6,2.251506E6,1.075951E6,1.129483E6,1.065484E6,1.186022E6,5.12671E5,5.6328E5,5.84497E5,5.44986E5,5.68521E5,4.96963E5,5.87383E5,5.98639E5,2.60876E5,2.51795E5,2.56798E5,3.06482E5,2.65224E5,3.19273E5,2.40699E5,3.04287E5,3.09816E5,2.58705E5,2.50921E5,2.46042E5,3.00087E5,2.87296E5,4.79241E5,1.19398E5,1.32592E5,1.28284E5,6.6301E4,1.85494E5,1.35649E5,1.21149E5,1.87626E5,1.18856E5,1.37008E5,1.28216E5,1.41472E5,1.77801E5,1.2287E5,1.17829E5,1.89129E5,1.15158E5,1.26953E5,1.82863E5,1.37659E5,1.21046E5,1.1599E5,1.34931E5,1.23265E5,1.22777E5,1.86983E5,1.13104E5,1.23125E5,1.64171E5,1.99946E5,2.79295E5,1.00571E5,1.8827E4],"tree_param":{"num_deleted":"0","num_feature":"2","num_nodes":"63","size_leaf_vector":"1"}},{"base_weights":[-2.398928E-3,-1.3549399E0,2.1695104E0,-1.8498462E-1,-2.2152841E-1,1.3501151E0,3.0802563E-1,-2.1040092E0,4.893829E-1,2.1267247E-1,-2.706021E-2,-6.2529165E-1,-3.1723225E-1,2.6618484E-2,-1.2504357E-1],"categories":[],"categories_nodes":[],"categories_segments":[],"categories_sizes":[],"default_left":[0,0,0,0,0,0,0,0,0,0,0,0,0,0,0],"id":20,"left_children":[1,3,5,7,-1,9,-1,11,-1,-1,-1,13,-1,-1,-1],"loss_changes":[1.3095287E7,9.88499E6,5.594441E6,3.8085604E7,0E0,7.793732E6,0E0,1.0465346E7,0E0,0E0,0E0,2.6868245E6,0E0,0E0,0E0],"parents":[2147483647,0,0,1,1,2,2,3,3,5,5,7,7,11,11],"right_children":[2,4,6,8,-1,10,-1,12,-1,-1,-1,14,-1,-1,-1],"split_conditions":[7E0,6E0,9E0,5E0,-2.2152841E-1,8E0,3.0802563E-1,4E0,4.893829E-1,2.1267247E-1,-2.706021E-2,3E0,-3.1723225E-1,2.6618484E-2,-1.2504357E-1],"split_indices":[1,1,1,1,0,1,0,1,0,0,0,1,0,0,0],"split_type":[0,0,0,0,0,0,0,0,0,0,0,0,0,0,0],"sum_hessian":[4.457822E6,2.747091E6,1.710731E6,1.990076E6,7.57015E5,1.419329E6,2.91402E5,1.668927E6,3.21149E5,5.59874E5,8.59455E5,1.237433E6,4.31494E5,7.65157E5,4.72276E5],"tree_param":{"num_deleted":"0","num_feature":"2","num_nodes":"15","size_leaf_vector":"1"}},{"base_weights":[-3.5937978E-3,-1.2856883E0,2.0531046E0,-1.7255446E-1,-2.1030906E-1,1.2736714E0,2.925169E-1,-1.9969E0,4.6544224E-1,2.0154981E-1,-2.6133234E-2,-5.952393E-1,-3.008227E-1,2.520003E-2,-1.1892066E-1],"categories":[],"categories_nodes":[],"categories_segments":[],"categories_sizes":[],"default_left":[0,0,0,0,0,0,0,0,0,0,0,0,0,0,0],"id":21,"left_children":[1,3,5,7,-1,9,-1,11,-1,-1,-1,13,-1,-1,-1],"loss_changes":[1.1752428E7,8.925274E6,5.0653915E6,3.4384172E7,0E0,7.033339E6,0E0,9.392322E6,0E0,0E0,0E0,2.422816E6,0E0,0E0,0E0],"parents":[2147483647,0,0,1,1,2,2,3,3,5,5,7,7,11,11],"right_children":[2,4,6,8,-1,10,-1,12,-1,-1,-1,14,-1,-1,-1],"split_conditions":[7E0,6E0,9E0,5E0,-2.1030906E-1,8E0,2.925169E-1,4E0,4.6544224E-1,2.0154981E-1,-2.6133234E-2,3E0,-3.008227E-1,2.520003E-2,-1.1892066E-1],"split_indices":[1,1,1,1,0,1,0,1,0,0,0,1,0,0,0],"split_type":[0,0,0,0,0,0,0,0,0,0,0,0,0,0,0],"sum_hessian":[4.45694E6,2.745478E6,1.711462E6,1.987827E6,7.57651E5,1.419991E6,2.91471E5,1.667063E6,3.20764E5,5.6016E5,8.59831E5,1.236043E6,4.3102E5,7.64665E5,4.71378E5],"tree_param":{"num_deleted":"0","num_feature":"2","num_nodes":"15","size_leaf_vector":"1"}},{"base_weights":[-1.2133367E-3,-1.2192941E0,1.9526905E0,-1.6246593E-1,-1.9979556E-1,1.2105095E0,2.7879202E-1,-1.8937155E0,4.4217116E-1,1.9131885E-1,-2.44997E-2,-5.618736E-1,-2.857339E-1,2.4213826E-2,-1.1283095E-1],"categories":[],"categories_nodes":[],"categories_segments":[],"categories_sizes":[],"default_left":[0,0,0,0,0,0,0,0,0,0,0,0,0,0,0],"id":22,"left_children":[1,3,5,7,-1,9,-1,11,-1,-1,-1,13,-1,-1,-1],"loss_changes":[1.0608657E7,8.057003E6,4.6027945E6,3.1007494E7,0E0,6.319592E6,0E0,8.488749E6,0E0,0E0,0E0,2.1930402E6,0E0,0E0,0E0],"parents":[2147483647,0,0,1,1,2,2,3,3,5,5,7,7,11,11],"right_children":[2,4,6,8,-1,10,-1,12,-1,-1,-1,14,-1,-1,-1],"split_conditions":[7E0,6E0,9E0,5E0,-1.9979556E-1,8E0,2.7879202E-1,4E0,4.4217116E-1,1.9131885E-1,-2.44997E-2,3E0,-2.857339E-1,2.4213826E-2,-1.1283095E-1],"split_indices":[1,1,1,1,0,1,0,1,0,0,0,1,0,0,0],"split_type":[0,0,0,0,0,0,0,0,0,0,0,0,0,0,0],"sum_hessian":[4.457393E6,2.7457E6,1.711693E6,1.988749E6,7.56951E5,1.420677E6,2.91016E5,1.668085E6,3.20664E5,5.59698E5,8.60979E5,1.236937E6,4.31148E5,7.64821E5,4.72116E5],"tree_param":{"num_deleted":"0","num_feature":"2","num_nodes":"15","size_leaf_vector":"1"}},{"base_weights":[9.0060546E-4,8.96083E0,-9.287995E0,1.3519187E1,4.316992E0,-4.7278957E0,-1.358718E1,1.5815639E1,1.1145264E1,6.6552863E0,1.8580133E0,-2.6319647E0,-7.097018E0,-1.1787025E1,-1.636354E1,1.6893948E1,1.443285E1,1.2168928E1,9.888477E0,7.5965176E0,5.322702E0,3.1471035E0,8.2705927E-1,-1.5956134E0,-3.929607E0,-5.8799253E0,-7.8642616E0,-1.0146334E1,-1.2677966E1,-1.5547718E1,-1.9015654E1,8.708464E-1,8.0230826E-1,7.4637526E-1,6.9668716E-1,6.452247E-1,5.833729E-1,5.189614E-1,4.6840674E-1,4.0691766E-1,3.4223893E-1,2.9112524E-1,2.3997405E-1,1.8427451E-1,1.3111062E-1,7.391449E-2,1.847564E-2,-5.38671E-2,-1.178233E-1,-1.7427859E-1,-2.2008172E-1,-2.6391837E-1,-3.0696937E-1,-3.624741E-1,-4.1392857E-1,-4.8719746E-1,-5.299891E-1,-5.9774804E-1,-6.736128E-1,-7.331623E-1,-8.028876E-1,-9.1878474E-1,-1.0635253E0],"categories":[],"categories_nodes":[],"categories_segments":[],"categories_sizes":[],"default_left":[0,0,0,0,0,0,0,0,0,0,0,0,0,0,0,0,0,0,0,0,0,0,0,0,0,0,0,0,0,0,0,0,0,0,0,0,0,0,0,0,0,0,0,0,0,0,0,0,0,0,0,0,0,0,0,0,0,0,0,0,0,0,0],"id":23,"left_children":[1,3,5,7,9,11,13,15,17,19,21,23,25,27,29,31,33,35,37,39,41,43,45,47,49,51,53,55,57,59,61,-1,-1,-1,-1,-1,-1,-1,-1,-1,-1,-1,-1,-1,-1,-1,-1,-1,-1,-1,-1,-1,-1,-1,-1,-1,-1,-1,-1,-1,-1,-1,-1],"loss_changes":[3.7101885E8,4.80332E7,4.290981E7,6.242448E6,6.462896E6,5.274094E6,5.630464E6,8.67632E5,7.24264E5,7.22606E5,7.281164E5,7.5788875E5,4.65532E5,9.98928E5,9.58504E5,1.44712E5,6.276E4,1.14308E5,6.4446E4,1.37478E5,6.234E4,6.879E4,9.070606E4,1.2355306E5,5.2434E4,3.0057E4,7.783E4,4.3786E4,2.54208E5,1.52648E5,1.50032E5,0E0,0E0,0E0,0E0,0E0,0E0,0E0,0E0,0E0,0E0,0E0,0E0,0E0,0E0,0E0,0E0,0E0,0E0,0E0,0E0,0E0,0E0,0E0,0E0,0E0,0E0,0E0,0E0,0E0,0E0,0E0,0E0],"parents":[2147483647,0,0,1,1,2,2,3,3,4,4,5,5,6,6,7,7,8,8,9,9,10,10,11,11,12,12,13,13,14,14,15,15,16,16,17,17,18,18,19,19,20,20,21,21,22,22,23,23,24,24,25,25,26,26,27,27,28,28,29,29,30,30],"right_children":[2,4,6,8,10,12,14,16,18,20,22,24,26,28,30,32,34,36,38,40,42,44,46,48,50,52,54,56,58,60,62,-1,-1,-1,-1,-1,-1,-1,-1,-1,-1,-1,-1,-1,-1,-1,-1,-1,-1,-1,-1,-1,-1,-1,-1,-1,-1,-1,-1,-1,-1,-1,-1],"split_conditions":[3.7E1,1.9E1,5.4E1,1E1,2.8E1,4.6E1,6.6E1,6E0,1.5E1,2.4E1,3.2E1,4.2E1,4.9E1,5.8E1,7.8E1,4E0,8E0,1.2E1,1.7E1,2.2E1,2.6E1,3E1,3.4E1,4E1,4.4E1,4.7E1,5.1E1,5.6E1,6.2E1,6.9E1,8.8E1,8.708464E-1,8.0230826E-1,7.4637526E-1,6.9668716E-1,6.452247E-1,5.833729E-1,5.189614E-1,4.6840674E-1,4.0691766E-1,3.4223893E-1,2.9112524E-1,2.3997405E-1,1.8427451E-1,1.3111062E-1,7.391449E-2,1.847564E-2,-5.38671E-2,-1.178233E-1,-1.7427859E-1,-2.2008172E-1,-2.6391837E-1,-3.0696937E-1,-3.624741E-1,-4.1392857E-1,-4.8719746E-1,-5.299891E-1,-5.9774804E-1,-6.736128E-1,-7.331623E-1,-8.028876E-1,-9.1878474E-1,-1.0635253E0],"split_indices":[0,0,0,0,0,0,0,0,0,0,0,0,0,0,0,0,0,0,0,0,0,0,0,0,0,0,0,0,0,0,0,0,0,0,0,0,0,0,0,0,0,0,0,0,0,0,0,0,0,0,0,0,0,0,0,0,0,0,0,0,0,0,0],"split_type":[0,0,0,0,0,0,0,0,0,0,0,0,0,0,0,0,0,0,0,0,0,0,0,0,0,0,0,0,0,0,0,0,0,0,0,0,0,0,0,0,0,0,0,0,0,0,0,0,0,0,0,0,0,0,0,0,0,0,0,0,0,0,0],"sum_hessian":[4.457867E6,2.269114E6,2.188753E6,1.145095E6,1.124019E6,1.062147E6,1.126606E6,5.82042E5,5.63053E5,5.76147E5,5.47872E5,5.63568E5,4.98579E5,6.83463E5,4.43143E5,3.27019E5,2.55023E5,3.10301E5,2.52752E5,3.37652E5,2.38495E5,2.43456E5,3.04416E5,3.13331E5,2.50237E5,1.92779E5,3.058E5,2.40531E5,4.42932E5,3.389E5,1.04243E5,2.02241E5,1.24778E5,1.28068E5,1.26955E5,1.2578E5,1.84521E5,1.30065E5,1.22687E5,1.96215E5,1.41437E5,1.21972E5,1.16523E5,1.2018E5,1.23276E5,1.25619E5,1.78797E5,1.86378E5,1.26953E5,1.28946E5,1.21291E5,5.8099E4,1.3468E5,1.23122E5,1.82678E5,1.27453E5,1.13078E5,2.31879E5,2.11053E5,1.23962E5,2.14938E5,8.1205E4,2.3038E4],"tree_param":{"num_deleted":"0","num_feature":"2","num_nodes":"63","size_leaf_vector":"1"}},{"base_weights":[-6.3321725E-3,-1.1955066E0,1.901418E0,-1.614904E-1,-1.956225E-1,1.1866883E0,2.6918313E-1,-1.847574E0,4.3121287E-1,1.8604885E-1,-2.3171393E-2,-5.550246E-1,-2.7774516E-1,2.3159033E-2,-1.1018383E-1],"categories":[],"categories_nodes":[],"categories_segments":[],"categories_sizes":[],"default_left":[0,0,0,0,0,0,0,0,0,0,0,0,0,0,0],"id":24,"left_children":[1,3,5,7,-1,9,-1,11,-1,-1,-1,13,-1,-1,-1],"loss_changes":[1.0112298E7,7.714036E6,4.2598875E6,2.9462536E7,0E0,5.938705E6,0E0,7.996068E6,0E0,0E0,0E0,2.0769924E6,0E0,0E0,0E0],"parents":[2147483647,0,0,1,1,2,2,3,3,5,5,7,7,11,11],"right_children":[2,4,6,8,-1,10,-1,12,-1,-1,-1,14,-1,-1,-1],"split_conditions":[7E0,6E0,9E0,5E0,-1.956225E-1,8E0,2.6918313E-1,4E0,4.3121287E-1,1.8604885E-1,-2.3171393E-2,3E0,-2.7774516E-1,2.3159033E-2,-1.1018383E-1],"split_indices":[1,1,1,1,0,1,0,1,0,0,0,1,0,0,0],"split_type":[0,0,0,0,0,0,0,0,0,0,0,0,0,0,0],"sum_hessian":[4.45741E6,2.745829E6,1.711581E6,1.988895E6,7.56934E5,1.420106E6,2.91475E5,1.668661E6,3.20234E5,5.60017E5,8.60089E5,1.237286E6,4.31375E5,7.64891E5,4.72395E5],"tree_param":{"num_deleted":"0","num_feature":"2","num_nodes":"15","size_leaf_vector":"1"}},{"base_weights":[-3.8525474E-3,8.53253E0,-8.853158E0,1.2864752E1,4.1247325E0,-4.476618E0,-1.298207E1,1.5045512E1,1.0610171E1,6.3324213E0,1.7994378E0,-2.49298E0,-6.713537E0,-1.1201077E1,-1.5728955E1,1.6072489E1,1.3730229E1,1.158685E1,9.409649E0,7.2254653E0,5.0681167E0,3.0214624E0,8.205896E-1,-1.5114896E0,-3.7217968E0,-5.5584884E0,-7.4417458E0,-1.0107105E1,-1.2445347E1,-1.4903426E1,-1.8413101E1,8.2818377E-1,7.6388973E-1,7.102658E-1,6.625591E-1,6.139118E-1,5.557641E-1,4.9398127E-1,4.4542733E-1,3.8723752E-1,3.2505375E-1,2.7805027E-1,2.2754693E-1,1.7662868E-1,1.2611198E-1,7.257398E-2,1.889445E-2,-5.1050257E-2,-1.11469425E-1,-1.640266E-1,-2.0956087E-1,-2.4891892E-1,-2.9041433E-1,-3.4269196E-1,-3.919253E-1,-4.707921E-1,-5.41679E-1,-5.8485657E-1,-6.4152294E-1,-7.006119E-1,-7.7078176E-1,-8.892776E-1,-1.0316913E0],"categories":[],"categories_nodes":[],"categories_segments":[],"categories_sizes":[],"default_left":[0,0,0,0,0,0,0,0,0,0,0,0,0,0,0,0,0,0,0,0,0,0,0,0,0,0,0,0,0,0,0,0,0,0,0,0,0,0,0,0,0,0,0,0,0,0,0,0,0,0,0,0,0,0,0,0,0,0,0,0,0,0,0],"id":25,"left_children":[1,3,5,7,9,11,13,15,17,19,21,23,25,27,29,31,33,35,37,39,41,43,45,47,49,51,53,55,57,59,61,-1,-1,-1,-1,-1,-1,-1,-1,-1,-1,-1,-1,-1,-1,-1,-1,-1,-1,-1,-1,-1,-1,-1,-1,-1,-1,-1,-1,-1,-1,-1,-1],"loss_changes":[3.3667763E8,4.33192E7,3.954387E7,5.62496E6,5.77248E6,4.713718E6,5.508512E6,7.85328E5,6.59468E5,6.5124E5,6.550825E5,6.790525E5,4.19912E5,9.29736E5,9.81136E5,1.27224E5,5.7844E4,1.00992E5,5.9342E4,1.2711E5,6.08425E4,6.213975E4,8.492789E4,1.1021744E5,5.1774E4,2.79475E4,7.1374E4,1.82452E5,9.1944E4,1.544E5,1.44812E5,0E0,0E0,0E0,0E0,0E0,0E0,0E0,0E0,0E0,0E0,0E0,0E0,0E0,0E0,0E0,0E0,0E0,0E0,0E0,0E0,0E0,0E0,0E0,0E0,0E0,0E0,0E0,0E0,0E0,0E0,0E0,0E0],"parents":[2147483647,0,0,1,1,2,2,3,3,4,4,5,5,6,6,7,7,8,8,9,9,10,10,11,11,12,12,13,13,14,14,15,15,16,16,17,17,18,18,19,19,20,20,21,21,22,22,23,23,24,24,25,25,26,26,27,27,28,28,29,29,30,30],"right_children":[2,4,6,8,10,12,14,16,18,20,22,24,26,28,30,32,34,36,38,40,42,44,46,48,50,52,54,56,58,60,62,-1,-1,-1,-1,-1,-1,-1,-1,-1,-1,-1,-1,-1,-1,-1,-1,-1,-1,-1,-1,-1,-1,-1,-1,-1,-1,-1,-1,-1,-1,-1,-1],"split_conditions":[3.7E1,1.9E1,5.4E1,1E1,2.8E1,4.6E1,6.6E1,6E0,1.5E1,2.4E1,3.2E1,4.2E1,4.9E1,6E1,7.8E1,4E0,8E0,1.2E1,1.7E1,2.2E1,2.6E1,3E1,3.4E1,4E1,4.4E1,4.7E1,5.1E1,5.7E1,6.2E1,6.9E1,8.8E1,8.2818377E-1,7.6388973E-1,7.102658E-1,6.625591E-1,6.139118E-1,5.557641E-1,4.9398127E-1,4.4542733E-1,3.8723752E-1,3.2505375E-1,2.7805027E-1,2.2754693E-1,1.7662868E-1,1.2611198E-1,7.257398E-2,1.889445E-2,-5.1050257E-2,-1.11469425E-1,-1.640266E-1,-2.0956087E-1,-2.4891892E-1,-2.9041433E-1,-3.4269196E-1,-3.919253E-1,-4.707921E-1,-5.41679E-1,-5.8485657E-1,-6.4152294E-1,-7.006119E-1,-7.7078176E-1,-8.892776E-1,-1.0316913E0],"split_indices":[0,0,0,0,0,0,0,0,0,0,0,0,0,0,0,0,0,0,0,0,0,0,0,0,0,0,0,0,0,0,0,0,0,0,0,0,0,0,0,0,0,0,0,0,0,0,0,0,0,0,0,0,0,0,0,0,0,0,0,0,0,0,0],"split_type":[0,0,0,0,0,0,0,0,0,0,0,0,0,0,0,0,0,0,0,0,0,0,0,0,0,0,0,0,0,0,0,0,0,0,0,0,0,0,0,0,0,0,0,0,0,0,0,0,0,0,0,0,0,0,0,0,0,0,0,0,0,0,0],"sum_hessian":[4.456881E6,2.26855E6,2.188331E6,1.144082E6,1.124468E6,1.062311E6,1.12602E6,5.81559E5,5.62523E5,5.7682E5,5.47648E5,5.63032E5,4.99279E5,6.83115E5,4.42905E5,3.26565E5,2.54994E5,3.10174E5,2.52349E5,3.3804E5,2.3878E5,2.43568E5,3.0408E5,3.13018E5,2.50014E5,1.93062E5,3.06217E5,3.63517E5,3.19598E5,3.38732E5,1.04173E5,2.0181E5,1.24755E5,1.28012E5,1.26982E5,1.25763E5,1.84411E5,1.30209E5,1.2214E5,1.96889E5,1.41151E5,1.22256E5,1.16524E5,1.20348E5,1.2322E5,1.25388E5,1.78692E5,1.85965E5,1.27053E5,1.28876E5,1.21138E5,5.8117E4,1.34945E5,1.23394E5,1.82823E5,1.8628E5,1.77237E5,1.08612E5,2.10986E5,1.2364E5,2.15092E5,8.1228E4,2.2945E4],"tree_param":{"num_deleted":"0","num_feature":"2","num_nodes":"63","size_leaf_vector":"1"}},{"base_weights":[-1.0604413E-4,8.112192E0,-8.410059E0,1.2227547E1,3.9188206E0,-4.249745E0,-1.2329415E1,1.4294126E1,1.0090493E1,6.023594E0,1.7037101E0,-2.3653536E0,-6.3742914E0,-1.063825E1,-1.4935928E1,1.5265041E1,1.3049689E1,1.1011704E1,8.958928E0,7.112137E0,5.095513E0,2.8585918E0,7.781807E-1,-1.4304129E0,-3.5332737E0,-5.2738423E0,-7.067845E0,-9.597707E0,-1.1825042E1,-1.4074496E1,-1.727897E1,7.867112E-1,7.2538275E-1,6.756573E-1,6.2916684E-1,5.8443016E-1,5.275108E-1,4.868137E-1,4.344178E-1,3.7911755E-1,3.3172718E-1,2.7731937E-1,2.1714678E-1,1.5737586E-1,1.01878524E-1,5.9821934E-2,8.894515E-3,-4.822175E-2,-1.05780974E-1,-1.5617663E-1,-1.9842222E-1,-2.3674877E-1,-2.75381E-1,-3.2549688E-1,-3.7219402E-1,-4.4689402E-1,-5.145521E-1,-5.6617033E-1,-6.1778784E-1,-6.650934E-1,-7.276563E-1,-8.361346E-1,-9.806079E-1],"categories":[],"categories_nodes":[],"categories_segments":[],"categories_sizes":[],"default_left":[0,0,0,0,0,0,0,0,0,0,0,0,0,0,0,0,0,0,0,0,0,0,0,0,0,0,0,0,0,0,0,0,0,0,0,0,0,0,0,0,0,0,0,0,0,0,0,0,0,0,0,0,0,0,0,0,0,0,0,0,0,0,0],"id":26,"left_children":[1,3,5,7,9,11,13,15,17,19,21,23,25,27,29,31,33,35,37,39,41,43,45,47,49,51,53,55,57,59,61,-1,-1,-1,-1,-1,-1,-1,-1,-1,-1,-1,-1,-1,-1,-1,-1,-1,-1,-1,-1,-1,-1,-1,-1,-1,-1,-1,-1,-1,-1,-1,-1],"loss_changes":[3.041406E8,3.915896E7,3.569045E7,5.057616E6,5.240042E6,4.250784E6,4.967936E6,7.03256E5,5.86796E5,5.82186E5,5.853221E5,6.1441975E5,3.80874E5,8.44016E5,8.94912E5,1.15984E5,5.498E4,9.6828E4,5.3058E4,5.9511E4,1.055335E5,5.7783125E4,7.632444E4,9.978256E4,4.45955E4,2.42805E4,6.4177E4,1.66532E5,8.4872E4,1.19724E5,1.54404E5,0E0,0E0,0E0,0E0,0E0,0E0,0E0,0E0,0E0,0E0,0E0,0E0,0E0,0E0,0E0,0E0,0E0,0E0,0E0,0E0,0E0,0E0,0E0,0E0,0E0,0E0,0E0,0E0,0E0,0E0,0E0,0E0],"parents":[2147483647,0,0,1,1,2,2,3,3,4,4,5,5,6,6,7,7,8,8,9,9,10,10,11,11,12,12,13,13,14,14,15,15,16,16,17,17,18,18,19,19,20,20,21,21,22,22,23,23,24,24,25,25,26,26,27,27,28,28,29,29,30,30],"right_children":[2,4,6,8,10,12,14,16,18,20,22,24,26,28,30,32,34,36,38,40,42,44,46,48,50,52,54,56,58,60,62,-1,-1,-1,-1,-1,-1,-1,-1,-1,-1,-1,-1,-1,-1,-1,-1,-1,-1,-1,-1,-1,-1,-1,-1,-1,-1,-1,-1,-1,-1,-1,-1],"split_conditions":[3.7E1,1.9E1,5.4E1,1E1,2.8E1,4.6E1,6.6E1,6E0,1.5E1,2.3E1,3.2E1,4.2E1,4.9E1,6E1,7.7E1,4E0,8E0,1.2E1,1.6E1,2.1E1,2.6E1,3.1E1,3.5E1,4E1,4.4E1,4.7E1,5.1E1,5.7E1,6.3E1,6.9E1,8.8E1,7.867112E-1,7.2538275E-1,6.756573E-1,6.2916684E-1,5.8443016E-1,5.275108E-1,4.868137E-1,4.344178E-1,3.7911755E-1,3.3172718E-1,2.7731937E-1,2.1714678E-1,1.5737586E-1,1.01878524E-1,5.9821934E-2,8.894515E-3,-4.822175E-2,-1.05780974E-1,-1.5617663E-1,-1.9842222E-1,-2.3674877E-1,-2.75381E-1,-3.2549688E-1,-3.7219402E-1,-4.4689402E-1,-5.145521E-1,-5.6617033E-1,-6.1778784E-1,-6.650934E-1,-7.276563E-1,-8.361346E-1,-9.806079E-1],"split_indices":[0,0,0,0,0,0,0,0,0,0,0,0,0,0,0,0,0,0,0,0,0,0,0,0,0,0,0,0,0,0,0,0,0,0,0,0,0,0,0,0,0,0,0,0,0,0,0,0,0,0,0,0,0,0,0,0,0,0,0,0,0,0,0],"split_type":[0,0,0,0,0,0,0,0,0,0,0,0,0,0,0,0,0,0,0,0,0,0,0,0,0,0,0,0,0,0,0,0,0,0,0,0,0,0,0,0,0,0,0,0,0,0,0,0,0,0,0,0,0,0,0,0,0,0,0,0,0,0,0],"sum_hessian":[4.457966E6,2.269139E6,2.188827E6,1.145222E6,1.123917E6,1.061776E6,1.127051E6,5.82208E5,5.63014E5,5.76311E5,5.47606E5,5.62692E5,4.99084E5,6.83552E5,4.43499E5,3.27039E5,2.55169E5,3.10349E5,2.52665E5,2.65224E5,3.11087E5,2.43617E5,3.03989E5,3.12518E5,2.50174E5,1.92947E5,3.06137E5,3.64222E5,3.1933E5,3.24282E5,1.19217E5,2.01929E5,1.2511E5,1.27968E5,1.27201E5,1.25802E5,1.84547E5,6.5229E4,1.87436E5,1.33637E5,1.31587E5,1.94534E5,1.16553E5,1.802E5,6.3417E4,1.79158E5,1.24831E5,1.86018E5,1.265E5,1.28856E5,1.21318E5,5.8386E4,1.34561E5,1.23268E5,1.82869E5,1.86628E5,1.77594E5,1.64174E5,1.55156E5,1.24055E5,2.00227E5,9.6272E4,2.2945E4],"tree_param":{"num_deleted":"0","num_feature":"2","num_nodes":"63","size_leaf_vector":"1"}},{"base_weights":[4.833259E-4,7.7022324E0,-7.984952E0,1.160909E1,3.7226603E0,-4.0344715E0,-1.1707631E1,1.3577089E1,9.575976E0,5.7180967E0,1.6209555E0,-2.239906E0,-6.060252E0,-1.010115E1,-1.4182026E1,1.450056E1,1.2391458E1,1.0453979E1,8.498038E0,6.529044E0,4.567182E0,2.72273E0,7.3854023E-1,-1.1032832E0,-3.1261704E0,-5.2301807E0,-6.8927426E0,-9.114314E0,-1.1225434E1,-1.3364832E1,-1.6406868E1,7.4722904E-1,6.8919665E-1,6.4145076E-1,5.975045E-1,5.5428714E-1,5.0111985E-1,4.4688803E-1,4.0157294E-1,3.498083E-1,2.939041E-1,2.5020745E-1,2.0548423E-1,1.760025E-1,1.224188E-1,6.54577E-2,1.6882142E-2,-3.3248562E-2,-7.6500915E-2,-1.2500666E-1,-1.8034412E-1,-2.382022E-1,-2.8346443E-1,-3.3326802E-1,-3.805293E-1,-4.247764E-1,-4.8828873E-1,-5.2729136E-1,-5.78746E-1,-6.3207483E-1,-6.906949E-1,-7.938617E-1,-9.3128026E-1],"categories":[],"categories_nodes":[],"categories_segments":[],"categories_sizes":[],"default_left":[0,0,0,0,0,0,0,0,0,0,0,0,0,0,0,0,0,0,0,0,0,0,0,0,0,0,0,0,0,0,0,0,0,0,0,0,0,0,0,0,0,0,0,0,0,0,0,0,0,0,0,0,0,0,0,0,0,0,0,0,0,0,0],"id":27,"left_children":[1,3,5,7,9,11,13,15,17,19,21,23,25,27,29,31,33,35,37,39,41,43,45,47,49,51,53,55,57,59,61,-1,-1,-1,-1,-1,-1,-1,-1,-1,-1,-1,-1,-1,-1,-1,-1,-1,-1,-1,-1,-1,-1,-1,-1,-1,-1,-1,-1,-1,-1,-1,-1],"loss_changes":[2.7410285E8,3.527301E7,3.2179168E7,4.580464E6,4.713415E6,3.859244E6,4.47792E6,6.36744E5,5.3284E5,5.3806E5,5.3216825E5,5.67048E5,3.44554E5,7.57752E5,8.06064E5,1.03848E5,4.9032E4,8.4504E4,5.1788E4,1.02803E5,4.76215E4,5.3241125E4,6.9529516E4,4.612853E4,9.517675E4,5.1083E4,4.0588E4,1.46562E5,7.5716E4,1.05184E5,1.39694E5,0E0,0E0,0E0,0E0,0E0,0E0,0E0,0E0,0E0,0E0,0E0,0E0,0E0,0E0,0E0,0E0,0E0,0E0,0E0,0E0,0E0,0E0,0E0,0E0,0E0,0E0,0E0,0E0,0E0,0E0,0E0,0E0],"parents":[2147483647,0,0,1,1,2,2,3,3,4,4,5,5,6,6,7,7,8,8,9,9,10,10,11,11,12,12,13,13,14,14,15,15,16,16,17,17,18,18,19,19,20,20,21,21,22,22,23,23,24,24,25,25,26,26,27,27,28,28,29,29,30,30],"right_children":[2,4,6,8,10,12,14,16,18,20,22,24,26,28,30,32,34,36,38,40,42,44,46,48,50,52,54,56,58,60,62,-1,-1,-1,-1,-1,-1,-1,-1,-1,-1,-1,-1,-1,-1,-1,-1,-1,-1,-1,-1,-1,-1,-1,-1,-1,-1,-1,-1,-1,-1,-1,-1],"split_conditions":[3.7E1,1.9E1,5.4E1,1E1,2.8E1,4.6E1,6.6E1,6E0,1.5E1,2.4E1,3.2E1,4.1E1,5E1,6E1,7.7E1,4E0,8E0,1.2E1,1.7E1,2.2E1,2.6E1,2.9E1,3.4E1,3.9E1,4.3E1,4.8E1,5.3E1,5.7E1,6.2E1,6.9E1,8.8E1,7.4722904E-1,6.8919665E-1,6.4145076E-1,5.975045E-1,5.5428714E-1,5.0111985E-1,4.4688803E-1,4.0157294E-1,3.498083E-1,2.939041E-1,2.5020745E-1,2.0548423E-1,1.760025E-1,1.224188E-1,6.54577E-2,1.6882142E-2,-3.3248562E-2,-7.6500915E-2,-1.2500666E-1,-1.8034412E-1,-2.382022E-1,-2.8346443E-1,-3.3326802E-1,-3.805293E-1,-4.247764E-1,-4.8828873E-1,-5.2729136E-1,-5.78746E-1,-6.3207483E-1,-6.906949E-1,-7.938617E-1,-9.3128026E-1],"split_indices":[0,0,0,0,0,0,0,0,0,0,0,0,0,0,0,0,0,0,0,0,0,0,0,0,0,0,0,0,0,0,0,0,0,0,0,0,0,0,0,0,0,0,0,0,0,0,0,0,0,0,0,0,0,0,0,0,0,0,0,0,0,0,0],"split_type":[0,0,0,0,0,0,0,0,0,0,0,0,0,0,0,0,0,0,0,0,0,0,0,0,0,0,0,0,0,0,0,0,0,0,0,0,0,0,0,0,0,0,0,0,0,0,0,0,0,0,0,0,0,0,0,0,0,0,0,0,0,0,0],"sum_hessian":[4.456823E6,2.26871E6,2.188113E6,1.144813E6,1.123897E6,1.061577E6,1.126536E6,5.81719E5,5.63094E5,5.76523E5,5.47374E5,5.62914E5,4.98663E5,6.83066E5,4.4347E5,3.27007E5,2.54712E5,3.10322E5,2.52772E5,3.38211E5,2.38312E5,2.43429E5,3.03945E5,2.46624E5,3.1629E5,2.49698E5,2.48965E5,3.63774E5,3.19292E5,3.24344E5,1.19126E5,2.01894E5,1.25113E5,1.27894E5,1.26818E5,1.25941E5,1.84381E5,1.30122E5,1.2265E5,1.96905E5,1.41306E5,1.21886E5,1.16426E5,6.2316E4,1.81113E5,1.25423E5,1.78522E5,1.21663E5,1.24961E5,1.37382E5,1.78908E5,1.21127E5,1.28571E5,1.89082E5,5.9883E4,1.86573E5,1.77201E5,1.08444E5,2.10848E5,1.24245E5,2.00099E5,9.6176E4,2.295E4],"tree_param":{"num_deleted":"0","num_feature":"2","num_nodes":"63","size_leaf_vector":"1"}},{"base_weights":[2.4475676E-3,-1.2098076E0,1.9480833E0,-1.401662E-1,-2.010283E-1,1.2296466E0,2.7230296E-1,-1.8760697E0,4.4406492E-1,1.8805452E-1,-2.0870296E-2,-5.6486255E-1,-2.8157642E-1,2.2620171E-2,-1.107121E-1],"categories":[],"categories_nodes":[],"categories_segments":[],"categories_sizes":[],"default_left":[0,0,0,0,0,0,0,0,0,0,0,0,0,0,0],"id":28,"left_children":[1,3,5,7,-1,9,-1,11,-1,-1,-1,13,-1,-1,-1],"loss_changes":[1.0514371E7,8.2576E6,4.3006025E6,3.1156036E7,0E0,5.919357E6,0E0,8.2157015E6,0E0,0E0,0E0,2.0749472E6,0E0,0E0,0E0],"parents":[2147483647,0,0,1,1,2,2,3,3,5,5,7,7,11,11],"right_children":[2,4,6,8,-1,10,-1,12,-1,-1,-1,14,-1,-1,-1],"split_conditions":[7E0,6E0,9E0,5E0,-2.010283E-1,8E0,2.7230296E-1,4E0,4.4406492E-1,1.8805452E-1,-2.0870296E-2,3E0,-2.8157642E-1,2.2620171E-2,-1.107121E-1],"split_indices":[1,1,1,1,0,1,0,1,0,0,0,1,0,0,0],"split_type":[0,0,0,0,0,0,0,0,0,0,0,0,0,0,0],"sum_hessian":[4.457871E6,2.746578E6,1.711293E6,1.989478E6,7.571E5,1.419706E6,2.91587E5,1.668439E6,3.21039E5,5.5961E5,8.60096E5,1.236663E6,4.31776E5,7.64904E5,4.71759E5],"tree_param":{"num_deleted":"0","num_feature":"2","num_nodes":"15","size_leaf_vector":"1"}},{"base_weights":[-1.8608997E-3,7.5514426E0,-7.397683E0,1.1281151E1,3.9974961E0,-3.5957367E0,-1.1199059E1,1.315257E1,9.577741E0,5.872812E0,1.9871433E0,-1.7089212E0,-5.522259E0,-9.599907E0,-1.3664717E1,1.4011933E1,1.2261777E1,1.0400922E1,8.532015E0,6.8745327E0,5.041573E0,3.083165E0,1.1193873E0,-8.363063E-1,-2.7557325E0,-4.5081882E0,-6.35256E0,-8.217111E0,-1.0348538E1,-1.29018545E1,-1.615265E1,7.2100884E-1,6.794589E-1,6.342339E-1,5.907721E-1,5.506492E-1,4.9684983E-1,4.4859105E-1,4.0249777E-1,3.6431545E-1,3.2176378E-1,2.806465E-1,2.2936927E-1,1.7575505E-1,1.3163222E-1,8.404607E-2,3.5242714E-2,-2.118104E-2,-7.25634E-2,-1.1793184E-1,-1.6031931E-1,-1.9980389E-1,-2.4745575E-1,-2.9119506E-1,-3.3539417E-1,-3.9342535E-1,-4.3045458E-1,-4.8645756E-1,-5.514428E-1,-6.040455E-1,-6.6876006E-1,-7.8264326E-1,-9.1997975E-1],"categories":[],"categories_nodes":[],"categories_segments":[],"categories_sizes":[],"default_left":[0,0,0,0,0,0,0,0,0,0,0,0,0,0,0,0,0,0,0,0,0,0,0,0,0,0,0,0,0,0,0,0,0,0,0,0,0,0,0,0,0,0,0,0,0,0,0,0,0,0,0,0,0,0,0,0,0,0,0,0,0,0,0],"id":29,"left_children":[1,3,5,7,9,11,13,15,17,19,21,23,25,27,29,31,33,35,37,39,41,43,45,47,49,51,53,55,57,59,61,-1,-1,-1,-1,-1,-1,-1,-1,-1,-1,-1,-1,-1,-1,-1,-1,-1,-1,-1,-1,-1,-1,-1,-1,-1,-1,-1,-1,-1,-1,-1,-1],"loss_changes":[2.4896917E8,2.9226568E7,3.25454E7,3.429488E6,4.256616E6,4.092455E6,4.439712E6,3.92264E5,4.8474E5,4.8637E5,5.1825375E5,5.1956525E5,4.69012E5,7.07E5,8.4056E5,4.4836E4,4.7364E4,8.9372E4,5.2522E4,4.7868E4,8.28195E4,4.6847E4,7.079228E4,7.872528E4,4.626675E4,5.66075E4,5.7495E4,3.2716E4,1.86616E5,1.31588E5,1.16452E5,0E0,0E0,0E0,0E0,0E0,0E0,0E0,0E0,0E0,0E0,0E0,0E0,0E0,0E0,0E0,0E0,0E0,0E0,0E0,0E0,0E0,0E0,0E0,0E0,0E0,0E0,0E0,0E0,0E0,0E0,0E0,0E0],"parents":[2147483647,0,0,1,1,2,2,3,3,4,4,5,5,6,6,7,7,8,8,9,9,10,10,11,11,12,12,13,13,14,14,15,15,16,16,17,17,18,18,19,19,20,20,21,21,22,22,23,23,24,24,25,25,26,26,27,27,28,28,29,29,30,30],"right_children":[2,4,6,8,10,12,14,16,18,20,22,24,26,28,30,32,34,36,38,40,42,44,46,48,50,52,54,56,58,60,62,-1,-1,-1,-1,-1,-1,-1,-1,-1,-1,-1,-1,-1,-1,-1,-1,-1,-1,-1,-1,-1,-1,-1,-1,-1,-1,-1,-1,-1,-1,-1,-1],"split_conditions":[3.6E1,1.8E1,5.4E1,9E0,2.7E1,4.5E1,6.6E1,5E0,1.4E1,2.2E1,3.1E1,4.1E1,4.9E1,5.8E1,7.8E1,3E0,7E0,1.1E1,1.6E1,2E1,2.4E1,2.9E1,3.3E1,3.9E1,4.3E1,4.7E1,5.1E1,5.6E1,6.2E1,6.9E1,8.9E1,7.2100884E-1,6.794589E-1,6.342339E-1,5.907721E-1,5.506492E-1,4.9684983E-1,4.4859105E-1,4.0249777E-1,3.6431545E-1,3.2176378E-1,2.806465E-1,2.2936927E-1,1.7575505E-1,1.3163222E-1,8.404607E-2,3.5242714E-2,-2.118104E-2,-7.25634E-2,-1.1793184E-1,-1.6031931E-1,-1.9980389E-1,-2.4745575E-1,-2.9119506E-1,-3.3539417E-1,-3.9342535E-1,-4.3045458E-1,-4.8645756E-1,-5.514428E-1,-6.040455E-1,-6.6876006E-1,-7.8264326E-1,-9.1997975E-1],"split_indices":[0,0,0,0,0,0,0,0,0,0,0,0,0,0,0,0,0,0,0,0,0,0,0,0,0,0,0,0,0,0,0,0,0,0,0,0,0,0,0,0,0,0,0,0,0,0,0,0,0,0,0,0,0,0,0,0,0,0,0,0,0,0,0],"split_type":[0,0,0,0,0,0,0,0,0,0,0,0,0,0,0,0,0,0,0,0,0,0,0,0,0,0,0,0,0,0,0,0,0,0,0,0,0,0,0,0,0,0,0,0,0,0,0,0,0,0,0,0,0,0,0,0,0,0,0,0,0,0,0],"sum_hessian":[4.456788E6,2.204919E6,2.251869E6,1.075855E6,1.129064E6,1.125851E6,1.126018E6,5.12643E5,5.63212E5,5.8415E5,5.44914E5,5.68788E5,5.57063E5,6.8303E5,4.42988E5,2.60917E5,2.51726E5,3.15134E5,2.48078E5,2.64906E5,3.19244E5,2.40786E5,3.04128E5,3.10205E5,2.58583E5,2.50782E5,3.06281E5,2.39908E5,4.43122E5,3.39037E5,1.03951E5,1.3272E5,1.28197E5,1.29242E5,1.22484E5,1.35864E5,1.7927E5,1.29715E5,1.18363E5,1.36722E5,1.28184E5,1.4138E5,1.77864E5,1.22925E5,1.17861E5,1.29161E5,1.74967E5,1.85633E5,1.24572E5,1.37463E5,1.2112E5,1.1603E5,1.34752E5,1.23119E5,1.83162E5,1.26991E5,1.12917E5,2.31956E5,2.11166E5,1.24002E5,2.15035E5,8.5043E4,1.8908E4],"tree_param":{"num_deleted":"0","num_feature":"2","num_nodes":"63","size_leaf_vector":"1"}},{"base_weights":[1.4077451E-4,-1.1759996E0,1.8876774E0,-1.337381E-1,-1.9596468E-1,1.1905451E0,2.6421613E-1,-1.8204608E0,4.3138576E-1,1.8136595E-1,-1.9764725E-2,-5.5451494E-1,-2.72285E-1,2.1223007E-2,-1.0703608E-1],"categories":[],"categories_nodes":[],"categories_segments":[],"categories_sizes":[],"default_left":[0,0,0,0,0,0,0,0,0,0,0,0,0,0,0],"id":30,"left_children":[1,3,5,7,-1,9,-1,11,-1,-1,-1,13,-1,-1,-1],"loss_changes":[9.894676E6,7.851424E6,4.051612E6,2.9407794E7,0E0,5.486105E6,0E0,7.658257E6,0E0,0E0,0E0,1.9205818E6,0E0,0E0,0E0],"parents":[2147483647,0,0,1,1,2,2,3,3,5,5,7,7,11,11],"right_children":[2,4,6,8,-1,10,-1,12,-1,-1,-1,14,-1,-1,-1],"split_conditions":[7E0,6E0,9E0,5E0,-1.9596468E-1,8E0,2.6421613E-1,4E0,4.3138576E-1,1.8136595E-1,-1.9764725E-2,3E0,-2.72285E-1,2.1223007E-2,-1.0703608E-1],"split_indices":[1,1,1,1,0,1,0,1,0,0,0,1,0,0,0],"split_type":[0,0,0,0,0,0,0,0,0,0,0,0,0,0,0],"sum_hessian":[4.457043E6,2.745992E6,1.711051E6,1.98995E6,7.56042E5,1.419676E6,2.91375E5,1.668699E6,3.21251E5,5.5968E5,8.59996E5,1.236804E6,4.31895E5,7.64791E5,4.72013E5],"tree_param":{"num_deleted":"0","num_feature":"2","num_nodes":"15","size_leaf_vector":"1"}},{"base_weights":[2.7921346E-3,-1.1121168E0,1.7920532E0,-1.2057061E-1,-1.8580471E-1,1.1308901E0,2.5054958E-1,-1.7234242E0,4.1049567E-1,1.7208031E-1,-1.8726323E-2,-5.191763E-1,-2.590742E-1,2.0673629E-2,-1.0143024E-1],"categories":[],"categories_nodes":[],"categories_segments":[],"categories_sizes":[],"default_left":[0,0,0,0,0,0,0,0,0,0,0,0,0,0,0],"id":31,"left_children":[1,3,5,7,-1,9,-1,11,-1,-1,-1,13,-1,-1,-1],"loss_changes":[8.891103E6,7.089969E6,3.641502E6,2.6554238E7,0E0,4.937797E6,0E0,6.945332E6,0E0,0E0,0E0,1.7414365E6,0E0,0E0,0E0],"parents":[2147483647,0,0,1,1,2,2,3,3,5,5,7,7,11,11],"right_children":[2,4,6,8,-1,10,-1,12,-1,-1,-1,14,-1,-1,-1],"split_conditions":[7E0,6E0,9E0,5E0,-1.8580471E-1,8E0,2.5054958E-1,4E0,4.1049567E-1,1.7208031E-1,-1.8726323E-2,3E0,-2.590742E-1,2.0673629E-2,-1.0143024E-1],"split_indices":[1,1,1,1,0,1,0,1,0,0,0,1,0,0,0],"split_type":[0,0,0,0,0,0,0,0,0,0,0,0,0,0,0],"sum_hessian":[4.456997E6,2.745959E6,1.711038E6,1.9887E6,7.57259E5,1.419481E6,2.91557E5,1.667802E6,3.20898E5,5.59967E5,8.59514E5,1.237019E6,4.30783E5,7.64592E5,4.72427E5],"tree_param":{"num_deleted":"0","num_feature":"2","num_nodes":"15","size_leaf_vector":"1"}},{"base_weights":[1.135366E-3,7.0210447E0,-7.279336E0,1.0546084E1,3.4278305E0,-3.5797458E0,-1.0769018E1,1.2317023E1,8.713796E0,5.2169504E0,1.5468688E0,-1.9737917E0,-5.3905993E0,-9.107952E0,-1.3328676E1,1.3146551E1,1.1252867E1,9.714224E0,7.939076E0,6.165245E0,4.410997E0,2.5365458E0,7.534199E-1,-1.1725739E0,-2.9765465E0,-4.6430683E0,-6.140502E0,-8.151059E0,-1.01979E1,-1.2422384E1,-1.5793778E1,6.7708683E-1,6.253874E-1,5.8205974E-1,5.4304975E-1,5.048881E-1,4.654928E-1,4.281435E-1,3.7534297E-1,3.2924247E-1,2.8689158E-1,2.4006985E-1,1.8797725E-1,1.4871582E-1,1.0539585E-1,5.666692E-2,1.04877E-2,-2.7920807E-2,-7.823039E-2,-1.305168E-1,-1.683333E-1,-2.113206E-1,-2.5183365E-1,-2.968877E-1,-3.3896822E-1,-3.7881783E-1,-4.3776903E-1,-4.8622394E-1,-5.3492326E-1,-5.908327E-1,-6.526621E-1,-7.420579E-1,-8.590833E-1],"categories":[],"categories_nodes":[],"categories_segments":[],"categories_sizes":[],"default_left":[0,0,0,0,0,0,0,0,0,0,0,0,0,0,0,0,0,0,0,0,0,0,0,0,0,0,0,0,0,0,0,0,0,0,0,0,0,0,0,0,0,0,0,0,0,0,0,0,0,0,0,0,0,0,0,0,0,0,0,0,0,0,0],"id":32,"left_children":[1,3,5,7,9,11,13,15,17,19,21,23,25,27,29,31,33,35,37,39,41,43,45,47,49,51,53,55,57,59,61,-1,-1,-1,-1,-1,-1,-1,-1,-1,-1,-1,-1,-1,-1,-1,-1,-1,-1,-1,-1,-1,-1,-1,-1,-1,-1,-1,-1,-1,-1,-1,-1],"loss_changes":[2.2780797E8,2.8743272E7,2.8248848E7,3.716944E6,3.781809E6,3.088719E6,4.787288E6,5.14048E5,4.36284E5,4.4016E5,4.3018612E5,4.5224025E5,2.79811E5,7.12108E5,9.89792E5,8.246E4,3.8702E4,3.8014E4,8.5484E4,4.7419E4,7.9166E4,4.573525E4,6.2802984E4,7.5334375E4,3.57085E4,4.0978E4,3.2238E4,1.26222E5,7.5548E4,1.23656E5,1.57234E5,0E0,0E0,0E0,0E0,0E0,0E0,0E0,0E0,0E0,0E0,0E0,0E0,0E0,0E0,0E0,0E0,0E0,0E0,0E0,0E0,0E0,0E0,0E0,0E0,0E0,0E0,0E0,0E0,0E0,0E0,0E0,0E0],"parents":[2147483647,0,0,1,1,2,2,3,3,4,4,5,5,6,6,7,7,8,8,9,9,10,10,11,11,12,12,13,13,14,14,15,15,16,16,17,17,18,18,19,19,20,20,21,21,22,22,23,23,24,24,25,25,26,26,27,27,28,28,29,29,30,30],"right_children":[2,4,6,8,10,12,14,16,18,20,22,24,26,28,30,32,34,36,38,40,42,44,46,48,50,52,54,56,58,60,62,-1,-1,-1,-1,-1,-1,-1,-1,-1,-1,-1,-1,-1,-1,-1,-1,-1,-1,-1,-1,-1,-1,-1,-1,-1,-1,-1,-1,-1,-1,-1,-1],"split_conditions":[3.7E1,1.9E1,5.4E1,1E1,2.8E1,4.6E1,6.6E1,6E0,1.4E1,2.3E1,3.2E1,4.2E1,5E1,6E1,7.7E1,4E0,8E0,1.2E1,1.6E1,2.1E1,2.6E1,3E1,3.5E1,3.9E1,4.4E1,4.8E1,5.3E1,5.7E1,6.3E1,7E1,8.3E1,6.7708683E-1,6.253874E-1,5.8205974E-1,5.4304975E-1,5.048881E-1,4.654928E-1,4.281435E-1,3.7534297E-1,3.2924247E-1,2.8689158E-1,2.4006985E-1,1.8797725E-1,1.4871582E-1,1.0539585E-1,5.666692E-2,1.04877E-2,-2.7920807E-2,-7.823039E-2,-1.305168E-1,-1.683333E-1,-2.113206E-1,-2.5183365E-1,-2.968877E-1,-3.3896822E-1,-3.7881783E-1,-4.3776903E-1,-4.8622394E-1,-5.3492326E-1,-5.908327E-1,-6.526621E-1,-7.420579E-1,-8.590833E-1],"split_indices":[0,0,0,0,0,0,0,0,0,0,0,0,0,0,0,0,0,0,0,0,0,0,0,0,0,0,0,0,0,0,0,0,0,0,0,0,0,0,0,0,0,0,0,0,0,0,0,0,0,0,0,0,0,0,0,0,0,0,0,0,0,0,0],"split_type":[0,0,0,0,0,0,0,0,0,0,0,0,0,0,0,0,0,0,0,0,0,0,0,0,0,0,0,0,0,0,0,0,0,0,0,0,0,0,0,0,0,0,0,0,0,0,0,0,0,0,0,0,0,0,0,0,0,0,0,0,0,0,0],"sum_hessian":[4.45736E6,2.269288E6,2.188072E6,1.14551E6,1.123778E6,1.062094E6,1.125978E6,5.82504E5,5.63006E5,5.75949E5,5.47829E5,5.62894E5,4.992E5,6.82852E5,4.43126E5,3.27332E5,2.55172E5,2.45705E5,3.17301E5,2.64605E5,3.11344E5,2.4377E5,3.04059E5,3.12891E5,2.50003E5,2.49999E5,2.49201E5,3.63625E5,3.19227E5,3.2401E5,1.19116E5,2.02215E5,1.25117E5,1.28151E5,1.27021E5,1.26088E5,1.19617E5,1.29861E5,1.8744E5,1.33515E5,1.3109E5,1.94674E5,1.1667E5,1.20596E5,1.23174E5,1.78983E5,1.25076E5,1.2191E5,1.90981E5,1.28957E5,1.21046E5,1.21449E5,1.2855E5,1.89175E5,6.0026E4,1.86387E5,1.77238E5,1.64072E5,1.55155E5,1.65307E5,1.58703E5,7.0641E4,4.8475E4],"tree_param":{"num_deleted":"0","num_feature":"2","num_nodes":"63","size_leaf_vector":"1"}},{"base_weights":[1.5745081E-3,-1.0829179E0,1.740421E0,-1.1641696E-1,-1.8094116E-1,1.103994E0,2.4224953E-1,-1.6784717E0,3.9963397E-1,1.6703735E-1,-1.7508242E-2,-5.12456E-1,-2.5104535E-1,1.9325381E-2,-9.8454334E-2],"categories":[],"categories_nodes":[],"categories_segments":[],"categories_sizes":[],"default_left":[0,0,0,0,0,0,0,0,0,0,0,0,0,0,0],"id":33,"left_children":[1,3,5,7,-1,9,-1,11,-1,-1,-1,13,-1,-1,-1],"loss_changes":[8.404377E6,6.7274625E6,3.382443E6,2.5173962E7,0E0,4.62089E6,0E0,6.4944805E6,0E0,0E0,0E0,1.6177261E6,0E0,0E0,0E0],"parents":[2147483647,0,0,1,1,2,2,3,3,5,5,7,7,11,11],"right_children":[2,4,6,8,-1,10,-1,12,-1,-1,-1,14,-1,-1,-1],"split_conditions":[7E0,6E0,9E0,5E0,-1.8094116E-1,8E0,2.4224953E-1,4E0,3.9963397E-1,1.6703735E-1,-1.7508242E-2,3E0,-2.5104535E-1,1.9325381E-2,-9.8454334E-2],"split_indices":[1,1,1,1,0,1,0,1,0,0,0,1,0,0,0],"split_type":[0,0,0,0,0,0,0,0,0,0,0,0,0,0,0],"sum_hessian":[4.456742E6,2.744832E6,1.71191E6,1.987387E6,7.57445E5,1.420677E6,2.91233E5,1.666391E6,3.20996E5,5.59723E5,8.60954E5,1.235415E6,4.30976E5,7.63945E5,4.7147E5],"tree_param":{"num_deleted":"0","num_feature":"2","num_nodes":"15","size_leaf_vector":"1"}},{"base_weights":[7.3854683E-4,6.691894E0,-6.937264E0,1.0042526E1,3.2794242E0,-3.7693572E0,-1.0709922E1,1.1727663E1,8.298682E0,4.9713135E0,1.4993036E0,-2.0327153E0,-5.6671786E0,-9.158289E0,-1.3052827E1,1.2507833E1,1.072707E1,9.262676E0,7.5523434E0,5.6737766E0,3.9747522E0,2.4469633E0,7.413365E-1,-1.096815E0,-2.9818504E0,-4.7628236E0,-6.4194055E0,-8.265873E0,-1.0023488E1,-1.2261753E1,-1.5800357E1,6.44716E-1,5.940961E-1,5.554554E-1,5.170894E-1,4.8130384E-1,4.4402224E-1,4.0675217E-1,3.5743797E-1,3.1311396E-1,2.6440844E-1,2.1874003E-1,1.7772692E-1,1.3420744E-1,8.861959E-2,5.5424817E-2,1.0664296E-2,-3.532745E-2,-8.33829E-2,-1.3154767E-1,-1.7816849E-1,-2.197387E-1,-2.5829718E-1,-2.9963347E-1,-3.516235E-1,-3.8486597E-1,-4.309163E-1,-4.8728052E-1,-5.335862E-1,-5.826481E-1,-6.451918E-1,-7.5844836E-1,-8.813648E-1],"categories":[],"categories_nodes":[],"categories_segments":[],"categories_sizes":[],"default_left":[0,0,0,0,0,0,0,0,0,0,0,0,0,0,0,0,0,0,0,0,0,0,0,0,0,0,0,0,0,0,0,0,0,0,0,0,0,0,0,0,0,0,0,0,0,0,0,0,0,0,0,0,0,0,0,0,0,0,0,0,0,0,0],"id":34,"left_children":[1,3,5,7,9,11,13,15,17,19,21,23,25,27,29,31,33,35,37,39,41,43,45,47,49,51,53,55,57,59,61,-1,-1,-1,-1,-1,-1,-1,-1,-1,-1,-1,-1,-1,-1,-1,-1,-1,-1,-1,-1,-1,-1,-1,-1,-1,-1,-1,-1,-1,-1,-1,-1],"loss_changes":[2.0682947E8,2.5932088E7,2.614136E7,3.362744E6,3.384107E6,3.918558E6,3.62924E6,4.54176E5,4.04548E5,4.03269E5,3.9329338E5,5.5148475E5,3.86444E5,4.63656E5,8.64328E5,7.8952E4,3.7416E4,3.4002E4,7.4488E4,7.6647E4,4.002575E4,3.8926375E4,5.898142E4,6.964009E4,6.2888E4,3.8252E4,8.1095E4,5.918E4,5.4828E4,1.20568E5,1.02298E5,0E0,0E0,0E0,0E0,0E0,0E0,0E0,0E0,0E0,0E0,0E0,0E0,0E0,0E0,0E0,0E0,0E0,0E0,0E0,0E0,0E0,0E0,0E0,0E0,0E0,0E0,0E0,0E0,0E0,0E0,0E0,0E0],"parents":[2147483647,0,0,1,1,2,2,3,3,4,4,5,5,6,6,7,7,8,8,9,9,10,10,11,11,12,12,13,13,14,14,15,15,16,16,17,17,18,18,19,19,20,20,21,21,22,22,23,23,24,24,25,25,26,26,27,27,28,28,29,29,30,30],"right_children":[2,4,6,8,10,12,14,16,18,20,22,24,26,28,30,32,34,36,38,40,42,44,46,48,50,52,54,56,58,60,62,-1,-1,-1,-1,-1,-1,-1,-1,-1,-1,-1,-1,-1,-1,-1,-1,-1,-1,-1,-1,-1,-1,-1,-1,-1,-1,-1,-1,-1,-1,-1,-1],"split_conditions":[3.7E1,1.9E1,5.6E1,1E1,2.8E1,4.7E1,6.7E1,6E0,1.4E1,2.4E1,3.2E1,4.2E1,5.1E1,6.1E1,7.9E1,4E0,8E0,1.2E1,1.6E1,2.1E1,2.6E1,3.1E1,3.5E1,4E1,4.5E1,4.9E1,5.4E1,5.8E1,6.5E1,7.1E1,8.8E1,6.44716E-1,5.940961E-1,5.554554E-1,5.170894E-1,4.8130384E-1,4.4402224E-1,4.0675217E-1,3.5743797E-1,3.1311396E-1,2.6440844E-1,2.1874003E-1,1.7772692E-1,1.3420744E-1,8.861959E-2,5.5424817E-2,1.0664296E-2,-3.532745E-2,-8.33829E-2,-1.3154767E-1,-1.7816849E-1,-2.197387E-1,-2.5829718E-1,-2.9963347E-1,-3.516235E-1,-3.8486597E-1,-4.309163E-1,-4.8728052E-1,-5.335862E-1,-5.826481E-1,-6.451918E-1,-7.5844836E-1,-8.813648E-1],"split_indices":[0,0,0,0,0,0,0,0,0,0,0,0,0,0,0,0,0,0,0,0,0,0,0,0,0,0,0,0,0,0,0,0,0,0,0,0,0,0,0,0,0,0,0,0,0,0,0,0,0,0,0,0,0,0,0,0,0,0,0,0,0,0,0],"split_type":[0,0,0,0,0,0,0,0,0,0,0,0,0,0,0,0,0,0,0,0,0,0,0,0,0,0,0,0,0,0,0,0,0,0,0,0,0,0,0,0,0,0,0,0,0,0,0,0,0,0,0,0,0,0,0,0,0,0,0,0,0,0,0],"sum_hessian":[4.455297E6,2.267995E6,2.187302E6,1.144365E6,1.12363E6,1.188945E6,9.98357E5,5.81976E5,5.62389E5,5.76091E5,5.47539E5,6.20837E5,5.68108E5,6.00602E5,3.97755E5,3.27E5,2.54976E5,2.45405E5,3.16984E5,3.37903E5,2.38188E5,2.43321E5,3.04218E5,3.12599E5,3.08238E5,2.57972E5,3.10136E5,2.95656E5,3.04946E5,3.08839E5,8.8916E4,2.02154E5,1.24846E5,1.28013E5,1.26963E5,1.25789E5,1.19616E5,1.29701E5,1.87283E5,1.33755E5,2.04148E5,1.22017E5,1.16171E5,1.80021E5,6.33E4,1.79446E5,1.24772E5,1.85667E5,1.26932E5,1.92242E5,1.15996E5,1.34858E5,1.23114E5,1.82862E5,1.27274E5,1.13151E5,1.82505E5,2.13459E5,9.1487E4,1.58539E5,1.503E5,6.6086E4,2.283E4],"tree_param":{"num_deleted":"0","num_feature":"2","num_nodes":"63","size_leaf_vector":"1"}},{"base_weights":[5.498016E-4,-1.0528162E0,1.6903188E0,-1.0829321E-1,-1.7669447E-1,1.0701613E0,2.3550919E-1,-1.6269119E0,3.889986E-1,1.6140124E-1,-1.6740045E-2,-4.9601293E-1,-2.4355507E-1,1.884175E-2,-9.548982E-2],"categories":[],"categories_nodes":[],"categories_segments":[],"categories_sizes":[],"default_left":[0,0,0,0,0,0,0,0,0,0,0,0,0,0,0],"id":35,"left_children":[1,3,5,7,-1,9,-1,11,-1,-1,-1,13,-1,-1,-1],"loss_changes":[7.9352625E6,6.435567E6,3.206089E6,2.3826978E7,0E0,4.305854E6,0E0,6.119336E6,0E0,0E0,0E0,1.5262158E6,0E0,0E0,0E0],"parents":[2147483647,0,0,1,1,2,2,3,3,5,5,7,7,11,11],"right_children":[2,4,6,8,-1,10,-1,12,-1,-1,-1,14,-1,-1,-1],"split_conditions":[7E0,6E0,9E0,5E0,-1.7669447E-1,8E0,2.3550919E-1,4E0,3.889986E-1,1.6140124E-1,-1.6740045E-2,3E0,-2.4355507E-1,1.884175E-2,-9.548982E-2],"split_indices":[1,1,1,1,0,1,0,1,0,0,0,1,0,0,0],"split_type":[0,0,0,0,0,0,0,0,0,0,0,0,0,0,0],"sum_hessian":[4.458148E6,2.746216E6,1.711932E6,1.989016E6,7.572E5,1.420268E6,2.91664E5,1.667916E6,3.211E5,5.60067E5,8.60201E5,1.236784E6,4.31132E5,7.64682E5,4.72102E5],"tree_param":{"num_deleted":"0","num_feature":"2","num_nodes":"15","size_leaf_vector":"1"}},{"base_weights":[-2.2669693E-3,6.373392E0,-6.6070395E0,9.555818E0,3.134382E0,-3.5528576E0,-1.0245614E1,1.1155486E1,7.902029E0,4.924521E0,1.6169598E0,-1.9061748E0,-5.3565736E0,-8.9460745E0,-1.3014562E1,1.1890611E1,1.021149E1,8.8162E0,7.19582E0,5.6026254E0,4.2078424E0,2.7229784E0,8.925405E-1,-1.0214927E0,-2.8036256E0,-4.655151E0,-6.263693E0,-7.966082E0,-9.957216E0,-1.2185186E1,-1.5571505E1,6.228756E-1,5.751907E-1,5.287265E-1,4.9224716E-1,4.580152E-1,4.2269278E-1,3.8763547E-1,3.4051389E-1,2.9952475E-1,2.6044297E-1,2.262942E-1,1.9101612E-1,1.5413775E-1,1.17414765E-1,6.9671795E-2,1.8139575E-2,-3.2238923E-2,-7.8637585E-2,-1.14889026E-1,-1.5834631E-1,-2.0725691E-1,-2.5130752E-1,-2.922441E-1,-3.3305553E-1,-3.6439654E-1,-4.1485286E-1,-4.7115955E-1,-5.235835E-1,-5.9201956E-1,-6.667865E-1,-7.5711316E-1,-9.076172E-1],"categories":[],"categories_nodes":[],"categories_segments":[],"categories_sizes":[],"default_left":[0,0,0,0,0,0,0,0,0,0,0,0,0,0,0,0,0,0,0,0,0,0,0,0,0,0,0,0,0,0,0,0,0,0,0,0,0,0,0,0,0,0,0,0,0,0,0,0,0,0,0,0,0,0,0,0,0,0,0,0,0,0,0],"id":36,"left_children":[1,3,5,7,9,11,13,15,17,19,21,23,25,27,29,31,33,35,37,39,41,43,45,47,49,51,53,55,57,59,61,-1,-1,-1,-1,-1,-1,-1,-1,-1,-1,-1,-1,-1,-1,-1,-1,-1,-1,-1,-1,-1,-1,-1,-1,-1,-1,-1,-1,-1,-1,-1,-1],"loss_changes":[1.8773075E8,2.3382512E7,2.4334024E7,3.026904E6,3.053794E6,3.535837E6,3.595584E6,4.03488E5,3.6314E5,2.50627E5,4.87504E5,4.9409475E5,3.61463E5,6.7382E5,6.76676E5,7.1556E4,3.378E4,3.0492E4,6.8094E4,4.04435E4,3.0887E4,3.2453375E4,9.75555E4,6.5080188E4,5.676625E4,6.06035E4,4.1196E4,7.7456E4,9.186E4,9.5452E4,8.6322E4,0E0,0E0,0E0,0E0,0E0,0E0,0E0,0E0,0E0,0E0,0E0,0E0,0E0,0E0,0E0,0E0,0E0,0E0,0E0,0E0,0E0,0E0,0E0,0E0,0E0,0E0,0E0,0E0,0E0,0E0,0E0,0E0],"parents":[2147483647,0,0,1,1,2,2,3,3,4,4,5,5,6,6,7,7,8,8,9,9,10,10,11,11,12,12,13,13,14,14,15,15,16,16,17,17,18,18,19,19,20,20,21,21,22,22,23,23,24,24,25,25,26,26,27,27,28,28,29,29,30,30],"right_children":[2,4,6,8,10,12,14,16,18,20,22,24,26,28,30,32,34,36,38,40,42,44,46,48,50,52,54,56,58,60,62,-1,-1,-1,-1,-1,-1,-1,-1,-1,-1,-1,-1,-1,-1,-1,-1,-1,-1,-1,-1,-1,-1,-1,-1,-1,-1,-1,-1,-1,-1,-1,-1],"split_conditions":[3.7E1,1.9E1,5.6E1,1E1,2.7E1,4.7E1,6.9E1,6E0,1.4E1,2.3E1,3.1E1,4.2E1,5.2E1,6.2E1,8E1,3E0,8E0,1.2E1,1.6E1,2.1E1,2.5E1,2.9E1,3.4E1,4E1,4.4E1,4.9E1,5.4E1,5.8E1,6.5E1,7.6E1,9.1E1,6.228756E-1,5.751907E-1,5.287265E-1,4.9224716E-1,4.580152E-1,4.2269278E-1,3.8763547E-1,3.4051389E-1,2.9952475E-1,2.6044297E-1,2.262942E-1,1.9101612E-1,1.5413775E-1,1.17414765E-1,6.9671795E-2,1.8139575E-2,-3.2238923E-2,-7.8637585E-2,-1.14889026E-1,-1.5834631E-1,-2.0725691E-1,-2.5130752E-1,-2.922441E-1,-3.3305553E-1,-3.6439654E-1,-4.1485286E-1,-4.7115955E-1,-5.235835E-1,-5.9201956E-1,-6.667865E-1,-7.5711316E-1,-9.076172E-1],"split_indices":[0,0,0,0,0,0,0,0,0,0,0,0,0,0,0,0,0,0,0,0,0,0,0,0,0,0,0,0,0,0,0,0,0,0,0,0,0,0,0,0,0,0,0,0,0,0,0,0,0,0,0,0,0,0,0,0,0,0,0,0,0,0,0],"split_type":[0,0,0,0,0,0,0,0,0,0,0,0,0,0,0,0,0,0,0,0,0,0,0,0,0,0,0,0,0,0,0,0,0,0,0,0,0,0,0,0,0,0,0,0,0,0,0,0,0,0,0,0,0,0,0,0,0,0,0,0,0,0,0],"sum_hessian":[4.458125E6,2.268407E6,2.189718E6,1.144197E6,1.12421E6,1.19046E6,9.99258E5,5.81612E5,5.62585E5,5.15757E5,6.08453E5,6.22321E5,5.68139E5,6.80082E5,3.19176E5,3.26974E5,2.54638E5,2.45186E5,3.17399E5,2.65007E5,2.5075E5,2.40802E5,3.67651E5,3.13391E5,3.0893E5,3.20399E5,2.4774E5,3.45365E5,3.34717E5,2.41008E5,7.8168E4,1.326E5,1.94374E5,1.27917E5,1.26721E5,1.25746E5,1.1944E5,1.29838E5,1.87561E5,1.33496E5,1.31511E5,1.37715E5,1.13035E5,1.22841E5,1.17961E5,1.88971E5,1.7868E5,1.8617E5,1.27221E5,1.29135E5,1.79795E5,1.34927E5,1.85472E5,1.20631E5,1.27109E5,1.13281E5,2.32084E5,1.64244E5,1.70473E5,1.85445E5,5.5563E4,6.7027E4,1.1141E4],"tree_param":{"num_deleted":"0","num_feature":"2","num_nodes":"63","size_leaf_vector":"1"}},{"base_weights":[-4.0018407E-4,6.056587E0,-6.278624E0,9.079066E0,2.9786644E0,-3.377542E0,-9.736632E0,1.0600004E1,7.5084248E0,4.5076327E0,1.3707311E0,-1.8122458E0,-5.090936E0,-8.271639E0,-1.1943527E1,1.1491643E1,9.876537E0,8.378208E0,6.836528E0,5.1422963E0,3.6070614E0,2.051616E0,4.8773137E-1,-9.719547E-1,-2.6655586E0,-4.269263E0,-5.7755885E0,-7.445597E0,-9.072791E0,-1.1014262E1,-1.4114236E1,6.0461605E-1,5.634032E-1,5.206628E-1,4.7569165E-1,4.3562713E-1,4.01399E-1,3.5924986E-1,3.1423315E-1,2.8407052E-1,2.3952042E-1,1.9815736E-1,1.6166632E-1,1.2170645E-1,7.57751E-2,4.0077385E-2,1.01267565E-2,-2.0830685E-2,-6.626732E-2,-1.1716493E-1,-1.6000992E-1,-1.9708328E-1,-2.3139523E-1,-2.6953432E-1,-3.1644014E-1,-3.4696123E-1,-3.8790616E-1,-4.261066E-1,-4.680955E-1,-5.2136093E-1,-5.7291764E-1,-6.598558E-1,-7.7273273E-1],"categories":[],"categories_nodes":[],"categories_segments":[],"categories_sizes":[],"default_left":[0,0,0,0,0,0,0,0,0,0,0,0,0,0,0,0,0,0,0,0,0,0,0,0,0,0,0,0,0,0,0,0,0,0,0,0,0,0,0,0,0,0,0,0,0,0,0,0,0,0,0,0,0,0,0,0,0,0,0,0,0,0,0],"id":37,"left_children":[1,3,5,7,9,11,13,15,17,19,21,23,25,27,29,31,33,35,37,39,41,43,45,47,49,51,53,55,57,59,61,-1,-1,-1,-1,-1,-1,-1,-1,-1,-1,-1,-1,-1,-1,-1,-1,-1,-1,-1,-1,-1,-1,-1,-1,-1,-1,-1,-1,-1,-1,-1,-1],"loss_changes":[1.695253E8,2.1108232E7,2.1960208E7,2.73468E6,2.763772E6,3.192533E6,3.22864E6,3.7506E5,3.2908E5,3.29338E5,3.2943375E5,4.4604225E5,3.19679E5,3.97148E5,8.0356E5,3.4852E4,6.2406E4,2.867E4,6.106E4,6.4097E4,3.169E4,6.3440875E4,2.1351215E4,6.151078E4,5.316975E4,3.03305E4,6.5974E4,4.6713E4,4.8432E4,7.262E4,1.46618E5,0E0,0E0,0E0,0E0,0E0,0E0,0E0,0E0,0E0,0E0,0E0,0E0,0E0,0E0,0E0,0E0,0E0,0E0,0E0,0E0,0E0,0E0,0E0,0E0,0E0,0E0,0E0,0E0,0E0,0E0,0E0,0E0],"parents":[2147483647,0,0,1,1,2,2,3,3,4,4,5,5,6,6,7,7,8,8,9,9,10,10,11,11,12,12,13,13,14,14,15,15,16,16,17,17,18,18,19,19,20,20,21,21,22,22,23,23,24,24,25,25,26,26,27,27,28,28,29,29,30,30],"right_children":[2,4,6,8,10,12,14,16,18,20,22,24,26,28,30,32,34,36,38,40,42,44,46,48,50,52,54,56,58,60,62,-1,-1,-1,-1,-1,-1,-1,-1,-1,-1,-1,-1,-1,-1,-1,-1,-1,-1,-1,-1,